tree
version=v4
num_class=1
num_tree_per_iteration=1
label_index=0
max_feature_idx=9
objective=binary sigmoid:1
feature_names=Column_0 Column_1 Column_2 Column_3 Column_4 Column_5 Column_6 Column_7 Column_8 Column_9
feature_infos=[-17.392491152905759:-14.704961792917571] [3.4339872044851463:4.7536363888048037] [0.033333333333333333:6.833333333333333] [-1:12.180102374543829] [0.10000000000000001:17] [-0.89388923497900941:0.63270121342199181] [0:4.9612064506478193] [3.2222270965576173e-05:1.9498522222704358] [-0.20275171309326356:7.7293737586847797] [-0.53978242558460265:6.6667793139898706]
tree_sizes=3333 3398 3406 3410 3419 3375 3424 3412 3405 3420 3432 3438 3442 3432 3429 3430 3428 3452 3407 3427 3425 3431 3454 3443 3433 3439 3455 3444 3445 3424 3432 3434 3429 3426 3439 3450 3449 3448 3443 3447 3434 3429 3450 3447 3437 3442 3463 3443 3458 3457 3446 3431 3456 3455 3461 3432 3428 3456 3438 3436 3410 3444 3445 3437 3463 3435 3412 3434 3424 3447 3444 3426 3441 3482 3423 3449 3433 3439 3425 3398 3446 3452 3415 3418 3464 3432 3445 3407 3416 3436 3430 3432 3416 3413 3432 3445 3402 3407 3435 3406 3445 3429 3408 3460 3401 3439 3442 3397 3425 3404 3438 3401 3415 3410 3460 3396 3427 3391 3412 3419 3414 3404 3414 3457 3439 3431 3423 3406 3462 3408 3397 3418 3432 3411 3458 3393 3399 3379 3421 3427 3455 3412 3388 3441 3417 3401 3428 3408 3440 3409 3452 3413 3408 3417 3410 3423 3398 3416 3402 3426 3409 3413 3421 3439 3402 3415 3427 3395 3399 3426 3442 3418 3425 3402 3433 3441 3405 3430 3417 3399 3407 3404 3383 3412 3434 3415 3412 3388 3433 3414 3389 3409 3408 3420 3402 3410 3451 3448 3417 3442

Tree=0
num_leaves=31
num_cat=0
split_feature=3 0 2 8 0 7 7 3 0 8 7 9 7 5 8 7 7 3 3 6 7 6 6 7 8 9 2 6 0 3
split_gain=3237.11 878.265 486.69 438.318 412.536 368.553 735.65 301.817 456.697 306.287 256.088 351.55 250.386 225.65 220.807 204.585 162.323 146.082 112.607 108.637 99.4053 105.079 97.9872 138.127 116.12 113.006 123.565 100.68 98.9985 167.267
threshold=0.64214331580756168 -15.131857090933389 0.58333333333333337 0.86630156300203764 -17.277609847898713 0.02141708334287008 0.050985833307107292 3.4114711773629254 -15.429839667122422 0.027247173310158027 0.015299444463517933 1.3143551003326779 0.0024893055359522507 0.080269853721889939 0.052631841052621427 0.014554583330949149 0.0074545833468437203 5.0588151232498104 3.7101151940688082 0.040023878327913674 0.015299444463517933 0.017700403119362693 0.029975948287340435 0.0072581944531864596 0.4710867827673752 0.11906038259811803 1.0833333333333337 0.018124747762852163 -16.383353923292297 1.872259463140596
decision_type=2 2 2 2 2 2 2 2 2 2 2 2 2 2 2 2 2 2 2 2 2 2 2 2 2 2 2 2 2 2
left_child=4 2 13 5 -1 7 -7 14 9 20 11 -10 -6 -2 -4 19 17 -13 -11 -15 21 -9 23 -16 28 26 -25 -27 -24 -30
right_child=1 -3 3 -5 12 6 -8 8 10 18 -12 16 -14 15 22 -17 -18 -19 -20 -21 -22 -23 24 25 -26 27 -28 -29 29 -31
leaf_value=-1.9175843957834768 -1.8639415140888373 -1.9225249568216871 -1.7347414112540771 -1.9045051417990595 -1.8692528478371306 -1.5302664520958522 -1.9286355989345296 -1.857478240779098 -1.5379684904196416 -1.6896678718497899 -1.9265764665923029 -1.8565659669565924 -1.9008245908822134 -1.8227561538001575 -1.8732978747204396 -1.5310902096368753 -1.8414985124120866 -1.5087516561065468 -1.523243919058632 -1.7400481038028346 -1.4962178070669054 -1.6461226415810153 -1.8197059261739832 -1.5343723181140487 -1.8762902872873963 -1.8592637606669964 -1.9286355989345296 -1.7441570187862259 -1.6417841924480858 -1.8250624751339011
leaf_weight=1266.8303713202477 237.27052956819534 139.10158239305019 133.32013674080372 51.801753044128418 1472.6498365402222 44.054615870118141 15.725532174110411 18.269368261098869 16.766192391514778 13.181696087121962 24.282071739435196 4.8564143478870374 1094.8901776224375 162.92113848030567 102.10033021867275 7.1689926087856284 45.904678478837013 7.9783950001001358 44.40150260925293 52.495526522397995 3.2376095652580252 8.6721684783697111 30.29477521777153 7.8627660870552045 21.969493478536606 43.245213478803635 2.6594650000333786 33.879271522164345 35.03556065261364 19.310028478503227
leaf_count=10956 2052 1203 1153 448 12736 381 136 158 145 114 210 42 9469 1409 883 62 397 69 384 454 28 75 262 68 190 374 23 293 303 167
internal_value=-1.87094 -1.80365 -1.78974 -1.76433 -1.89424 -1.7536 -1.63506 -1.76508 -1.71216 -1.62896 -1.78533 -1.73991 -1.88272 -1.83002 -1.78818 -1.79386 -1.79755 -1.64036 -1.56134 -1.8026 -1.75799 -1.78945 -1.81222 -1.83377 -1.77387 -1.78773 -1.63402 -1.8087 -1.74728 -1.70691
internal_weight=0 1327.77 1188.67 728.809 3834.37 677.007 59.7801 617.227 187.55 87.7623 99.7878 75.5057 2567.54 459.856 429.677 222.586 58.7395 12.8348 57.5832 215.417 30.1791 26.9415 296.357 189.747 106.61 87.6467 10.5222 77.1245 84.6404 54.3456
internal_count=44644 11483 10280 6303 33161 5855 517 5338 1622 759 863 653 22205 3977 3716 1925 508 111 498 1863 261 233 2563 1641 922 758 91 667 732 470
is_linear=0
shrinkage=1


Tree=1
num_leaves=31
num_cat=0
split_feature=3 0 4 0 7 7 5 7 2 7 5 3 6 3 2 0 0 5 3 5 4 9 9 5 6 0 7 3 6 9
split_gain=2807.46 735.478 471.239 396.14 289.446 776.56 296.917 307.387 294.652 242.776 212.607 178.517 167.23 227.863 119.751 121.901 130.762 116.458 215.228 106.683 128.828 105.291 89.3874 81.5995 91.2868 73.5036 107.07 133.293 77.2652 114.708
threshold=0.64214331580756168 -15.131857090933389 1.2500000000000002 -17.277609847898713 0.050985833307107292 0.02431236111455494 0.031275589225419086 0.012139722241295709 2.4833333333333338 0.0080813889039887347 0.086199102894868693 6.1311964423053338 0.0098051250011179838 3.4114711773629254 2.416666666666667 -16.067532250689371 -16.226176790839467 0.075217640708820602 3.7101151940688082 0.11744965377036039 3.9500000000000006 1.3788124045884353 1.1027759813123008 -0.0015783386390928597 0.043177719994197887 -16.566047105884529 0.005880138874053956 1.7831688962394467 0.024869367600327038 0.56388638987209316
decision_type=2 2 2 2 2 2 2 2 2 2 2 2 2 2 2 2 2 2 2 2 2 2 2 2 2 2 2 2 2 2
left_child=3 2 10 -1 5 6 8 12 -4 23 -2 17 -8 14 21 16 -16 18 -9 -15 -21 25 -10 -5 -25 -14 28 -28 -27 -30
right_child=1 -3 4 9 -6 -7 7 11 22 -11 -12 -13 13 19 15 -17 -18 -19 -20 20 -22 -23 -24 24 -26 26 27 -29 29 -31
leaf_value=-0.045909551449566099 -0.010968511432113297 -0.050963758211901793 0.0038263460025473278 -0.025675690543394303 -0.057410147512084599 0.27354913948115012 -0.044889761229070263 0.010157175713268587 0.28726011817121277 -0.047865466598722456 0.068281103425272716 -0.050428470353143795 0.034255234889991271 0.067803322449321066 -0.057641457407005103 -0.058022047685019819 0.36114209043247736 0.28148103920796635 0.2752345317770567 0.12619254790622533 0.25292257271483937 0.18862764070820592 0.034709891056196727 -0.005074254649332117 0.026411246787208111 0.033766455338673 0.21695924853717519 0.076681416021204818 0.06706607439763175 0.15779250645490112
leaf_weight=1223.9339911043644 199.69770468771458 133.89815631508827 155.64991171658039 383.9752663820982 31.688229650259018 57.811347931623459 23.000557951629162 14.625155277550222 12.939515039324762 385.14373049139977 146.87255957722664 6.6891245990991584 75.135138265788555 24.523791581392288 3.4494850635528564 28.283764339983463 4.0553576573729506 36.029798954725266 16.073672726750374 41.831779763102531 38.518729150295258 23.07494167983532 4.8045977503061286 1504.6017678901553 271.79786559194326 80.412669628858566 33.004235096275806 34.779882565140724 120.60836245119572 48.990724593400955
leaf_count=10956 1713 1203 1305 3360 282 413 195 121 91 3405 1200 57 620 198 30 238 34 264 111 326 283 188 38 13080 2360 663 262 282 972 394
internal_value=0 0.0604604 0.0722774 -0.0225339 0.091067 0.0963876 0.0839954 0.0994374 0.0258333 -0.0112944 0.0226166 0.195824 0.0872296 0.0926885 0.077276 -0.0104881 0.168655 0.220509 0.14895 0.159085 0.186945 0.0848263 0.218877 -0.00477465 -0.000256818 0.0787305 0.0892456 0.144983 0.0741339 0.0932735
internal_weight=0 1396.45 1262.55 3769.45 915.981 884.293 826.481 653.087 173.394 2545.52 346.57 73.4178 579.669 556.669 451.795 35.7886 7.50484 66.7286 30.6988 104.874 80.3505 416.006 17.7441 2160.37 1776.4 392.931 317.796 67.7841 250.012 169.599
internal_count=44644 11483 10280 33161 7367 7085 6672 5238 1434 22205 2913 553 4685 4490 3683 302 64 496 232 807 609 3381 129 18800 15440 3193 2573 544 2029 1366
is_linear=0
shrinkage=0.05


Tree=2
num_leaves=31
num_cat=0
split_feature=3 0 0 4 8 7 7 7 5 7 4 5 3 1 3 9 8 4 7 5 7 9 7 9 8 5 3 3 7 7
split_gain=2457.44 626.376 380.107 372.634 275.31 278.478 448.587 230.187 203.97 234.561 202.589 156.533 125.787 101.122 156.014 127.39 127.338 170.768 90.4585 174.408 89.9943 83.513 76.7507 73.6313 73.2372 69.7118 145.356 66.387 65.6149 212.955
threshold=0.64214331580756168 -15.131857090933389 -17.277609847898713 1.0500000000000003 0.86630156300203764 0.022843611107932201 0.050985833307107292 0.0080813889039887347 0.033671211514519427 0.012139722241295709 6.0500000000000007 0.086199102894868693 6.1311964423053338 4.195727028535015 2.266243836245287 0.57705082332982316 0.33535740590628177 2.6500000000000008 0.0072581944531864596 0.19973603184825839 0.011289166708787284 1.1616338406991351 0.0022554166449440857 1.8213502912492765 0.15361736000681273 0.076309638368586494 3.7101151940688082 0.28732636607827017 0.0077411110864745248 0.0066240277886390692
decision_type=2 2 2 2 2 2 2 2 2 2 2 2 2 2 2 2 2 2 2 2 2 2 2 2 2 2 2 2 2 2
left_child=2 3 -1 11 5 8 -7 22 10 13 -5 -2 25 14 15 20 17 23 19 -19 28 -20 27 -15 -17 26 -11 -4 29 -10
right_child=1 -3 7 4 -6 6 -8 -9 9 12 -12 -13 -14 16 -16 24 -18 18 21 -21 -22 -23 -24 -25 -26 -27 -28 -29 -30 -31
leaf_value=-0.045179764995921121 -0.019574828591611734 -0.050352964100657274 -0.0023758287644579834 0.0039870340352017716 -0.031029948655155432 0.22105050154092831 -0.056961921736317991 -0.04716731249883694 0.053489392173769502 0.015877334330497535 0.17495678119837832 0.057918735280869507 -0.049522419230402771 0.099006121610769909 -0.0016016809726003896 0.10363626946604383 -0.00020731122411448127 0.23900422808562527 0.24564786908281874 0.026997648031255241 0.26918194477479473 0.084126365913289633 -0.017661109424807694 -0.022484081115121929 0.209673781375041 0.22404408627138792 0.22305670770116334 0.027586513358379562 -0.0021208256956091668 0.20780334549410173
leaf_weight=1182.5732890069485 157.36841726303101 128.87387468665838 1198.7509033679962 141.30497617274523 54.45621682703495 74.625870361924171 18.011784374713898 371.64590645581484 243.85749589651823 15.511870712041853 19.748232141137123 111.22059419751167 6.3047905489802352 28.293259844183922 75.131826259195805 60.761005721986294 24.134937129914761 49.377610132098198 9.5649467110633832 12.072622537612913 5.1726944521069518 48.994976863265038 735.51573969423771 22.302254378795624 22.245330303907394 44.240992672741413 18.638627804815769 218.58200150728226 38.550127647817135 24.613845594227314
leaf_count=10956 1361 1203 10384 1173 476 467 168 3405 1915 128 124 865 56 205 594 463 201 327 60 88 39 366 6532 184 162 273 110 1884 299 176
internal_value=0 0.0548848 -0.021787 0.0651089 0.0784618 0.0844038 0.166996 -0.010829 0.0760035 0.0869697 0.0249512 0.0125146 0.165337 0.0769897 0.0644443 0.0770003 0.107289 0.122496 0.154977 0.197353 0.0623627 0.110509 -0.00455589 0.0454538 0.132054 0.182618 0.128952 0.00224498 0.0588782 0.0676371
internal_weight=0 1455.38 3707.07 1326.51 1057.92 1003.46 92.6377 2524.49 910.822 749.769 161.053 268.589 84.6963 665.073 470.332 395.2 194.741 170.606 120.01 61.4502 312.194 58.5599 2152.85 50.5955 83.0063 78.3915 34.1505 1417.33 307.021 268.471
internal_count=44644 11483 33161 10280 8054 7578 635 22205 6943 5646 1297 2226 567 5079 3648 3054 1431 1230 841 415 2429 426 18800 389 625 511 238 12268 2390 2091
is_linear=0
shrinkage=0.05


Tree=3
num_leaves=31
num_cat=0
split_feature=3 1 4 1 6 8 3 7 7 8 4 8 7 5 3 7 6 7 7 8 2 7 7 5 7 7 1 1 8 7
split_gain=2169.84 527.613 353.982 353.958 295.292 249.831 228.299 207.71 207.144 199.214 273.232 143.432 120.087 107.869 85.743 74.3354 73.1538 106.654 100.581 130.763 88.915 79.9949 94.5426 72.0093 70.679 104.333 86.3979 69.2467 65.7877 64.6095
threshold=0.60664412269790247 4.5419604676686189 0.95000000000000007 3.489627403257328 0.0074057590572170259 0.86630156300203764 3.4114711773629254 0.0080813889039887347 0.02431236111455494 0.38327572775190827 6.3500000000000005 0.11740492114315727 0.015842083328300057 0.10640569131497958 5.5497407762310091 0.0022554166449440857 0.03621593794655948 0.0071588888764381421 0.010479861133628423 0.36194343607482754 2.183333333333334 0.0078204166558053772 0.0041208333108160239 0.11069106859155396 0.011289166708787284 0.0076449999875492529 4.195727028535015 3.807315425417682 0.63994970548175034 0.019147777789168891
decision_type=2 2 2 2 2 2 2 2 2 2 2 2 2 2 2 2 2 2 2 2 2 2 2 2 2 2 2 2 2 2
left_child=3 2 13 -1 -4 6 8 15 11 12 -11 24 -8 -2 -12 -5 17 -13 19 20 27 22 23 -18 25 26 -6 -19 -24 -26
right_child=1 -3 4 7 5 -7 9 -9 -10 10 14 16 -14 -15 -16 -17 21 18 -20 -21 -22 -23 28 -25 29 -27 -28 -29 -30 -31
leaf_value=-0.044456932430015333 -0.016665358855892484 -0.049376572228477834 -0.044162153644841148 0.0017545916708210569 0.076682352633094419 -0.030292716386072005 0.11451503213710255 -0.046496609977066332 0.18876820446326267 -0.029889721858419593 0.18739463686473953 -0.0056552740076472423 0.19106370022933616 0.055218509974326736 0.011595733569003888 -0.018107003954530236 0.23210985450640723 -0.057962818949292311 0.0056749913715021492 0.19436017141002823 -0.05417883228375231 -0.058259513237193486 0.22734086156551847 0.041925907188562227 0.17484415125322761 0.001273828115301655 0.16960266638158292 0.13473169822415224 0.0098096787048986972 -0.057957009555088139
leaf_weight=1142.7269599735737 178.69795176386833 124.37908459454775 54.360669143497944 1407.6033142060041 261.10658017545938 53.445311591029167 147.69667548686266 349.57426349818707 32.582692340016365 46.887773521244526 31.007872551679611 141.86990210413933 78.446734823286533 73.717620365321636 8.9344455748796445 708.06948418170214 5.4913842380046836 5.7861449420452145 51.103345140814781 23.346882715821266 14.354557305574415 9.8852348476648313 16.93824324011803 53.149768680334091 29.761583514511585 42.034903421998024 27.666966512799263 24.004071146249771 4.3730343431234351 3.3120078966021529
leaf_count=10956 1540 1206 465 12166 1940 478 966 3319 183 397 163 1126 434 556 66 6372 42 49 408 169 125 82 113 395 197 320 182 166 35 28
internal_value=0 0.0493697 0.0580192 -0.0214545 0.0696268 0.0751835 0.0805029 -0.0107921 0.065479 0.116351 0.0519733 0.0598543 0.141069 0.00432823 0.148071 -0.00489265 0.0370169 0.0235979 0.0585921 0.0986599 0.0480468 0.0759225 0.0925126 0.0597355 0.0818394 0.0748717 0.0855849 0.0973047 0.182704 0.151531
internal_weight=0 1544.34 1419.96 3607.97 1167.55 1113.19 1059.74 2465.25 746.767 312.974 86.8301 714.185 226.143 252.416 39.9423 2115.67 350.303 260.465 118.595 67.4917 44.1448 89.8377 79.9524 58.6412 363.882 330.808 288.774 29.7902 21.3113 33.0736
internal_count=44644 11831 10625 32813 8529 8064 7586 21857 5560 2026 626 5377 1400 2096 229 18538 2710 2043 917 509 340 667 585 437 2667 2442 2122 215 148 225
is_linear=0
shrinkage=0.05


Tree=4
num_leaves=31
num_cat=0
split_feature=3 0 0 4 6 7 5 9 7 7 5 2 3 2 9 3 5 6 2 5 6 3 7 2 3 5 9 6 9 0
split_gain=1924.22 462.606 339.951 294.717 250.819 198.337 176.597 176.942 175.549 278.816 105.291 153.626 97.0621 121.68 171.583 100.429 94.4737 83.7337 79.2684 71.0648 70.9064 69.9752 66.0291 62.6388 82.9813 62.9859 61.0055 59.3723 60.2943 59.1703
threshold=0.60664412269790247 -15.131857090933389 -17.286594593545654 0.95000000000000007 0.0074057590572170259 0.0080813889039887347 -0.11747767151676651 0.28716635404568941 0.050985833307107292 0.022843611107932201 0.031275589225419086 2.2166666666666672 3.4114711773629254 1.7833333333333337 0.85203629790521673 6.1311964423053338 0.10640569131497958 0.023024920344983473 1.5166666666666668 -0.0015783386390928597 0.046315412451437561 2.5685308922047434 0.0074545833468437203 0.95000000000000007 2.0473893073773852 0.23068770670903466 1.3338769567295785 0.036615918148656869 -0.16524034723377215 -17.056840568857307
decision_type=2 2 2 2 2 2 2 2 2 2 2 2 2 2 2 2 2 2 2 2 2 2 2 2 2 2 2 2 2 2
left_child=2 3 -1 16 -5 19 -6 27 9 10 11 17 13 23 22 -14 -2 -9 -17 -4 -21 -19 -15 24 -12 -25 -13 28 -8 -22
right_child=1 -3 5 4 6 -7 7 8 -10 -11 12 26 15 14 -16 18 -18 21 -20 20 29 -23 -24 25 -26 -27 -28 -29 -30 -31
leaf_value=-0.04430351512914929 -0.016031644375963019 -0.04916954395624621 -0.024370042243974575 -0.043367518770905562 -0.052201370418706206 -0.045949219738229227 0.26768269163782987 -0.028484326669555415 -0.056518315100562377 0.17144453092392981 0.089301124276631574 0.16900146308451736 0.12669394971326867 -0.0088793868788635388 -0.057882601636179282 0.19131603780161877 0.050484620213944502 -0.0097312629094335953 -0.030132866133962346 -0.0047369746908697387 -0.0023041732102802013 0.20553279177631195 0.19470278079777129 0.1197293186037673 0.018989676932299814 -0.036925182378255698 -0.06032880428434341 0.072527305788278595 0.025772997569430196 0.046658652278002984
leaf_weight=1069.0896216630936 176.53001543134451 119.3908528983593 385.23764281719923 52.633015193045139 29.666314043104649 341.6840615272522 2.6035330891609183 63.33214183151722 21.398718632757664 89.745367728173733 119.62368506938219 21.881523996591572 178.55606821924448 5.8839956820011166 37.819053389132023 5.1506212279200581 76.522051930427551 7.2444131821393949 18.75823337584734 1505.3293432071805 114.42271485924721 7.8834104761481285 12.32700940966606 114.26764012128115 64.637579932808876 6.7982295900583258 3.3429598957300177 110.44963862001896 241.67054441571236 133.92321670055389
leaf_count=10606 1540 1203 3503 465 270 3362 21 523 210 463 821 115 1006 45 325 35 556 61 145 13221 981 55 72 759 455 53 24 789 1820 1140
internal_value=0 0.0454802 -0.0207338 0.0531741 0.0633929 -0.0105757 0.0682243 0.0713765 0.0847108 0.0887018 0.0775771 0.0312695 0.0860929 0.0705643 0.00283404 0.113808 0.00408264 -0.0032395 0.0175733 -0.0049249 -0.000653302 0.102447 0.128925 0.0829934 0.0646364 0.110933 0.138609 0.0421063 0.0283513 0.0240996
internal_weight=0 1588.12 3549.69 1468.73 1215.67 2480.6 1163.04 1133.37 778.651 757.252 667.507 103.684 563.822 361.357 56.0301 202.465 253.052 78.46 23.9089 2138.91 1753.68 15.1278 18.211 305.327 184.261 121.066 25.2245 354.724 244.274 248.346
internal_count=44644 11831 32813 10628 8532 22207 8067 7797 5167 4957 4494 778 3716 2530 442 1186 2096 639 180 18845 15342 116 117 2088 1276 812 139 2630 1841 2121
is_linear=0
shrinkage=0.05


Tree=5
num_leaves=31
num_cat=0
split_feature=3 1 0 4 8 9 3 3 1 4 2 9 5 8 8 5 4 4 3 9 1 0 8 0 0 9 1 4 8 0
split_gain=1714.42 398.787 313.98 291.944 168.336 106.563 121.863 107.109 120.43 209.784 95.9575 99.8636 95.7876 88.0163 88.0074 76.6504 66.0265 84.9102 65.5979 64.9039 81.1302 61.1076 55.0973 54.2565 52.0145 50.9418 45.042 43.763 59.0876 42.2446
threshold=0.55365522405306211 4.5621964338565695 -17.286594593545654 0.95000000000000007 0.86630156300203764 0.19874709865216481 6.1311964423053338 3.853608503511242 4.3946537120569236 4.6500000000000012 2.416666666666667 0.85203629790521673 -0.0015783386390928597 0.38710107187189119 0.013422225009708024 0.086199102894868693 4.8500000000000005 1.4500000000000002 5.8349358259040942 1.8858881374838181 4.2099671336418529 -16.748049193215707 0.54765152325531619 -15.288144374978877 -15.608003135239153 1.1027759813123008 4.2860320070898501 3.1500000000000008 0.3163571932718327 -15.86587736763105
decision_type=2 2 2 2 2 2 2 2 2 2 2 2 2 2 2 2 2 2 2 2 2 2 2 2 2 2 2 2 2 2
left_child=2 3 -1 15 5 -5 7 10 14 18 19 -12 -4 16 -9 29 17 -8 -10 20 -7 -17 -11 -20 -21 -24 -22 -28 -29 -2
right_child=1 -3 12 4 -6 6 13 8 9 22 11 -13 -14 -15 -16 21 -18 -19 23 24 26 -23 25 -25 -26 -27 27 28 -30 -31
leaf_value=-0.043601233684323476 -0.028409333624125194 -0.055987269906870564 -0.030246977372569997 0.036429506619664369 -0.029913324186175323 0.06412637447537059 -0.058249221264291523 0.056836438678676438 -0.023426537673781934 0.17855662188327784 0.12444752024579804 -0.057914930575108617 -0.0055579186540354077 -0.046298434339391313 0.15961422296647718 -0.043171888923154787 -0.019082211612897124 0.12521818610849958 0.010991844273528943 0.10996095381492055 0.1358821322809427 0.048531086237423637 0.13345428434513903 0.23323697756522621 -0.059290676327294303 -0.064858922371869604 -0.0057328590651431529 0.17667483288898778 -0.036813897707684715 0.063299240797137488
leaf_weight=1032.9163226038218 151.0901495590806 99.610346436500549 494.66595028340816 326.71796791255474 53.148386783897877 427.94842098653316 7.806541107594966 26.38555371016264 47.394219443202019 33.434351645410061 10.114358820021151 29.123424470424652 1908.9215210080147 35.289996340870857 98.899175196886063 22.269159831106663 21.087904535233974 32.817984618246555 6.0604649484157562 6.2649800777435329 70.412005551159382 98.604098774492741 8.7533969804644567 5.0215891748666746 16.481036745011806 5.1396181583404532 13.123224504292013 11.639382913708689 4.4918289706110945 13.695374600589274
leaf_count=10606 1376 1043 4693 2402 492 2859 67 164 364 176 57 257 16992 336 487 177 168 187 44 36 403 718 44 30 130 32 83 61 35 125
internal_value=0 0.0410501 -0.0205465 0.0471553 0.0572295 0.0609514 0.0696817 0.0759458 0.104798 0.0655205 0.0646373 -0.0109072 -0.010639 0.0166842 0.137969 0.00139502 0.0527006 0.0899625 0.00218129 0.0700232 0.0735883 0.0316361 0.143781 0.111697 -0.0126734 0.0600898 0.114216 0.0620689 0.117228 -0.0207874
internal_weight=0 1682.82 3436.5 1583.21 1297.56 1244.41 917.689 820.687 231.088 105.804 589.599 39.2378 2403.59 97.0024 125.285 285.659 61.7124 40.6245 58.4763 550.361 527.615 120.873 47.3274 11.0821 22.746 13.893 99.6664 29.2544 16.1312 164.786
internal_count=44644 12353 32291 11310 8914 8422 6020 5262 1341 690 3921 314 21685 758 651 2396 422 254 438 3607 3441 895 252 74 166 76 582 179 96 1501
is_linear=0
shrinkage=0.05


Tree=6
num_leaves=31
num_cat=0
split_feature=0 6 0 0 9 7 7 7 8 0 5 4 4 9 6 4 1 0 9 7 7 5 7 4 4 8 0 7 9 4
split_gain=1476.78 412.681 321.898 255.61 236.189 199.217 169.333 166.502 152.043 150.704 131.65 101.467 101.163 189.005 87.524 81.685 71.8663 70.1629 177.244 68.3542 89.793 67.3682 66.394 61.7164 60.4193 60.021 52.3131 47.4176 71.5282 55.3746
threshold=-16.699971665962384 0.0080572203188854531 -17.254311548765916 -15.090613006786123 0.28716635404568941 0.0080813889039887347 0.050985833307107292 0.026810555590523619 0.28225273069152451 -15.720268389582694 0.069069862357334796 4.9500000000000011 6.1500000000000012 1.1027759813123008 0.036615918148656869 0.55000000000000016 3.6935769899726787 -15.608003135239153 1.2620178339673038 0.019147777789168891 0.013953472210301295 0.18414487529908521 0.0022554166449440857 1.2500000000000002 0.95000000000000007 0.37933693392456908 -17.361362005301896 0.015299444463517933 1.2162033668121415 3.8500000000000001
decision_type=2 2 2 2 2 2 2 2 2 2 2 2 2 2 2 2 2 2 2 2 2 2 2 2 2 2 2 2 2 2
left_child=2 -2 26 4 10 16 7 8 9 11 24 19 17 25 -12 -9 22 18 -10 20 -6 -16 23 -4 -3 -14 -1 28 -11 -30
right_child=1 3 5 -5 6 -7 -8 15 12 27 14 -13 13 -15 21 -17 -18 -19 -20 -21 -22 -23 -24 -25 -26 -27 -28 -29 29 -31
leaf_value=-0.049139430319255627 -0.039883918175995112 -0.040076899615935843 0.0048190248129886199 -0.055661268768954275 0.059616820467654985 -0.04445951259125621 -0.056002819681103169 -0.057123548295579432 -0.0068336703301012372 0.153245284213058 0.022450084901413769 -0.058473755972793209 -0.016351827679759831 -0.035399662174555389 0.092106651605662393 0.14421381543038209 0.021728795348827781 -0.045825512536989257 0.16576561523552596 -0.047383447195929573 0.16035122167809709 0.0072641259827635786 -0.020600122477922273 -0.034567482844136597 0.01597845330514051 0.14254360319413806 -0.027898063732767431 0.15747351976124913 0.044858260195094826 0.11130993279391568
leaf_weight=682.77370501309633 153.12267988920212 85.390643209218979 1021.0890014842153 59.112838201224804 294.18504741042852 320.10298486799002 27.58049713820219 5.3416829332709304 74.180983796715736 43.413013629615307 210.02180109173059 18.288000896573067 6.7471755072474471 27.894218064844608 107.98955484479666 88.528832048177719 276.45067968964577 49.739334836602211 18.604695044457912 13.57278975099325 23.920931652188301 29.868925124406815 520.18276387453079 110.19273434579372 109.98991292715073 49.877333290874958 503.68920270353556 41.684933952987194 61.405824102461338 64.050340242683887
leaf_count=7255 1444 790 8910 647 1878 3237 289 49 547 226 1530 155 58 244 727 435 2352 418 106 112 146 201 4821 953 853 232 5114 198 371 346
internal_value=0 0.0383333 -0.0190515 0.0462576 0.0504061 -0.00793096 0.0659942 0.0698116 0.0623091 0.0762911 0.0243231 0.0561814 0.0277906 0.0711312 0.0427691 0.132757 -0.00186591 0.00208918 0.0277747 0.0625033 0.0671918 0.0737244 -0.0058156 0.000982574 -0.00852042 0.12361 -0.0401218 0.109716 0.0979269 0.0787845
internal_weight=0 1664.51 3434.48 1511.39 1452.28 2248.02 909.016 881.435 787.565 560.521 543.261 349.967 227.044 84.5187 347.88 93.8705 1927.92 142.525 92.7857 331.679 318.106 137.858 1651.46 1131.28 195.381 56.6245 1186.46 210.554 168.869 125.456
internal_count=44644 12002 32642 10558 9911 20273 5810 5521 5037 3432 4101 2291 1605 534 2458 484 17036 1071 653 2136 2024 928 14684 9863 1643 290 12369 1141 943 717
is_linear=0
shrinkage=0.05


Tree=7
num_leaves=31
num_cat=0
split_feature=3 1 0 4 6 5 5 9 5 3 3 5 6 6 6 0 4 5 9 5 5 5 9 2 6 3 5 2 9 2
split_gain=1376.34 320.519 289.671 222.232 187.026 127.306 123.078 108.975 65.8099 76.5627 59.3989 61.1333 58.0534 56.1555 76.7974 53.0805 52.3391 58.5201 48.1162 47.5272 66.9107 45.8199 48.2677 52.9537 44.3238 42.4322 105.351 87.1948 85.3077 59.2988
threshold=0.55365522405306211 4.5621964338565695 -17.351979195710616 0.95000000000000007 0.0074057590572170259 -0.1230593404979613 -0.0010829485029532784 0.52125191877972588 0.03524946906905408 2.8922550290378788 6.1311964423053338 0.19973603184825839 0.046315412451437561 0.015869058321480063 0.036615918148656869 -17.056840568857307 4.6500000000000012 0.041005578917877879 1.2008312163017174 0.025063955070610579 0.12196847617423361 0.15838681467784474 0.27328515554063543 0.85000000000000009 0.008681008641783004 3.4114711773629254 -0.046839075056628675 1.6833333333333336 0.85203629790521673 0.91666666666666685
decision_type=2 2 2 2 2 2 2 2 2 2 2 2 2 2 2 2 2 2 2 2 2 2 2 2 2 2 2 2 2 2
left_child=2 3 -1 8 -5 -6 -4 13 -2 -10 11 25 -8 21 -15 -14 17 -12 -13 -16 -21 22 23 -7 -11 27 -27 29 -29 -9
right_child=1 -3 6 4 5 7 12 10 9 24 16 18 15 14 19 -17 -18 -19 -20 20 -22 -23 -24 -25 -26 26 -28 28 -30 -31
leaf_value=-0.04805175764452399 -0.041667148925450016 -0.055387351297208093 -0.029998596777371496 -0.042922632490673823 -0.056709332116633794 0.034395900252485172 -0.0086736452091016932 0.054314939372971022 0.0071525175630978641 -0.014594707737829352 0.014679826686288401 0.066433108507296626 -0.0064946522335895818 0.019479740950466059 -0.05891376066975932 0.038550740842669323 -0.024854352160681242 0.12334936449865613 -0.017868703654332459 0.11604666692776205 0.044705759995669947 -0.059547803693700586 0.17438794089710119 0.20149806020386074 0.19948070325313072 -0.00062838521459660781 0.10220997897274589 0.099572932569810813 -0.049565025716887035 0.10145946741610855
leaf_weight=688.85869160294533 69.374108947813511 91.577232919633389 678.89257182180882 53.031383477151394 25.986792236566544 24.625650472939018 1701.8220656067133 146.92487958818674 206.1132628172636 3.3914266601204863 31.097286194562912 36.8618099167943 127.45712269842625 336.8429901599884 7.7465755045413962 134.3206439986825 30.226513929665089 20.592725783586502 31.296969369053841 48.913505017757416 100.18505650758743 4.7669144719839087 15.735524572432039 5.8714114204049102 8.4234341382980329 27.65998512506485 249.93306074291468 14.275933563709257 29.202717609703541 122.15382087230682
leaf_count=7605 661 1043 6882 500 253 173 15560 893 1650 27 248 220 1133 2364 62 1111 250 102 209 315 638 37 97 38 58 222 1262 79 260 692
internal_value=0 0.0356631 -0.0191746 0.0407128 0.0491314 0.0528554 -0.0116468 0.0550713 0.000746333 0.014248 0.067562 0.0725583 -0.00530181 0.0380964 0.0329364 0.0166186 0.0274101 0.0579726 0.0277236 0.0618363 0.06811 0.0880465 0.103265 0.066567 0.138031 0.0777365 0.0919629 0.0651015 -0.000596543 0.0757172
internal_weight=0 1742.81 3331.35 1651.23 1363.93 1310.9 2642.49 1284.91 287.302 217.928 740.226 658.309 1963.6 544.688 493.688 261.778 81.9165 51.69 68.1588 156.845 149.099 50.9995 46.2326 30.4971 11.8149 590.15 277.593 312.557 43.4787 269.079
internal_count=44644 12353 32291 11310 8914 8414 24686 8161 2396 1735 4437 3837 17804 3724 3379 2244 600 350 429 1015 953 345 308 211 85 3408 1484 1924 339 1585
is_linear=0
shrinkage=0.05


Tree=8
num_leaves=31
num_cat=0
split_feature=3 7 1 4 0 7 7 8 2 9 7 7 7 2 2 0 2 9 9 3 7 2 7 0 4 2 4 1 9 7
split_gain=1235.05 302.592 288.065 192.15 165.738 131.352 209.91 100.711 93.8513 127.959 91.0945 126.426 80.3461 76.6858 92.9274 89.7952 60.0411 58.237 46.9875 46.2255 53.2134 46.2231 45.4483 91.5122 44.6681 43.659 42.594 38.9097 54.2503 51.1556
threshold=0.55365522405306211 0.0047297222084469277 4.5621964338565695 0.95000000000000007 -17.254311548765916 0.050985833307107292 0.02431236111455494 0.28225273069152451 2.6166666666666671 1.1027759813123008 0.010095138880941606 0.0067088889082272856 0.000616388883855608 0.91666666666666685 2.6500000000000008 -16.422512491935503 1.1500000000000001 3.3623739061606708 0.37022519186389297 1.7831688962394467 0.010747222238116796 0.15000000000000005 0.020100138882795972 -15.683439856306391 2.8500000000000001 1.3166666666666671 1.2500000000000002 4.1797291746697764 1.3338769567295785 0.0088816666603088405
decision_type=2 2 2 2 2 2 2 2 2 2 2 2 2 2 2 2 2 2 2 2 2 2 2 2 2 2 2 2 2 2
left_child=1 4 3 12 -1 6 7 13 10 -10 11 24 -2 19 15 16 -15 25 -8 20 -5 -3 -21 -24 -9 -13 -22 29 -29 -14
right_child=2 21 -4 5 -6 -7 18 8 9 -11 -12 17 27 14 -16 -17 -18 -19 -20 22 26 -23 23 -25 -26 -27 -28 28 -30 -31
leaf_value=-0.030547188988585369 0.11949035719647901 -0.04641462703166066 -0.055097074436023442 0.043887547830435622 0.00022352502249836198 -0.055625284247467925 -0.063065812821368097 0.01983241442467195 0.10614412131082931 -0.050648874123277156 -0.033626379800528218 0.066497046295965048 0.0085526048329305163 0.061005229379784622 -0.02547611040041824 0.08396663893973022 -0.055568950927227537 -0.059372745375537272 0.12072756512222667 0.010219965466412281 0.01655606034228943 -0.021879239112919429 -0.058745307609130097 0.14829489320773676 -0.042697321749272245 0.15912029943617145 0.15439920095986792 0.2139209133208512 0.01831642059592815 -0.037026180465150452
leaf_weight=598.56118535995483 13.558419883251188 803.49425539374352 87.558279737830162 293.88882993906736 1627.4244478419423 31.330298140645027 3.5966704785823813 84.763209454715252 56.374216318130493 16.917347617447376 94.326518021523952 31.199254170060158 145.99686402827501 24.341507352888584 24.851178951561451 313.06039017438889 20.221296079456806 6.0627012550830832 104.92424829304218 171.35447403788567 7.760136470198634 252.21781685203314 7.8069392070174244 16.87060522288084 43.073777236044407 21.482882253825665 20.172727093100548 4.5014739036560085 16.678116142749786 106.44500765949488
leaf_count=6509 92 8748 1043 1924 14437 346 24 593 271 150 787 219 1150 159 195 1665 146 48 482 1158 55 2597 63 82 323 118 106 28 134 992
internal_value=0 -0.0185065 0.0333216 0.0379256 -0.00805063 0.045596 0.0479227 0.0421517 0.0195654 0.0699528 0.00641891 0.0266638 0.000682306 0.0510374 0.0680171 0.0745139 0.00810728 0.0873789 0.114636 0.0384966 0.0501557 -0.0405529 0.0193562 0.0827961 -0.00123654 0.104267 0.116104 -0.00520484 0.0598899 -0.0106662
internal_weight=0 3281.7 1769.12 1681.56 2225.99 1394.38 1363.05 1254.53 354.2 73.2916 280.908 186.582 287.18 900.328 382.474 357.623 44.5628 58.7448 108.521 517.854 321.822 1055.71 196.032 24.6775 127.837 52.6821 27.9329 273.621 21.1796 252.442
internal_count=44644 32291 12353 11310 20946 8914 8568 8062 2509 421 2088 1301 2396 5553 2165 1970 305 385 506 3388 2085 11345 1303 145 916 337 161 2304 162 2142
is_linear=0
shrinkage=0.05


Tree=9
num_leaves=31
num_cat=0
split_feature=3 7 1 6 9 0 7 7 8 1 7 3 2 9 6 0 9 9 2 2 9 7 6 8 3 0 9 2 6 6
split_gain=1110.96 288.54 260.159 174.106 192.596 154.403 129.228 121.663 96.3001 112.179 94.9003 94.2727 86.432 110.777 60.6397 56.0635 95.7142 53.6416 49.2423 47.3214 49.828 46.7772 42.5208 40.7529 47.6258 44.3588 40.4531 39.6474 39.4703 50.9898
threshold=0.55365522405306211 0.0047297222084469277 4.5621964338565695 0.0074057590572170259 0.28716635404568941 -17.254311548765916 0.050985833307107292 0.026810555590523619 0.28225273069152451 4.2099671336418529 0.012395694421397317 2.0473893073773852 2.6166666666666671 1.1027759813123008 0.042098515008997625 -15.608003135239153 1.2620178339673038 3.4330380997876349 1.9833333333333336 2.683333333333334 1.3143551003326779 0.0087788889143202067 0.027558893072418652 0.4710867827673752 2.266243836245287 -16.550679092519236 0.41964507590553374 0.15000000000000005 0.043177719994197887 0.012366512013463712
decision_type=2 2 2 2 2 2 2 2 2 2 2 2 2 2 2 2 2 2 2 2 2 2 2 2 2 2 2 2 2 2
left_child=1 5 3 -2 10 -1 7 8 9 11 14 -6 15 -14 -5 16 -10 22 -18 -11 -21 27 -9 24 25 -16 -13 -3 29 -7
right_child=2 21 -4 4 6 28 -8 17 12 19 -12 26 13 -15 23 -17 18 -19 -20 20 -22 -23 -24 -25 -26 -27 -28 -29 -30 -31
leaf_value=-0.029752954574072482 -0.0441322564390422 -0.038173346077917052 -0.054823840180307719 0.013959668900543216 0.061165074557306798 0.0076409633472731891 -0.055418347222650891 0.12372356161044398 -0.0030333302013576787 0.08854090818535755 -0.053101226344737032 0.19033425143340171 0.099736297166552468 -0.049731436493203884 0.037396690835021111 -0.037941138815592135 0.13845452136050285 -0.059916184782511255 -0.055886828142077176 0.16303863012877268 -0.057010591559689738 -0.049883896742030032 0.0019490407770412185 -0.013264918390275701 -0.056573979068153035 0.10006424062009481 0.0032827995649850348 -0.0072030492978495597 0.016437503180856183 -0.012153751070761751
leaf_weight=584.18251693993807 66.036323472857475 329.21575675904751 83.692600674927235 464.28528884798288 216.4343735575676 576.78725814074278 26.948856443166733 92.091121390461922 80.706448696553707 259.39967142790556 44.299070745706558 2.9569683969020835 57.273045875132084 15.820675186812876 53.21870007365942 57.182151384651661 21.288403764367107 4.6260185092687598 3.8487633615732184 3.3684454411268225 10.888763628900049 542.37639135867357 7.7736127898097029 20.860761284828186 7.8666547238826743 60.15813722461462 128.54630573838949 150.61655753105879 304.66751144826412 746.2389018535614
leaf_count=6509 630 3578 1043 3409 1287 5110 307 407 582 1268 415 18 267 144 371 496 105 36 41 16 77 6247 52 147 49 349 837 1520 2606 6721
internal_value=0 -0.0178547 0.031245 0.0354676 0.0386731 -0.00770187 0.0525709 0.0555954 0.0493898 0.0597157 0.0175461 0.0408781 0.0222067 0.0673849 0.0227072 0.00195071 0.0235023 0.106534 0.108699 0.0836664 -0.00502119 -0.0398236 0.114244 0.0512871 0.0623937 0.0706483 0.00748882 -0.028452 0.000212314 -0.00352404
internal_weight=0 3234.08 1789.57 1705.88 1639.84 2211.88 989.154 962.205 857.714 621.595 650.689 347.938 236.119 73.0937 606.39 163.026 105.844 104.491 25.1372 273.657 14.2572 1022.21 99.8647 142.104 121.243 113.377 131.503 479.832 1627.69 1323.03
internal_count=44644 32291 12353 11310 10680 20946 5940 5633 5138 3503 4740 2142 1635 411 4325 1224 728 495 146 1361 93 11345 459 916 769 720 855 5098 14437 11831
is_linear=0
shrinkage=0.05


Tree=10
num_leaves=31
num_cat=0
split_feature=3 7 1 4 0 7 7 8 7 1 3 4 9 7 8 9 9 8 1 7 9 9 7 3 4 7 3 0 7 3
split_gain=1005.43 257.555 225.162 190.018 138.791 103.835 168.191 84.5963 81.6311 56.4529 92.3811 71.4283 101.872 70.2472 65.902 55.1937 71.4111 54.4446 58.3973 59.3476 51.0888 45.6379 45.1827 41.9211 44.2324 43.3486 39.8565 63.2973 54.4595 45.1027
threshold=0.44061723193192631 0.0047297222084469277 4.5621964338565695 0.95000000000000007 -17.351979195710616 0.050985833307107292 0.02431236111455494 0.86630156300203764 0.00068111111720403053 4.2099671336418529 6.1311964423053338 3.8500000000000001 2.3585638089329235 0.019147777789168891 0.052631841052621427 0.87788425657470481 0.56388638987209316 0.28605373718943278 4.2860320070898501 0.0085765277677112162 0.29683266941547498 -0.12633619382577624 0.018267083333598246 0.0014213400006818369 1.2500000000000002 0.0022554166449440857 4.0192339887252997 -15.608003135239153 0.010872916678587597 3.2699568857550338
decision_type=2 2 2 2 2 2 2 2 2 2 2 2 2 2 2 2 2 2 2 2 2 2 2 2 2 2 2 2 2 2
left_child=1 4 3 8 -1 6 7 9 -2 14 11 12 17 -14 -5 16 21 20 19 -19 -11 -16 -13 -6 25 -25 27 28 -22 -29
right_child=2 -3 -4 5 23 -7 -8 -9 -10 10 -12 22 13 -15 15 -17 -18 18 -20 -21 26 -23 -24 24 -26 -27 -28 29 -30 -31
leaf_value=-0.042547102664330476 0.088357194968055219 -0.04022331166598022 -0.054566500380230726 0.046191999970108769 -0.015965948324474007 -0.055042588920211646 0.09968049203844144 -0.038291724183953511 -0.006284230635786453 -0.046941271212687929 -0.014345123978546231 0.092531322040562261 -0.039797544222451492 0.1632490483052822 0.066163487506964019 -0.021668698347883278 0.067983123045859253 -0.060370716952758842 -0.047059159213441615 0.16511523841857387 0.12491536316008145 0.008802840392422899 -0.057543495466750652 0.0096704526205330099 -0.02480046090122702 -0.012419518702368475 0.11230288551928375 0.093465625510406034 0.022993453272458636 -0.048579313228719508
leaf_weight=264.40985389053822 24.326535731554031 933.7797649204731 79.976814076304436 393.08326726406813 511.81048621982336 28.683811113238335 112.7643718123436 37.146621517837048 359.35251129418612 8.3050635904073697 45.537616305053234 148.19846003502607 44.513185642659664 4.7104496359825125 39.284034103155136 72.210754483938217 80.479097329080105 4.4473743736743918 21.342987984418869 8.4865320622920972 36.350276462733746 295.66834173351526 5.1909652426838866 883.28737862408161 148.93787029385567 296.68454283475876 58.446657560765743 8.0230733752250689 20.496265590190887 18.416120864450932
leaf_count=3185 165 10753 1043 2469 4997 346 506 360 3133 48 375 705 324 23 266 550 439 32 178 43 172 2003 48 7776 1337 2851 260 37 101 119
internal_value=0 -0.0183677 0.0275948 0.0310985 -0.00867311 0.0391698 0.0410168 0.0361179 -0.000283647 0.0382227 0.053017 0.0609449 0.0435344 -0.020367 0.0309582 0.0186784 0.0256916 0.0606002 0.00374542 0.087581 0.073589 0.0155302 0.0874525 -0.00380729 0.000875441 0.00411629 0.0806517 0.0584401 0.088167 -0.00547524
internal_weight=0 3038.91 1955.44 1875.46 2105.13 1491.79 1463.1 1350.34 383.679 1313.19 432.465 386.927 233.538 49.2236 880.725 487.642 415.431 184.314 34.2769 12.9339 150.037 334.952 153.389 1840.72 1328.91 1179.97 141.732 83.2857 56.8465 26.4392
internal_count=44644 30899 13745 12702 20146 9404 9058 8552 3298 8192 2465 2090 1337 347 5727 3258 2708 990 253 75 737 2269 753 16961 11964 10627 689 429 273 156
is_linear=0
shrinkage=0.05


Tree=11
num_leaves=31
num_cat=0
split_feature=3 7 1 9 6 1 7 6 7 8 7 7 6 3 3 8 1 2 6 7 3 9 6 2 7 5 3 6 7 1
split_gain=908.297 245.803 205.098 150.221 185.73 131.267 103.804 98.0274 86.873 74.4347 81.014 59.1855 55.6771 55.5074 63.8444 83.7255 70.2431 125.348 54.835 54.345 54.1971 50.6372 44.5382 44.5293 40.1621 40.3563 38.3931 42.3442 39.4365 38.772
threshold=0.44061723193192631 0.0047297222084469277 4.5621964338565695 0.19021507822140751 0.0074057590572170259 3.4535968160348918 0.050985833307107292 0.042599950497559484 0.026810555590523619 0.13885416299076017 0.012139722241295709 0.012395694421397317 0.010765131152686588 6.4299666596326981 3.4114711773629254 0.86630156300203764 4.32187953617301 1.7166666666666668 0.028864461719766737 0.0080813889039887347 5.5497407762310091 3.4330380997876349 0.013885570702816414 2.3833333333333337 0.001975416673554315 0.036037539184805845 0.0014213400006818369 0.0093375091816446706 0.00028069443172878695 3.4588059369779942
decision_type=2 2 2 2 2 2 2 2 2 2 2 2 2 2 2 2 2 2 2 2 2 2 2 2 2 2 2 2 2 2
left_child=1 5 3 7 -5 -1 8 11 9 10 12 -2 -6 14 22 16 -16 -18 21 24 23 -10 -11 -14 -9 -26 28 -28 -7 -30
right_child=2 -3 -4 4 6 26 -8 19 18 13 -12 -13 20 -15 15 -17 17 -19 -20 -21 -22 -23 -24 -25 25 -27 27 -29 29 -31
leaf_value=-0.041894142406178642 0.0058959434327877638 -0.039510259993554675 -0.054324002089936846 -0.043224149958014185 -0.026779046166431588 0.00034389629331635867 -0.054898223158872377 0.02945981259096736 0.10833945595791855 -0.038568745426054915 0.10043594782109247 -0.056498237301772371 0.049158821867490363 -0.057795043234801516 0.11577139532916421 -0.052692143665591586 -0.034998310397484002 0.086433905010350587 -0.022388624868390449 -0.057782086843293529 0.12325143537190493 -0.060201370736912341 0.023668252662966946 -0.061211881626598214 -0.03061864765942825 0.093073447943667495 0.018513909332416145 -0.003673418099048243 0.062075901936362622 -0.031598209922569696
leaf_weight=255.33579386770725 517.69773445278406 903.86476434022188 76.407307028770447 62.897649377584457 24.330107636749744 223.26581133157015 25.350977711379528 84.842182591557503 95.985518470406532 32.957558013498783 83.402337394654751 41.018708251416683 392.01390445232391 18.357114605605602 50.267206892371178 15.91033862531185 33.409207358956337 58.398182965815067 9.9749367311596853 11.980052128434179 24.457027673721313 4.6735444813966742 224.94556189328432 9.3566940277814847 7.3507877290248862 64.074924200773239 269.7763019874692 1059.9096924811602 11.516087673604487 270.80964944511652
leaf_count=3185 3992 10753 1043 626 157 2103 314 533 416 259 424 427 2110 169 209 173 262 271 71 113 112 36 1484 70 64 410 2396 9568 136 2758
internal_value=0 -0.0177237 0.0259905 0.0292312 0.0403476 -0.00830445 0.0451097 0.0113907 0.0474606 0.0426626 0.0551721 0.00131521 0.0467859 0.0272921 0.0310478 0.056078 0.0682587 0.0422441 0.0894331 0.0448493 0.0509891 0.100514 0.015715 0.0465859 0.0527174 0.0803437 -0.00363124 0.000828107 -0.0153591 -0.0277772
internal_weight=0 2994.48 1970.06 1893.65 1166.69 2090.61 1103.79 726.964 1078.44 967.805 533.56 558.716 450.158 434.245 415.888 157.985 142.075 91.8074 110.634 168.248 425.828 100.659 257.903 401.371 156.268 71.4257 1835.28 1329.69 505.592 282.326
internal_count=44644 30899 13745 12702 7163 20146 6537 5539 6223 5700 2873 4419 2449 2827 2658 915 742 533 523 1120 2292 452 1743 2180 1007 474 16961 11964 4997 2894
is_linear=0
shrinkage=0.05


Tree=12
num_leaves=31
num_cat=0
split_feature=1 0 1 9 7 7 7 7 5 7 2 8 2 3 2 2 7 3 7 7 9 0 7 3 0 5 7 0 5 9
split_gain=829.495 220.032 180.499 160.077 137.577 102.123 98.3988 90.8681 89.3979 75.7887 74.8234 53.3307 57.5236 56.4229 53.7302 51.0089 47.5853 45.4522 45.1442 39.9115 60.9584 38.8654 38.319 45.1366 41.8545 38.4247 37.5889 34.8058 43.471 55.82
threshold=3.6935769899726787 -17.351979195710616 4.5621964338565695 0.19021507822140751 0.0057905555433697175 0.050985833307107292 0.026810555590523619 0.012139722241295709 0.033671211514519427 0.012139722241295709 2.4833333333333338 0.61030119074438205 0.91666666666666685 1.2722985229154427 2.416666666666667 0.18333333333333338 0.0079809722304344192 6.1311964423053338 0.011142083340220982 0.02141708334287008 1.1165960146309117 -16.067532250689371 0.00028069443172878695 0.0064645283393689476 -17.341221924074876 -0.027786547867765198 0.011854027774598866 -16.422512491935503 0.19973603184825839 1.6370937718566603
decision_type=2 2 2 2 2 2 2 2 2 2 2 2 2 2 2 2 2 2 2 2 2 2 2 2 2 2 2 2 2 2
left_child=1 -1 3 7 22 6 8 -2 10 11 19 12 13 16 18 -8 -10 -11 27 26 -21 -16 -3 24 25 -24 -5 -14 -29 -30
right_child=2 4 -4 5 -6 -7 15 -9 9 17 -12 -13 14 -15 21 -17 -18 -19 -20 20 -22 -23 23 -25 -26 -27 -28 28 29 -31
leaf_value=-0.045610346592645852 0.013952270888695674 0.0070992684771152116 -0.054095369286104589 0.013301932088926632 -0.036688473787111646 -0.054651381402857517 -0.056819653538466623 -0.051884135189486605 0.077379178834509205 0.083964198217287067 0.079919822551120914 -0.057915423438278546 0.0042123289052420649 0.010104594505840184 0.079862021277089343 0.092768732068563384 -0.061382413100986168 -0.048808563013796089 -0.06626009861150875 -0.056536718680109593 0.074195985421602148 -0.031876430560924429 -0.031083089648878234 -0.0042873307669752904 -0.029908287230701741 0.13898754794373414 -0.041011259683278255 0.073247320427359569 0.060536441752658168 -0.047670628686830821
leaf_weight=581.52967102080584 820.58573884516954 477.90747597813606 72.980288676917553 52.359524972736835 424.13829092681408 29.025276117026806 6.0215534046292296 55.986483998596668 58.450838260352612 127.24806541949511 29.361194998025894 14.740205422043799 25.711734399199486 231.49186658114195 10.465161956846712 106.35059963166714 6.9086337611079207 6.7897377014160147 7.2187700122594824 12.640873640775679 30.265973493456841 30.353901900351048 6.1653028577566147 1011.0661480054259 298.84178391844034 7.1994116827845556 81.348928764462471 257.06758374720812 34.811877571046352 18.123193077743053
leaf_count=7605 6323 4323 1043 388 5021 376 58 608 343 617 134 131 158 1393 52 474 48 72 41 129 175 254 70 9297 3110 81 753 1277 185 105
internal_value=0 -0.0182253 0.0231763 0.0259227 -0.0110689 0.0379719 0.0403143 0.00974731 0.0354911 0.042813 0.00600914 0.0361769 0.0382147 0.0216874 0.0509994 0.0847529 0.0627118 0.0772385 0.0574542 -0.00627805 0.0356806 -0.00322901 -0.00503605 -0.00941879 -0.0260368 0.0605319 -0.0197425 0.0601144 0.0647509 0.02349
internal_weight=0 2806.85 2126.31 2053.33 2225.32 1176.76 1147.73 876.572 1035.36 829.382 205.976 695.344 680.604 296.851 383.752 112.372 65.3595 134.038 342.933 176.615 42.9068 40.8191 1801.18 1323.27 312.206 13.3647 133.708 335.714 310.003 52.9351
internal_count=44644 29507 15137 14094 21902 7163 6787 6931 6255 4676 1579 3987 3856 1784 2072 532 391 689 1766 1445 304 306 16881 12558 3261 151 1141 1725 1567 290
is_linear=0
shrinkage=0.05


Tree=13
num_leaves=31
num_cat=0
split_feature=1 0 6 7 4 0 5 1 7 7 8 7 4 3 1 5 8 4 6 7 0 3 6 5 3 6 7 5 7 7
split_gain=751.297 211.85 174.672 129.807 128.734 117.539 76.715 75.642 74.9027 99.2321 55.8038 75.9864 66.8044 90.4736 54.7418 64.733 47.5511 46.8435 45.3901 51.633 44.2322 60.1358 61.4894 42.6662 40.8297 53.9223 40.3358 67.8691 50.2021 53.1474
threshold=3.6935769899726787 -17.351979195710616 0.0083655134788864233 0.0057905555433697175 0.75000000000000011 -15.090613006786123 0.059969513755999494 3.9654108565232842 0.050985833307107292 0.026810555590523619 0.34333457703081566 0.0041208333108160239 6.1500000000000012 1.2194369909649589 3.712954981589943 0.0032067205933081501 0.052631841052621427 7.2500000000000009 0.041054812625921332 0.0073588888843854278 -15.769502905382145 2.0473893073773852 0.025822328673336965 0.041833263324246479 0.72470978489148608 0.018124747762852163 0.014554583330949149 0.052622318161188779 0.0079009722338782441 0.011289166708787284
decision_type=2 2 2 2 2 2 2 2 2 2 2 2 2 2 2 2 2 2 2 2 2 2 2 2 2 2 2 2 2 2
left_child=1 -1 14 -3 6 7 -4 16 9 10 17 -12 13 -13 15 -2 24 20 19 -18 21 22 -9 -20 -6 -26 27 -21 -29 -30
right_child=2 3 4 -5 5 -7 -8 8 -10 -11 11 12 -14 -15 -16 -17 18 -19 23 26 -22 -23 -24 -25 25 -27 -28 28 29 -31
leaf_value=-0.045059610336050056 0.25308392152245479 -0.0048077839645898346 -0.028480809765375578 -0.035939922314546784 0.014940524887601201 -0.053856241477716595 0.020742762061017682 0.022301845537653651 -0.054311049787027721 0.09296176413553299 -0.048171535535804055 0.17236330730894636 0.06784825650320328 -0.0080131598058402025 -0.032766014937422726 -0.057042278247047634 -0.021141218280442724 -0.019330510097515713 -0.057584808162318417 0.11432080803565386 0.064843999329802546 0.015827633561851864 0.082274279295513286 0.059590109722214991 0.09269339227002725 0.032640019407332577 -0.060568565195127877 0.14912099125473408 -0.058782147962063373 0.14628099482914614
leaf_weight=559.75913210213184 3.7033851519227019 1794.2281359285116 153.65370290726423 411.64363902062178 177.25316151976585 39.220577627420425 163.25420634448528 72.155251920223236 19.497044429183006 95.671325996518135 36.900354824960232 7.4950140193104735 71.744806885719299 95.932604588568211 161.97482311725616 3.0837182179093361 155.38859478384256 25.777580462396145 9.0869738832116109 23.055208571255207 264.37913442403078 164.40413235872984 104.84202975034714 53.555945262312889 50.296082466840744 145.55323372781277 9.7881652042269689 4.7434619963169125 21.26640643179417 3.7110919728875151
leaf_count=7605 33 16881 1571 5021 1407 590 1245 406 268 406 283 40 378 750 1710 29 1111 206 83 150 1220 956 546 331 282 859 80 23 154 20
internal_value=0 -0.0175885 0.0218817 -0.0106174 0.0260667 0.0316673 -0.00312343 0.0337474 0.0426893 0.0447027 0.0392299 0.0170383 0.0307748 0.00505805 -0.0269368 0.112178 0.0206322 0.0466817 0.00508201 -0.00569913 0.0494907 0.0376013 0.0578257 0.0425927 0.0323269 0.0480623 0.0326538 0.0499433 4.27076e-06 -0.0283144
internal_weight=0 2765.63 2137.39 2205.87 1968.63 1651.72 316.908 1612.5 958.799 939.302 843.631 212.073 175.172 103.428 168.762 6.7871 653.698 631.558 280.596 217.953 605.781 341.401 176.997 62.6429 373.102 195.849 62.5643 52.7762 29.721 24.9775
internal_count=44644 29507 15137 21902 13365 10549 2816 9959 5459 5191 4785 1451 1168 790 1772 62 4500 3334 1952 1538 3128 1908 952 414 2548 1141 427 347 197 174
is_linear=0
shrinkage=0.05


Tree=14
num_leaves=31
num_cat=0
split_feature=4 7 0 1 0 6 5 7 7 7 5 6 7 7 4 0 9 7 2 5 5 7 7 6 6 0 9 4 0 5
split_gain=682.341 194.626 157.867 181.112 123.929 121.251 69.0716 59.3783 68.3676 82.3573 79.9105 59.0882 58.9572 63.5852 62.6177 85.5316 61.4796 56.2825 47.2209 52.315 45.4171 44.0089 75.158 52.4114 43.2292 42.66 65.1998 41.5571 51.8911 53.8765
threshold=0.65000000000000002 0.0076449999875492529 -16.699971665962384 4.5621964338565695 -17.351979195710616 0.007034227051708003 -0.1230593404979613 0.0045959722333484233 0.050985833307107292 0.022843611107932201 0.053686915743079079 0.036615918148656869 0.0082844444447093563 0.015299444463517933 1.2500000000000002 -16.279076709581272 1.5570381421217816 0.00028069443172878695 1.6166666666666669 0.13956989527315014 0.18414487529908521 0.014850000010596382 0.0076449999875492529 0.028650982380935854 0.012963590759181118 -15.803628959604209 1.7071021670966788 4.4500000000000011 -16.422512491935503 0.15544189880524381
decision_type=2 2 2 2 2 2 2 2 2 2 2 2 2 2 2 2 2 2 2 2 2 2 2 2 2 2 2 2 2 2
left_child=1 4 -2 5 -1 -4 -7 11 9 10 12 18 -9 14 -14 -16 -15 -6 19 -8 -13 22 23 27 -21 -17 -27 28 -12 -30
right_child=2 -3 3 -5 17 6 7 8 -10 -11 21 20 13 16 15 25 -18 -19 -20 24 -22 -23 -24 -25 -26 26 -28 -29 29 -31
leaf_value=-0.041235042051521009 0.0004974099523386155 -0.04428486382162139 -0.044561173895337473 -0.053710423272796765 0.0088259177942515837 -0.055791069258897041 -0.0075506564119388782 -0.030839470697934558 -0.054124593220158612 0.082030565505083322 0.10693024297095194 0.058124176896871896 -0.03929610997722395 -0.052707607035510688 0.1726631838089121 -0.008711302129948752 0.063771118608170266 -0.01189115229622768 -0.053847490049576965 -0.065506357640091634 0.0017140667886072864 0.092729706322878525 0.025507181746608595 0.10795871567989951 0.037409258441118913 0.093136524647191021 -0.024585481796523874 0.098770281136062024 0.00045083215237007741 0.071819431205430634
leaf_weight=289.23045168817043 830.41267720609903 586.14196721464396 51.652201622724533 66.156827904284 471.52372688055038 21.420169211924076 145.91034456342459 55.797412052750587 17.943097859621048 125.38240117579699 23.542787246406078 145.97224248200655 17.856568276882172 37.509617477655411 14.97919651865959 27.227779805660248 16.230598419904709 1075.8230813443661 26.671895876526833 10.786902159452437 47.225646644830704 51.958541847765446 253.42769225686789 54.192090287804604 188.70227222144604 50.472686350345612 15.335343234241007 37.121408224105835 75.291868403553963 40.759278103709221
leaf_count=4046 7668 7624 551 1029 4240 244 980 432 256 573 140 819 154 336 81 190 95 10525 217 62 273 232 1483 280 1009 228 112 153 420 192
internal_value=0 -0.0191994 0.0182224 0.0273109 -0.0111934 0.0307615 0.0333522 0.0346422 0.042513 0.0444459 0.0383393 0.0219013 0.0140544 0.0280009 0.0474396 0.0617784 -0.0175287 -0.00557803 0.0102525 0.0152023 0.0443352 0.0489993 0.044308 0.0649424 0.0318443 0.0439254 0.0657036 0.0517509 0.0392473 0.0255168
internal_weight=0 2422.72 2449.94 1619.53 1836.58 1553.37 1501.72 1480.3 915.028 897.085 771.703 565.269 235.409 179.612 125.872 108.015 53.7402 1547.35 372.071 345.4 193.198 536.294 484.335 230.907 199.489 93.0358 65.808 176.715 139.594 116.051
internal_count=44644 26435 18209 10541 18811 9512 8961 8717 5357 5101 4528 3360 1628 1196 765 611 431 14765 2268 2051 1092 2900 2668 1185 1071 530 340 905 752 612
is_linear=0
shrinkage=0.05


Tree=15
num_leaves=31
num_cat=0
split_feature=1 1 6 7 1 1 7 7 7 1 8 2 6 4 7 3 3 3 8 5 4 7 4 1 5 2 6 7 7 5
split_gain=627.666 195.809 144.21 116.57 101.833 118.238 73.7313 64.0236 75.1533 48.3609 48.1993 47.8787 47.2951 42.9267 66.2865 42.2697 64.6672 54.4149 43.5501 35.2715 48.1653 39.9384 31.3418 64.3813 43.0372 37.2589 38.5063 31.3916 29.7528 28.8128
threshold=3.6935769899726787 3.4535968160348918 0.0082234595129348931 0.0057905555433697175 3.9450556245928374 4.5621964338565695 0.012889305551846824 0.050985833307107292 0.026810555590523619 3.712954981589943 0.86630156300203764 1.1166666666666669 0.0019820411634850726 0.8500000000000002 0.0084734722640779307 3.853608503511242 6.1311964423053338 1.2194369909649589 0.068321514868127889 -0.0010829485029532784 1.2500000000000002 0.0044595833288298718 4.4500000000000011 4.3946537120569236 0.17375298155326049 0.51666666666666672 0.025239112191680679 0.015299444463517933 0.0024447222219573131 0.06096460131761329
decision_type=2 2 2 2 2 2 2 2 2 2 2 2 2 2 2 2 2 2 2 2 2 2 2 2 2 2 2 2 2 2
left_child=1 -1 9 19 6 7 11 8 10 12 15 13 -2 14 -4 17 22 -6 -18 -3 28 -22 23 24 -17 -25 -27 -24 -21 -19
right_child=2 3 4 -5 5 -7 -8 -9 -10 -11 -12 -13 -14 -15 -16 16 18 29 -20 20 21 -23 27 25 -26 26 -28 -29 -30 -31
leaf_value=-0.044001011033358836 0.24655672257496444 -0.018142648083063217 0.013343009146287062 -0.034604659915749521 0.078574694140693346 -0.053467131894044673 -0.053412032732542414 -0.053984749588306069 0.078921005680351319 -0.033297560757534948 -0.0362026463877907 -0.031908741983733412 -0.010302808032818885 0.025853201241817742 -0.047802351025583723 0.094358173150050337 0.0715125261092939 0.0015599147994598966 -0.044210306368087031 0.0055122301848573169 -0.035404980294306998 0.14278419955086405 0.088553481553345081 0.10451999900528104 0.012863562447064547 -0.037779367595371184 0.13828213013725307 -0.049854541982900194 -0.014512267399706022 0.029786087089078192
leaf_weight=520.48190486431122 3.1026182994246474 371.78598272055387 230.22282216697931 390.42616431415081 50.692941099405289 37.778503838926554 42.652433983981609 19.18443301320076 102.22283006459475 145.69462764263153 23.968113146722317 53.263018146157265 4.2428159341216087 503.28748878836632 54.892115190625191 59.339526705443859 11.812029331922529 110.4992731064558 26.08125352114439 1063.9547641202807 119.77177138626575 3.2294047996401778 98.870897725224495 6.8837348520755759 22.284273028373718 34.492116630077362 3.41287076473236 4.2737519592046729 224.67145702987909 497.32436970621347
leaf_count=7605 23 4046 1890 5021 291 623 467 285 465 1631 252 380 39 3350 600 256 61 763 228 9502 1104 28 414 32 102 218 15 35 2201 2717
internal_value=0 -0.0164541 0.0197873 -0.00985854 0.0233782 0.0334691 0.0107221 0.0365347 0.0381852 -0.0269865 0.0338016 0.0139722 0.0981914 0.0170718 0.00157092 0.0356136 0.0523764 0.0288055 -0.00813738 -0.0044411 -0.00083247 -0.0307266 0.0623655 0.0456771 0.0721092 -0.00249311 -0.0219272 0.0828186 0.00202097 0.0246547
internal_weight=0 2694.32 2146.48 2173.84 1993.44 1109.12 884.318 1071.34 1052.16 153.04 949.935 841.665 7.34543 788.402 285.115 925.967 267.45 658.517 37.8933 1783.41 1411.63 123.001 229.557 126.413 81.6238 44.7887 37.905 103.145 1288.63 607.824
internal_count=44644 29507 15137 21902 13444 6757 6687 6134 5849 1693 5384 6220 62 5840 2490 5132 1361 3771 289 16881 12835 1132 1072 623 358 265 233 449 11703 3480
is_linear=0
shrinkage=0.05


Tree=16
num_leaves=31
num_cat=0
split_feature=4 7 0 0 0 6 5 7 7 7 5 8 6 7 7 4 3 9 7 3 5 8 3 9 7 7 6 8 8 7
split_gain=573.451 181.492 124.57 152.585 110.375 100.994 58.4683 54.162 56.9497 71.4188 65.0505 56.562 61.5707 52.9715 54.6884 53.5918 66.7236 52.8028 48.4687 47.6298 44.9112 44.7032 42.9029 40.1665 39.2443 62.7299 42.3233 37.6591 36.5981 39.6826
threshold=0.65000000000000002 0.0076449999875492529 -16.699971665962384 -15.090613006786123 -17.351979195710616 0.007034227051708003 -0.1230593404979613 0.0045959722333484233 0.050985833307107292 0.022843611107932201 0.053686915743079079 0.36776863538810206 0.036615918148656869 0.0082844444447093563 0.015299444463517933 1.3500000000000003 1.2722985229154427 1.5570381421217816 0.00028069443172878695 3.024305352108386 0.18414487529908521 0.17537397914531497 0.33824286277226062 3.4330380997876349 0.014850000010596382 0.0076449999875492529 0.028650982380935854 0.29443503569354007 0.38710107187189119 0.010747222238116796
decision_type=2 2 2 2 2 2 2 2 2 2 2 2 2 2 2 2 2 2 2 2 2 2 2 2 2 2 2 2 2 2
left_child=1 4 -2 5 -1 -4 -7 11 9 10 13 12 21 -9 15 -15 -17 -16 -6 -3 22 -8 -14 -11 25 26 -12 -19 29 -27
right_child=2 19 3 -5 18 6 7 8 -10 23 24 -13 20 14 17 16 -18 27 -20 -21 -22 -23 -24 -25 -26 28 -28 -29 -30 -31
leaf_value=-0.039916497028713471 0.00071263507964732182 -0.045033457707005738 -0.043381369327357831 -0.053361706207094385 0.0080520030733895655 -0.055323999218751509 0.018463958667657269 -0.03037771289807752 -0.053711201737507687 0.081005010604723607 0.046311883474925736 -0.028594250579579952 -0.058667690186566618 -0.033389219607521468 -0.051891512724758088 0.152739403688993 0.040926875513909056 0.1063887384692007 -0.011149082172741943 0.076710003839030788 -0.00044321569944053593 -0.03828386966260168 0.068930954386551752 -0.063479802721083653 0.08534271449886921 -0.00088680737398279361 0.095777915485416892 -0.057360082484200027 0.065260889192045021 0.044705138231047895
leaf_weight=268.99476653337479 827.03898888081312 539.85721875727177 48.635768420994282 60.524691693484783 476.27978041023016 19.902134139090776 313.46315378695726 55.171000353991985 16.456460934132338 120.0801817253232 180.3728901669383 56.44989924877882 6.9501343071460715 19.256019912660122 35.467872776091099 15.615354768931864 91.670282989740372 11.47784633934498 1060.4112509936094 8.1552830785512906 36.319236472249031 39.024508774280548 126.32997496426105 5.0108813643455496 51.859378635883331 144.11252643167973 56.877545602619648 5.0586794018745413 41.944558590650558 71.359687067568302
leaf_count=4046 7668 7560 552 1026 4240 244 1782 432 257 541 905 417 56 167 336 78 520 49 10525 64 197 260 648 33 232 873 280 46 209 401
internal_value=0 -0.0180189 0.0165169 0.0245388 -0.01037 0.027544 0.0298131 0.0309425 0.0384686 0.0401442 0.0345212 0.0189509 0.0240917 0.0124442 0.0256762 0.0434159 0.0572011 -0.0174896 -0.00519793 -0.0432217 0.0488457 0.0121813 0.0622771 0.0752173 0.0439622 0.039624 0.0581707 0.0562964 0.0225303 0.0142122
internal_weight=0 2353.7 2456.43 1629.39 1805.69 1568.87 1520.23 1500.33 921.791 905.335 780.244 578.537 522.087 233.717 178.546 126.542 107.286 52.0044 1536.69 548.013 169.599 352.488 133.28 125.091 546.527 494.667 237.25 16.5365 257.417 215.472
internal_count=44644 26435 18209 10541 18811 9515 8963 8719 5359 5102 4528 3360 2943 1628 1196 765 598 431 14765 7624 901 2042 704 574 2900 2668 1185 95 1483 1274
is_linear=0
shrinkage=0.05


Tree=17
num_leaves=31
num_cat=0
split_feature=0 0 0 7 4 6 5 8 7 7 3 3 7 5 6 7 5 4 7 5 7 6 3 6 7 7 7 8 2 2
split_gain=523.907 180.458 122.036 104.789 100.402 80.4837 58.9902 55.8383 60.214 76.4981 53.3067 58.9985 48.3597 44.9545 43.1467 39.2934 34.3492 33.185 47.4267 37.8334 37.3723 38.8118 50.4668 32.8117 62.5419 54.6102 41.1509 36.0152 40.6568 47.2387
threshold=-16.858050653231977 -17.351979195710616 -15.090613006786123 0.0087788889143202067 0.8500000000000002 0.0068598927975958403 0.063039521160109385 0.93961608393192819 0.022843611107932201 0.050985833307107292 3.853608503511242 6.1311964423053338 0.016883472237322068 -0.0015783386390928597 0.030811700612897803 0.000589999987019433 0.13675084888918831 1.2500000000000002 0.0044595833288298718 0.057584512538327935 0.0024893055359522507 0.090053067898787378 0.24611933155500357 0.036615918148656869 0.0077411110864745248 0.0061670833163791237 0.0042555555701255807 0.11740492114315727 0.91666666666666685 1.2833333333333334
decision_type=2 2 2 2 2 2 2 2 2 2 2 2 2 2 2 2 2 2 2 2 2 2 2 2 2 2 2 2 2 2
left_child=1 -1 4 13 6 -6 -2 8 10 14 12 -12 23 -3 -10 -8 -13 20 -19 -20 -15 -22 -23 25 26 27 -25 28 -7 -30
right_child=2 3 -4 -5 5 7 15 -9 9 -11 11 16 -14 17 -16 -17 -18 18 19 -21 21 22 -24 24 -26 -27 -28 -29 29 -31
leaf_value=-0.042928297747195782 -0.019648361498761729 -0.01974840627744116 -0.053196279218249147 -0.043735637202994837 -0.044324384544455218 0.0068576491041653755 0.07156247517785419 -0.034712605516526884 0.080645348940212511 -0.053456569664421118 0.055447223695106698 -0.033303750747758133 -0.057080025242441171 0.005082383911864885 -0.068264157192506142 0.0086925979298807295 0.08567358574936601 -0.033817700986714931 -0.0043235417550923734 0.23045267152527119 -0.017580892759101342 0.0081868085495329316 0.27887387240867917 0.034651926006855543 -0.061397656973768366 0.033473724550510404 0.088698430326087693 -0.010393080245461841 0.06431724626250955 -0.010844176053108398
leaf_weight=484.10239919275045 221.33620946109295 435.6522141546011 58.671903908252716 198.50160375237465 40.333410069346428 277.19107342511415 28.990818619728088 35.647207692265511 111.2613131813705 13.066940654069183 229.96221861243248 31.972382813692093 19.442989535629749 1078.7349172830582 5.086957484483718 174.1138363853097 7.4869037270545951 117.11462539434433 3.8359897136688224 3.1048667132854462 299.17560981959105 5.399736486375331 2.5280919447541237 209.82381201535463 14.990261688828467 346.70800460875034 42.323784627020359 177.47529602795839 75.396082021296024 28.924835219979286
leaf_count=7605 2356 5011 1040 2867 475 1744 188 408 492 217 1094 260 161 9608 27 1314 44 1108 39 27 3169 53 23 1179 110 2077 222 1216 369 141
internal_value=0 -0.0153554 0.0179237 -0.00912976 0.0199187 0.0254463 -0.00179233 0.0271762 0.0285628 0.061252 0.0256685 0.0457551 0.0211295 -0.00559897 0.0741348 0.0176665 -0.0107293 -0.00151641 -0.0262915 0.100699 0.000701378 -0.0146874 0.0945058 0.0224261 0.037825 0.0178841 0.0437238 0.0082148 0.016871 0.0434774
internal_weight=0 2628.15 2150.21 2144.05 2091.53 1667.09 424.441 1626.76 1591.11 129.415 1461.7 269.422 1192.28 1945.55 116.348 203.105 39.4593 1509.89 124.055 6.94086 1385.84 307.103 7.92783 1172.83 267.138 905.695 252.148 558.987 381.512 104.321
internal_count=44644 29510 15134 21905 14094 10236 3858 9761 9353 736 8617 1398 7219 19038 519 1502 304 14027 1174 66 12853 3245 76 7058 1511 5547 1401 3470 2254 510
is_linear=0
shrinkage=0.05


Tree=18
num_leaves=31
num_cat=0
split_feature=4 0 1 9 6 5 6 5 5 2 1 9 3 1 5 9 5 9 3 1 5 4 3 0 5 5 2 9 6 3
split_gain=481.062 156.937 104.603 132.115 95.1498 69.2913 63.2945 46.4023 45.5987 45.3255 28.9942 43.4031 44.7153 42.7268 40.7022 41.2551 37.9242 25.1641 44.4829 41.9641 38.3887 25.4759 22.8715 66.7021 38.5133 33.7273 41.6984 31.1249 30.7757 24.5164
threshold=0.65000000000000002 -17.351979195710616 4.5621964338565695 0.19021507822140751 0.0068598927975958403 -0.0010829485029532784 0.040023878327913674 -0.014264348979950126 -0.11747767151676651 0.31666666666666671 4.1797291746697764 1.0672264200916242 2.7755444426746281 4.3946537120569236 0.2061377906564569 1.3462406127894928 0.041005578917877879 1.1027759813123008 5.5497407762310091 4.5015784731724127 0.13675084888918831 8.1500000000000004 3.853608503511242 -15.608003135239153 -0.067177327655784005 -0.014264348979950126 2.0833333333333339 1.6041811032698139 0.018575315686100251 3.2699568857550338
decision_type=2 2 2 2 2 2 2 2 2 2 2 2 2 2 2 2 2 2 2 2 2 2 2 2 2 2 2 2 2 2
left_child=1 9 3 6 -5 -3 -2 -8 -6 -1 11 12 -10 14 22 -16 -15 -18 -19 21 -21 -20 23 25 -24 -12 27 28 -27 -25
right_child=2 5 -4 4 8 -7 7 -9 10 -11 13 -13 -14 16 15 -17 17 18 19 20 -22 -23 24 29 -26 26 -28 -29 -30 -31
leaf_value=-0.044305223920070969 -0.0013832535309247678 -0.027216946625723555 -0.053022780470475123 -0.044702491262190835 -0.05152363105363577 -0.0048214622901369053 -0.021729178305630398 0.032612541156014023 0.026280122830408925 0.24884944137345447 0.10926940104091419 -0.01769776762211004 0.10708271994715034 -0.01047371954840785 0.064436586742972965 -0.069607022869714694 0.082809570100748492 -0.016553372996768973 0.083859482673963204 -0.034771823250752544 0.11149780806287345 -0.035167723819779374 -0.056515007383435005 0.044243547213361142 0.076295557625016552 0.0075900852169985189 -0.04340011774414608 0.099185183623371045 0.06697426530061372 -0.057290925732568734
leaf_weight=445.97125328704715 926.53028229624033 460.52540399134159 55.279850538820028 42.600550055503845 16.325303204357624 1381.3592757284641 46.058708526194096 267.06656200438738 476.03873793035746 1.3224372193217266 25.817101635038853 54.846857868134975 17.760420933365822 60.909828554838896 10.028414517641069 13.423946619033812 24.431477420032024 39.265125945210457 50.032009460031986 20.878068156540397 5.7132806330919257 4.9392908290028563 5.6861871518194667 8.5275779590010661 136.41428783908486 39.293383702635765 11.685571685433386 30.445111267268658 49.055475920438766 19.632804714143276
leaf_count=7299 7939 5736 1029 517 226 13379 547 1834 2586 21 116 368 76 559 50 70 102 236 233 161 27 30 64 48 599 214 82 126 236 134
internal_value=0 -0.0168724 0.0149789 0.016543 0.0286421 -0.010421 0.00518473 0.0246192 0.031429 -0.0434385 0.0326547 0.0244994 0.0291863 0.0406996 0.0513357 -0.0122889 0.0226428 0.0365291 0.0271712 0.0482207 -0.00334508 0.0731646 0.0559051 0.0442909 0.0709811 0.0570534 0.0467218 0.055587 0.040563 -0.0265441
internal_weight=0 2289.18 2458.69 2403.41 1163.75 1841.88 1239.66 313.125 1121.15 447.294 1104.82 548.646 493.799 556.179 350.01 23.4524 206.169 145.259 120.828 81.5626 26.5913 54.9713 326.558 184.457 142.1 156.297 130.48 118.794 88.3489 28.1604
internal_count=44644 26435 18209 17180 6860 19115 10320 2381 6343 7320 6117 3030 2662 3087 1739 120 1348 789 687 451 188 263 1619 956 663 774 658 576 450 182
is_linear=0
shrinkage=0.05


Tree=19
num_leaves=31
num_cat=0
split_feature=4 0 0 1 6 9 5 2 6 4 5 0 6 6 5 3 5 0 6 0 3 3 5 5 9 3 6 6 3 5
split_gain=439.327 138.138 106.73 113.496 76.2841 67.5421 55.5337 47.2096 46.0021 42.603 39.4787 35.8174 47.1473 32.6027 30.602 30.4067 28.3166 40.3449 35.3288 30.65 42.3939 33.7132 46.1429 41.0763 72.7741 39.5277 37.4544 28.7236 27.9034 27.6975
threshold=0.55000000000000016 -17.351979195710616 -16.866319325308492 4.5621964338565695 0.007034227051708003 0.53431319002516653 -0.0010829485029532784 0.28333333333333338 0.040023878327913674 1.2500000000000002 -0.022397160610239334 -17.139034210143603 0.058354090944292884 0.098607627581890081 -0.11747767151676651 1.619788023930822 0.19973603184825839 -15.243958805951907 0.016750904883284037 -16.302006565087613 1.619788023930822 3.4114711773629254 -0.034617457996584299 0.01927516698291214 1.8566385524514606 2.0473893073773852 0.016485260652275041 0.018124747762852163 5.2997720281001417 0.13956989527315014
decision_type=2 2 2 2 2 2 2 2 2 2 2 2 2 2 2 2 2 2 2 2 2 2 2 2 2 2 2 2 2 2
left_child=1 7 9 4 -4 8 -3 -1 -6 10 -2 -12 -13 15 -7 -10 17 19 -18 27 -21 22 -22 24 28 26 -24 -16 -23 -19
right_child=2 6 3 -5 5 14 -8 -9 13 -11 11 12 -14 -15 16 -17 18 29 -20 20 21 23 25 -25 -26 -27 -28 -29 -30 -31
leaf_value=-0.04427572785326795 -0.026009061823601527 -0.026995160513495032 -0.04140634799855504 -0.052871412414469569 0.0076278131952541841 -0.049649464447557218 -0.0057951304251848308 0.26131146253661058 0.04442475786877631 -0.02731818873010108 0.035541718180174535 -0.0030297991374956543 0.061286882803210929 -0.034424442108797991 0.05595015536105457 -0.011486628651385382 -0.045102850850669202 -0.01144516379123478 0.027724795826439247 0.11055904229988651 0.080084754846837081 0.070002184995490532 -0.041883082441763912 0.063243666460000403 -0.056795958211572434 0.011143246799106573 0.063543746988884695 -0.066133936879447616 -0.0087123242881431782 0.078262685461541748
leaf_weight=418.99165616557002 99.135601103305817 414.54214156419039 47.344433635473251 53.105872444808483 731.1353707537055 11.002183090895413 1212.1950168684125 1.2676865160465229 200.22204561531544 145.77063845098019 98.543447710573673 371.27027513086796 30.862323962152004 16.858256801962852 7.8036868721246746 27.678480319678783 23.805568620562553 60.647093266248703 55.418593689799309 22.311547555029392 39.702769234776497 44.881827514618635 9.495403014123438 228.04096918925643 21.598662342876196 211.50200330466032 74.692148730158806 12.592355214059351 15.028606981039045 10.026988640427588
leaf_count=7131 1291 5298 588 1035 5006 166 11891 18 1176 1479 963 3459 250 107 38 154 133 465 305 107 191 225 65 1021 257 1217 364 64 129 51
internal_value=0 -0.0177994 0.0129875 0.0192085 0.0212535 0.0228796 -0.0111975 -0.0433539 0.0139088 -0.00307361 0.00281849 0.00852644 0.00190629 0.0326711 0.0331966 0.0376343 0.0342849 0.0372564 0.00584128 0.0409537 0.0427993 0.0404552 0.0294727 0.0523544 0.0218893 0.022677 0.0516528 -0.0194236 0.0502566 0.00128227
internal_weight=0 2047 2670.48 1924.89 1871.79 1824.44 1626.74 420.259 975.894 745.582 599.812 500.676 402.133 244.759 848.55 227.901 837.548 758.324 79.2242 687.65 667.254 644.942 335.392 309.55 81.5091 295.69 84.1876 20.396 59.9104 70.6741
internal_count=44644 24338 20306 12864 11829 11241 17189 7149 6443 7442 5963 4672 3709 1437 4798 1330 4632 4194 438 3678 3576 3469 1837 1632 611 1646 429 102 354 516
is_linear=0
shrinkage=0.05


Tree=20
num_leaves=31
num_cat=0
split_feature=4 0 0 1 6 5 3 5 2 0 9 3 6 1 5 9 5 6 9 9 6 3 9 5 0 5 0 6 9 3
split_gain=399.961 133.237 96.1115 109.502 72.4567 52.0553 46.9957 46.028 36.8973 32.93 34.9179 35.3145 34.9052 35.7967 36.0989 34.4776 32.313 34.8329 29.2024 38.84 36.4373 34.1787 37.688 36.5226 23.7138 28.0568 23.468 26.8252 23.9635 50.848
threshold=0.55000000000000016 -17.351979195710616 -16.699971665962384 4.5621964338565695 0.0068598927975958403 -0.0010829485029532784 0.57112580540909708 -0.1230593404979613 0.28333333333333338 -15.86587736763105 1.0780338080740397 2.7755444426746281 0.050892447474463552 4.3946537120569236 0.2061377906564569 1.3462406127894928 -0.071481908030362057 0.040023878327913674 1.1027759813123008 2.5480400024376739 0.019029453265781131 5.5497407762310091 3.4330380997876349 0.13675084888918831 -17.341221924074876 -0.04033232868106653 -17.080828530755721 0.015443272742885547 -0.11833203301316451 0.57112580540909708
decision_type=2 2 2 2 2 2 2 2 2 2 2 2 2 2 2 2 2 2 2 2 2 2 2 2 2 2 2 2 2 2
left_child=1 8 16 4 -4 24 -6 -8 -1 10 11 -9 13 14 -11 -16 -2 26 -15 20 -20 -21 -23 -24 25 -3 27 -18 29 -28
right_child=2 5 3 -5 6 -7 7 9 -10 12 -12 -13 -14 18 15 -17 17 -19 19 21 -22 22 23 -25 -26 -27 28 -29 -30 -31
leaf_value=-0.043771704437092829 -0.03516716976186867 -0.047000752301508547 -0.042930602658024258 -0.052723560043807252 -0.0197090919378296 -0.005530229499483558 -0.054762011014406267 0.021320073504483644 0.19890596544338446 0.051460062941468321 -0.018961747820539679 0.085953987768438822 -0.053289830315543234 0.064878431442997916 0.054975473885311876 -0.067907749849598867 0.032669115972390146 0.021317917887650528 -0.055457765524127539 -0.027573873968115725 0.022597603902897924 0.063890087169481885 -0.041924627950535823 0.090908576041141664 -0.028818758380942906 0.081751548663542006 -0.0044641135935955421 -0.0038967546016377866 -0.0099850207598595475 0.17222498767063218
leaf_weight=403.03129978105426 61.05462734401226 7.0349611602723625 41.939947962760925 50.653951827436686 60.092782393097878 1206.8858270719647 17.709091395139694 857.77321694046259 1.5724110305309285 328.81416264921427 52.771836921572685 21.667387306690216 10.780121222138403 31.870269581675529 10.290014483034613 12.819199480116366 88.46828680485487 192.84037217870355 32.563707958906889 20.875608175992966 27.643713261932135 64.843664437532425 19.562721066176895 7.0358623489737502 387.75377836823463 10.616888292133806 14.324523065239193 115.82212682068348 524.36437858268619 5.6890335455536833
leaf_count=7131 809 102 544 1035 499 11891 245 4869 18 1642 353 101 55 157 51 70 827 1641 327 102 172 417 148 32 5060 136 139 1244 4792 35
internal_value=0 -0.017175 0.0123197 0.0196675 0.0219323 -0.0107373 0.0236572 0.025375 -0.0428286 0.0263216 0.020542 0.0229125 0.0358221 0.0375489 0.0472147 -0.0131906 8.25338e-05 0.00236839 0.0209064 0.0127835 -0.0196193 0.0301529 0.0433315 -0.00678756 -0.0262386 0.0304387 -0.00251258 0.0119382 -0.00793556 0.0457614
internal_weight=0 2016.9 2672.27 1669.71 1619.05 1612.29 1577.11 1517.02 404.604 1499.31 932.212 879.441 567.099 556.319 351.923 23.1092 1002.56 941.509 204.396 172.525 60.2074 112.318 91.4422 26.5986 405.406 17.6518 748.668 204.29 544.378 20.0136
internal_count=44644 24338 20306 10819 9784 17189 9240 8741 7149 8496 5323 4970 3173 3118 1763 121 9487 8678 1355 1198 499 699 597 180 5298 238 7037 2071 4966 174
is_linear=0
shrinkage=0.05


Tree=21
num_leaves=31
num_cat=0
split_feature=4 7 0 1 9 7 7 3 7 5 5 7 2 9 2 2 3 7 0 3 0 3 7 9 7 2 0 1 4 7
split_gain=364.512 167.035 84.539 83.7869 99.4643 49.1759 75.8716 43.486 39.2131 37.2771 36.8411 45.8609 43.6831 36.2353 34.7185 48.517 38.4564 35.0038 34.4316 30.9461 31.3804 29.8555 29.0642 44.5376 32.0584 28.4136 28.1638 27.3748 27.0664 26.6478
threshold=0.65000000000000002 0.0076449999875492529 -17.361362005301896 4.5621964338565695 0.19021507822140751 0.050985833307107292 0.026810555590523619 3.024305352108386 0.00028069443172878695 -0.071481908030362057 0.033671211514519427 0.012139722241295709 2.4833333333333338 3.4330380997876349 2.416666666666667 0.95000000000000007 1.7831688962394467 0.011142083340220982 -16.067532250689371 0.0014213400006818369 -17.341221924074876 6.4299666596326981 0.020100138882795972 1.1165960146309117 0.011854027774598866 0.31666666666666671 -17.203089421097051 4.4867551127650867 0.25000000000000006 0.012395694421397317
decision_type=2 2 2 2 2 2 2 2 2 2 2 2 2 2 2 2 2 2 2 2 2 2 2 2 2 2 2 2 2 2
left_child=1 2 25 4 9 6 10 -3 26 -2 12 14 22 -8 15 16 -12 -17 -16 20 28 -13 24 -24 -6 -1 -4 -9 -10 -11
right_child=3 7 8 -5 5 -7 13 27 19 29 11 21 -14 -15 18 17 -18 -19 -20 -21 -22 -23 23 -25 -26 -27 -28 -29 -30 -31
leaf_value=-0.039112617705435823 -0.035300706049823743 -0.04318436734842232 -0.0078060357136212205 -0.05257943893926259 0.0077449071887236518 -0.053220115351253421 0.0749357756454722 0.13550283778670461 0.082457342928783886 0.0071159038467086128 0.026551024022468422 0.06001122235600892 0.05940242560988919 -0.062517673629921208 0.0591673612106993 0.039901990160193947 -0.0075649630778076987 -0.069956687803243586 -0.040685415439919957 -0.0043485647090185991 -0.029963191122397932 -0.05585116392048825 -0.055896009892048543 0.056659167006032789 -0.045171327057508544 0.15583018788829697 0.017445052019046982 -0.056491827882808793 -0.040423595178280709 -0.056853676288963151
leaf_weight=210.62569355964661 56.597312588244677 472.98683777824044 174.38961371034384 47.970410488545895 52.152236122637987 19.924572452902794 93.712381146848202 5.5931417196989042 12.0286758877337 1175.3458693027496 180.7162888944149 118.27164550870657 28.212743207812309 5.0532342493534079 11.096200518310068 344.32795310765505 152.14588104188442 7.4067710041999808 38.896110437810421 786.53340242058039 224.89412961900234 5.8343385234475127 12.044664584100245 32.514708913862705 63.439037907868624 1.8859165087342251 301.06464695185423 2.7790390178561211 7.1420472711324683 16.508694849908352
leaf_count=3815 702 7560 1685 1029 374 354 426 32 164 9437 922 562 134 35 57 1674 880 39 333 7791 2665 64 142 190 674 20 2570 32 101 181
internal_value=0 -0.0151523 -0.00786071 0.0128539 0.014154 0.0246567 0.0260109 -0.0411849 -0.00369502 0.0043471 0.0220594 0.026452 0.00203437 0.0679031 0.0217026 0.02464 0.0109572 0.0375886 -0.0185223 -0.00917495 -0.0247287 0.0545644 -0.0080718 0.0262348 -0.0212967 -0.0373826 0.00818333 0.0717726 0.0366781 0.00622984
internal_weight=0 2199.92 1718.56 2462.17 2414.2 1165.75 1145.82 481.359 1506.05 1248.45 1047.06 858.695 188.363 98.7656 734.589 684.597 332.862 351.735 49.9923 1030.6 244.065 124.106 160.151 44.5594 115.591 212.512 475.454 8.37218 19.1707 1191.85
internal_count=44644 26435 18811 18209 17180 6860 6506 7624 14976 10320 6045 4531 1514 461 3905 3515 1802 1713 390 10721 2930 626 1380 332 1048 3835 4255 64 265 9618
is_linear=0
shrinkage=0.05


Tree=22
num_leaves=31
num_cat=0
split_feature=1 7 1 0 9 6 6 7 7 7 6 9 7 1 3 0 3 9 6 7 3 6 0 0 0 1 6 3 2 6
split_gain=335.573 161.016 84.3062 84.0773 64.1129 73.3378 65.0237 45.379 48.4427 41.0069 35.7307 37.878 34.041 31.7889 44.4377 43.0954 37.7462 36.5334 29.2074 27.8915 33.5506 31.628 36.7655 29.9577 27.6367 27.6337 65.1544 41.5162 26.1684 26.0767
threshold=3.6935769899726787 0.0087788889143202067 4.5621964338565695 -17.361362005301896 0.19021507822140751 0.0068598927975958403 0.040539388572977932 0.050985833307107292 0.026810555590523619 0.012395694421397317 0.028864461719766737 3.4330380997876349 0.0080813889039887347 4.2099671336418529 2.0473893073773852 -15.995136308943746 6.4299666596326981 0.38347921445453054 0.11049059162399423 0.00028069443172878695 0.0064645283393689476 0.0093375091816446706 -16.94769747580558 -17.341221924074876 -15.952405637093863 3.7252838602062877 0.0027962580228687436 0.45104337479851148 1.0833333333333337 0.057434808092269141
decision_type=2 2 2 2 2 2 2 2 2 2 2 2 2 2 2 2 2 2 2 2 2 2 2 2 2 2 2 2 2 2
left_child=1 3 4 -1 6 -6 9 8 13 25 11 -10 18 14 15 -7 -15 -16 24 -5 23 22 -22 -21 -8 26 -2 -27 -29 -23
right_child=2 -3 -4 19 5 7 12 -9 10 -11 -12 -13 -14 16 17 -17 -18 -19 -20 20 21 29 -24 -25 -26 27 -28 28 -30 -31
leaf_value=-0.035891536059693162 0.18845520010827718 -0.045506530742419421 -0.052460247355132633 0.0059315587216509751 -0.043388370925477857 0.021996520720028095 0.04202014065645427 -0.05312362291529335 0.076613537095161277 -0.055032763873994688 -0.031008549673844695 -0.061395980463018321 -0.057616489927803841 0.037547833140967386 0.096426978618408446 0.10246676112754279 -0.020637482992244452 -0.0081823708085346624 -0.024594505354487744 0.029583051093738068 0.028206895127761006 -0.010447267889575652 -0.053804315923861382 -0.0269401189803068 -0.037697565699982491 -0.033320371707048456 0.01406523511596329 0.0057020434246972248 -0.046429615789209157 0.012230019146204675
leaf_weight=238.7017258554697 5.6339648813009253 328.10455395653844 46.53407009318471 485.54882521927357 40.008778069168329 380.51415768265724 196.78256241232157 18.081382911652327 88.441593170166016 35.209617633372545 9.9036581516265851 5.2678769901394835 11.11567712202668 411.98083660751581 8.7340503595769388 17.398734793066978 29.895851477980614 187.95092361420393 20.746534593403339 25.510280922055244 119.48120738938451 832.10506247356534 15.430673211812971 289.14456859976053 11.507985576987265 100.66061298549175 108.55828631669283 389.01103843003511 25.659930787980556 149.5519956573844
leaf_count=4425 43 5772 1043 4343 545 2043 1175 331 420 477 71 39 119 2202 51 77 242 1142 134 347 1113 8480 145 3456 63 1017 989 2715 199 1426
internal_value=0 -0.0128755 0.0141072 -0.00790845 0.0155801 0.0231668 0.0055344 0.0254659 0.0267123 -0.00252177 0.05931 0.0688553 0.0278336 0.0234536 0.015905 0.0255151 0.0336112 -0.00353706 0.0319807 -0.00442363 -0.00793668 -0.0038728 0.0188268 -0.0223576 0.0376158 0.000415196 0.0226692 -0.00451607 0.00247612 -0.00699246
internal_weight=0 2483.58 2149.6 2155.47 2103.06 1198.18 904.886 1158.17 1140.09 664.733 103.613 93.7095 240.153 1036.47 594.598 397.913 441.877 196.685 229.037 1916.77 1431.22 1116.57 134.912 314.655 208.291 629.524 114.192 515.332 414.671 981.657
internal_count=44644 29507 15137 23735 14094 7163 6931 6618 6287 5440 530 459 1491 5757 3313 2120 2444 1193 1372 19310 14967 11164 1258 3803 1238 4963 1032 3931 2914 9906
is_linear=0
shrinkage=0.05


Tree=23
num_leaves=31
num_cat=0
split_feature=4 0 3 1 6 9 5 6 2 4 5 5 5 6 5 0 3 6 0 5 0 6 2 1 5 6 0 9 1 3
split_gain=309.984 118.964 72.1536 82.5354 54.1595 53.0739 44.0129 36.3965 35.2758 35.1915 32.7845 25.9892 26.9319 24.514 23.8958 24.2542 41.0527 28.3132 21.3673 21.1065 37.2766 36.3876 23.3702 22.9335 20.3966 34.3732 30.3381 29.4102 28.052 46.1646
threshold=0.55000000000000016 -17.351979195710616 0.31579184683615019 4.5621964338565695 0.0068598927975958403 0.53431319002516653 -0.0010829485029532784 0.040023878327913674 0.31666666666666671 1.2500000000000002 0.080269853721889939 -0.0089901042669717681 0.19491826417461133 0.12377724671644737 -0.1230593404979613 -16.302006565087613 1.619788023930822 0.018124747762852163 -16.926325442602661 -0.018291696020614725 -17.139034210143603 0.080134498347478364 0.51666666666666672 3.7212267589133208 0.19973603184825839 0.016750904883284037 -15.243958805951907 2.9414104756905419 4.4106894270857238 4.0192339887252997
decision_type=2 2 2 2 2 2 2 2 2 2 2 2 2 2 2 2 2 2 2 2 2 2 2 2 2 2 2 2 2 2
left_child=1 8 9 4 -4 7 -3 -6 -1 19 -11 -9 13 -13 -7 17 -17 -16 -12 22 -21 -22 23 -2 26 -26 27 28 29 -18
right_child=2 6 3 -5 5 14 -8 11 -10 10 18 12 -14 -15 15 16 24 -19 -20 20 21 -23 -24 -25 25 -27 -28 -29 -30 -31
leaf_value=-0.042231962108183647 -0.025539318573223092 -0.024346940716529392 -0.042455228173333283 -0.052326010196632411 0.0054244220655786423 -0.053559121535544568 -0.0048703778918784543 -0.056195147853819252 0.22584180048253708 -0.037349770158907787 0.0096320499656403057 0.038162915430172577 -0.016153676402251266 -0.057385885119062896 0.050024091694702871 0.094720254821110128 0.027330627670022468 -0.065873619219213794 0.15160841988874171 0.033541577492437573 -0.0042855787124190855 0.083518011581109997 0.17558268016819015 0.14713907163236239 -0.046957544986025695 0.025336104523218946 -0.0010123972629014623 0.086062786369360725 0.00088459498230992909 0.061346856606633637
leaf_weight=362.79882376268506 94.836166590452194 383.3738569021225 37.589662171900272 43.919771127402782 802.91440049931407 8.9949202537536603 1191.7813550271094 9.1341095939278585 1.2313435971736897 108.64330684766173 12.824047267436983 223.62581065297127 28.591391384601593 6.9205372631549826 8.3899573534727114 23.636205226182938 421.82289899885654 14.16887530684471 3.340342938899993 99.711785078048706 332.54721862450242 12.233710139989851 1.5194989815354336 1.9625885784625996 23.5062300786376 54.712898783385754 68.964974693953991 25.915167883038521 66.000450011342764 130.62954970821738
leaf_count=7139 1301 5298 533 1035 5642 153 11891 101 10 1143 125 1257 167 42 39 108 2231 74 29 935 3044 92 20 19 134 294 521 114 495 658
internal_value=0 -0.0155643 0.0107073 0.0154595 0.016982 0.0181469 -0.00961074 0.0107519 -0.0413252 -0.00352487 -0.0274651 0.0266965 0.0296183 0.0352947 0.027502 0.0283724 0.0297876 -0.0227696 0.0389712 0.00197967 0.00661669 -0.00117008 -0.0189841 -0.0220383 0.0278487 0.00361059 0.0305065 0.0338799 0.0316932 0.0353739
internal_weight=0 1939.19 2667.06 1999.44 1955.52 1917.93 1575.16 1071.19 364.03 667.619 124.808 268.272 259.138 230.546 846.742 837.747 815.188 22.5588 16.1644 542.811 444.493 344.781 98.3183 96.7988 791.552 78.2191 713.333 644.368 618.453 552.452
internal_count=44644 24338 20306 13598 12563 12030 17189 7209 7149 6708 1297 1567 1466 1299 4821 4668 4555 113 154 5411 4071 3136 1340 1320 4447 428 4019 3498 3384 2889
is_linear=0
shrinkage=0.05


Tree=24
num_leaves=31
num_cat=0
split_feature=1 7 0 1 9 7 6 7 7 6 8 8 0 3 7 9 9 9 5 9 3 3 7 9 0 5 6 3 7 1
split_gain=277.097 152.465 74.7966 72.8194 54.0033 63.567 63.0052 39.6867 53.3386 37.4021 32.9778 32.727 48.2059 36.3233 33.9921 37.6376 31.9404 30.7595 30.0142 29.6309 41.3728 66.3046 29.0501 69.3583 28.2029 32.5127 27.7382 30.041 26.0563 26.0272
threshold=3.6935769899726787 0.0087788889143202067 -17.361362005301896 4.5621964338565695 0.28716635404568941 0.012395694421397317 0.007034227051708003 0.050985833307107292 0.026810555590523619 0.042098515008997625 0.4710867827673752 0.28225273069152451 -15.720268389582694 2.0473893073773852 0.015299444463517933 1.2162033668121415 0.42916577893923363 3.4330380997876349 -0.044366813078605842 1.7314359876286012 2.8922550290378788 5.5497407762310091 0.012139722241295709 0.67070814547702606 -15.995136308943746 0.14869694558046601 0.098607627581890081 2.266243836245287 0.00095166666640175723 4.0361663799039116
decision_type=2 2 2 2 2 2 2 2 2 2 2 2 2 2 2 2 2 2 2 2 2 2 2 2 2 2 2 2 2 2
left_child=1 2 -1 4 5 9 -6 8 11 -2 26 12 13 22 15 28 -15 -10 -4 20 -13 -22 24 -24 25 -8 27 -11 -14 -27
right_child=3 -3 18 -5 6 -7 7 -9 17 10 -12 19 14 16 -16 -17 -18 -19 -20 -21 21 -23 23 -25 -26 29 -28 -29 -30 -31
leaf_value=-0.034512863839722657 0.0027928494942648001 -0.044787131425448774 -0.028434162367672072 -0.052217425735935921 -0.040397278008179008 -0.051709104659155396 0.0035420059146180796 -0.052941496797328326 0.066918707034501243 0.043714848056912128 -0.023894283712660839 -0.0097385425780182923 -0.024530871529926335 0.1141604961684563 0.08325956566977348 0.023213276166696897 -0.0030565423366802472 -0.060838298703917576 -0.0023138424657423162 -0.038644578273850566 0.056426746231492568 -0.043702546980497817 0.13709878005934595 -0.067018352243799387 0.095729126993142261 0.058203251593342414 -0.016114042479172429 -0.057119754427302098 0.084015128396599803 0.0022759326669072591
leaf_weight=223.36304670199752 726.67863949388266 308.00477111712098 117.21042603254318 42.316793639212847 39.380954213440418 46.043869696557522 128.49696896225214 16.493727646768093 92.627948291599751 175.08488117530942 29.445305727422237 102.52017704769969 6.2456145137548438 5.9996741861104956 45.993159160017967 154.82109613716602 185.44033924490213 4.9638733193278304 1782.5517246499658 32.811546973884106 79.006525941193104 20.90889760106802 16.168443799018863 5.6043519824743262 13.054337769746779 70.062696374952793 25.596156232059002 7.7117713540792456 48.167296335101128 29.587782636284828
leaf_count=4425 5517 5772 1602 1043 570 613 657 319 462 1000 184 683 26 27 214 736 1040 38 17708 298 463 198 78 37 55 326 168 47 200 138
internal_value=0 -0.0119125 -0.00714335 0.0127242 0.0140273 0.00568585 0.021702 0.0240113 0.0252288 0.00842576 0.0256363 0.0215941 0.0269517 0.0171853 0.0443403 0.0357852 0.000617005 0.0604205 -0.0039254 0.00543226 0.0125764 0.0354731 0.0292466 0.0845587 0.0242537 0.0201639 0.0326348 0.0394609 0.071556 0.0415976
internal_weight=0 2431.13 2123.13 2151.23 2108.92 1010.56 1098.36 1058.97 1042.48 964.517 237.838 944.889 709.642 454.415 255.227 209.234 191.44 97.5918 1899.76 235.247 202.436 99.9154 262.975 21.7728 241.202 228.147 208.393 182.797 54.4129 99.6505
internal_count=44644 29507 23735 15137 14094 7529 6565 5995 5676 6916 1399 5176 3534 2358 1176 962 1067 500 19310 1642 1344 661 1291 115 1176 1121 1215 1047 226 464
is_linear=0
shrinkage=0.05


Tree=25
num_leaves=31
num_cat=0
split_feature=2 7 9 1 6 0 6 7 7 8 7 6 0 3 7 3 7 0 0 8 7 6 2 9 3 7 7 8 9 0
split_gain=265.275 121.161 69.4133 80.6016 55.1441 54.4183 44.9319 34.2824 57.3529 32.919 42.0504 37.1873 34.2826 34.1081 34.7226 33.6588 33.412 35.4735 31.6077 35.0788 31.0428 30.9084 28.7669 36.1954 71.4192 31.7432 30.7866 29.3475 27.7206 27.5365
threshold=0.15000000000000005 0.0056218055552906465 0.19021507822140751 4.5621964338565695 0.0068598927975958403 -17.361362005301896 0.043177719994197887 0.050985833307107292 0.02431236111455494 0.13087223724370148 0.012139722241295709 0.010765131152686588 -16.462868061085754 5.5497407762310091 0.0072581944531864596 6.4299666596326981 0.0050304166475931807 -16.480964221981097 -17.069282687230253 0.47697467936004984 0.012395694421397317 0.12377724671644737 0.98333333333333339 0.85203629790521673 2.7755444426746281 0.013225000003973647 0.0047297222084469277 0.86630156300203764 3.4330380997876349 -15.952405637093863
decision_type=2 2 2 2 2 2 2 2 2 2 2 2 2 2 2 2 2 2 2 2 2 2 2 2 2 2 2 2 2 2
left_child=1 5 6 4 -4 -1 20 8 9 10 11 -6 -11 14 16 22 -13 -18 -8 21 -2 29 -14 25 -25 -24 -26 -28 -10 -20
right_child=2 -3 3 -5 7 -7 18 -9 28 12 -12 13 15 -15 -16 -17 17 -19 19 -21 -22 -23 23 24 26 -27 27 -29 -30 -31
leaf_value=-0.038499436146591161 -0.0011071339047088301 -0.037759300923558281 -0.041404518938897385 -0.052098725500706482 -0.035346060382352537 -0.0036994374739989996 -0.0057439408570614317 -0.052743422210427694 0.063209768083679327 -0.043935236624281122 0.061470633666299214 0.019992348048094584 -0.0017610368430124408 0.082362457391104205 -0.004012178250815927 -0.057141218194993973 0.15179830983690951 0.045260811392224251 0.040537099544894636 -0.024052114201455421 -0.054678485995011808 -0.035871646919568512 0.063350751446438744 -0.054756127970253504 -0.058992348087013972 -0.042658701872206439 0.040570259756331349 -0.054740624397775384 -0.060395589360797232 -0.040220866104744298
leaf_weight=126.97671842202544 1332.7543535381556 482.43853688985109 35.451785620301962 40.071426346898079 26.858827665448189 974.4238808453083 109.47591831162572 15.172537118196486 102.3334583491087 28.474664896726608 77.553309090435505 248.84310813248158 150.21446223556995 24.678729370236397 99.62735778093338 16.551848769187927 8.6141154617071134 84.055393844842911 223.0864669047296 31.210326015949249 27.601887699216604 15.645154841244219 73.994173504412174 31.855886153876781 9.4686262235045415 7.8065802454948416 123.5459448993206 8.6414835974574071 4.7463320568203917 11.079735994338987
leaf_count=2634 12153 8472 537 1038 167 9811 1292 311 515 208 389 1155 896 109 514 173 41 391 1443 221 405 112 354 264 67 83 667 122 37 63
internal_value=0 -0.016864 0.00847491 0.0176383 0.0200096 -0.00771141 0.00209735 0.0219143 0.0229187 0.0192669 0.0272482 0.0218612 0.00916555 0.0251597 0.0219596 0.0127479 0.0295362 0.055164 0.0170473 0.0259259 -0.00219411 0.03217 0.0156004 0.0258152 0.0128889 0.0532338 0.028101 0.0343395 0.0577309 0.036716
internal_weight=0 1583.84 2969.41 1218.56 1178.49 1101.4 1750.85 1143.04 1127.86 1020.78 570.231 492.678 450.554 465.819 441.14 422.079 341.513 92.6695 390.498 281.022 1360.36 249.811 405.527 255.313 173.512 81.8008 141.656 132.187 107.08 234.166
internal_count=44644 20917 23727 8038 7000 12445 15689 6463 6152 5600 2766 2377 2834 2210 2101 2626 1587 432 3131 1839 12558 1618 2453 1557 1120 437 856 789 552 1506
is_linear=0
shrinkage=0.05


Tree=26
num_leaves=31
num_cat=0
split_feature=1 5 7 4 7 6 7 7 7 9 9 9 7 4 5 1 8 4 7 9 7 6 1 3 6 9 7 5 6 6
split_gain=241.745 115.965 66.2278 43.751 42.1414 39.4559 38.4309 87.9647 58.3226 37.9772 37.3844 41.9513 33.564 48.543 28.012 26.1245 25.8164 33.1813 62.2488 38.397 30.7844 27.6399 28.7178 34.0316 29.6925 27.324 26.5271 23.9007 29.0281 23.6778
threshold=3.500923467048604 0.078936529440500322 0.014554583330949149 7.0500000000000007 0.0088816666603088405 0.010765131152686588 0.050985833307107292 0.02141708334287008 0.011994861099455094 1.3143551003326779 3.4330380997876349 0.55047737957928677 0.00028069443172878695 0.55000000000000016 0.014220963693679685 4.5015784731724127 0.66042494146996511 2.3500000000000001 0.0072581944531864596 0.90990596787211209 0.0095927777886390692 0.046315412451437561 3.5926060057691402 0.2515088960199246 0.022182812169975748 -0.15477127826703643 0.0039872221814261548 0.03524946906905408 0.015725433800069192 0.013107538651862828
decision_type=2 2 2 2 2 2 2 2 2 2 2 2 2 2 2 2 2 2 2 2 2 2 2 2 2 2 2 2 2 2
left_child=4 3 5 6 14 -3 7 8 12 -5 11 -9 -2 -14 -1 -4 17 21 25 -20 -21 22 29 -24 -25 -19 -23 -10 -29 -15
right_child=1 2 15 9 -6 -7 -8 10 27 -11 -12 -13 13 16 -16 -17 -18 18 19 20 -22 26 23 24 -26 -27 -28 28 -30 -31
leaf_value=-0.022861893389110696 0.010735743117523266 -0.038882661443488509 0.081020985857320676 0.069018182671437195 -0.049226071853745897 0.015496286885624006 -0.05240983523794196 -0.044270907478251388 -0.043678638002631491 -0.060016035080440011 -0.055437149053257945 0.051870053329129633 -0.015071240219088181 0.039264263794096192 0.031791937346674536 -0.036904838152169876 -0.039777317046113266 0.14307879475302332 0.10575876148993738 0.091916743975056683 -0.015609046722640808 0.036956212126547566 -0.027372752584628776 -0.01494611142649635 0.014769901708407052 -0.029780981219220095 -0.030142510578226551 0.031587400690630908 -0.036614233067350281 0.0011813887430928713
leaf_weight=521.16742647066712 416.04997657984495 34.253273665904999 50.067407164722681 35.733031988143921 165.20963345840573 1275.2578641735017 38.322005428373814 12.512403901666401 125.10271403938532 6.7851170152425757 10.41132305189967 121.79111236706376 702.92322444915771 61.898825529962778 24.548960570245981 5.1826046146452418 34.911619890481234 2.4476159214973441 28.600125417113304 10.517414003610613 18.132808338850737 83.335596680641174 168.43136659637094 165.36026548221707 170.98605886474252 34.644296236336231 17.892521016299725 28.367216445505619 34.669318813830614 119.82764561101794
leaf_count=8497 3557 279 241 174 3600 7611 900 145 1748 75 191 700 7927 548 272 110 325 18 134 48 132 642 1645 1452 1440 248 177 230 341 1237
internal_value=0 0.0046563 0.0163363 -0.00185091 -0.0271013 0.0140739 -0.00273899 -0.00193543 -0.00439318 0.0484267 0.0358374 0.0429131 -0.00193187 -0.00518536 -0.0204033 0.0699592 0.00239275 0.0040618 0.0320839 0.0647752 0.0238634 0.000705749 -0.00289073 -0.0090267 0.000160413 -0.0183743 0.0250962 -0.0310284 -0.00592266 0.014153
internal_weight=0 3814.41 1364.76 2449.65 710.926 1309.51 2407.14 2368.81 2224.1 42.5181 144.715 134.304 2035.96 1619.91 545.716 55.25 916.986 882.075 94.3423 57.2503 28.6502 787.732 686.504 504.778 336.346 37.0919 101.228 188.139 63.0365 181.726
internal_count=44644 32275 8241 24034 12369 7890 23785 22885 21849 249 1036 845 19530 15973 8769 351 8046 7721 580 314 180 7141 6322 4537 2892 266 819 2319 571 1785
is_linear=0
shrinkage=0.05


Tree=27
num_leaves=31
num_cat=0
split_feature=1 5 7 7 4 7 7 7 6 9 9 9 7 4 3 1 5 6 6 7 9 7 7 8 8 4 1 7 4 7
split_gain=222.991 104.094 62.1431 41.6656 40.2905 36.6001 80.1634 54.3294 35.8891 34.9816 34.3097 38.1074 30.2671 44.9608 25.6947 24.067 22.9384 26.4795 22.2903 22.3675 37.3628 22.0709 61.1323 45.8788 32.6092 31.6395 30.5616 29.3918 27.7391 29.1683
threshold=3.500923467048604 0.078936529440500322 0.014554583330949149 0.0088816666603088405 7.0500000000000007 0.050985833307107292 0.02141708334287008 0.011994861099455094 0.010765131152686588 1.3143551003326779 3.4330380997876349 0.55047737957928677 0.00028069443172878695 0.35000000000000003 0.067930983931535308 4.5015784731724127 0.03524946906905408 0.015725433800069192 0.031509886701943761 0.026810555590523619 1.1731669312522168 0.0044595833288298718 0.0076449999875492529 0.34845052254939729 0.3950236961794607 6.4500000000000011 3.9062192374748057 0.010747222238116796 1.9500000000000002 0.0018158333169089427
decision_type=2 2 2 2 2 2 2 2 2 2 2 2 2 2 2 2 2 2 2 2 2 2 2 2 2 2 2 2 2 2
left_child=3 4 8 14 5 6 7 12 -3 -6 11 -8 -2 -14 -1 -4 -9 -18 19 20 -13 23 -23 -10 25 26 27 -24 29 -25
right_child=1 2 15 -5 9 -7 10 16 21 -11 -12 18 13 -15 -16 -17 17 -19 -20 -21 -22 22 24 28 -26 -27 -28 -29 -30 -31
leaf_value=-0.022315695735905312 0.010117624551137318 -0.0378185983684554 0.078695293643684106 -0.048951779431564466 0.066696708767698662 -0.052287171315529339 -0.043429614736255263 -0.04298082187128488 0.013362925762569823 -0.059476631511175486 -0.055178734316030743 -0.041258820003523301 -0.019109418787857439 -3.0053439778035432e-05 0.026726784881937922 -0.03615184060468548 0.029680323402207966 -0.035604953471963297 -0.058283403065696605 0.070960995540087279 0.057237623101569692 0.039294486100200691 -0.052541927703017521 0.082353657035758268 0.053803671710875668 -0.05869291767164736 0.017257588889447811 0.03708449465845353 -0.050410144916874511 -0.026790114429174356
leaf_weight=508.04604354500771 419.30808596313 33.476170547306538 48.996879190206528 158.0107649192214 35.14301872253418 36.536377269774675 12.126905616372822 120.88477727025747 726.28661313280463 6.5112526826560488 9.9487660154700261 14.132014036178587 416.46377297490835 1194.1620755158365 28.189715884625912 5.029936656355857 28.672308057546616 33.889563541859388 4.6113805547356597 72.221853993833065 30.209801986813545 263.56139318645 36.110131777822971 9.6951890587806719 28.154363825917244 23.10573061928153 119.73406987637281 12.250630006194113 48.143867891281843 16.606763385236263
leaf_count=8404 3557 279 241 3600 174 900 145 1748 4312 75 191 122 4901 11072 365 110 230 341 33 367 178 1354 260 71 142 243 662 102 365 100
internal_value=0 0.00442673 0.0154457 -0.0263867 -0.00177851 -0.00262706 -0.00185715 -0.00420318 0.0132899 0.0469737 0.0343915 0.0410764 -0.00184827 -0.00496346 -0.0197376 0.0680029 -0.0302614 -0.0056845 0.0495336 0.0537989 0.0258462 0.0146227 0.0230651 0.00953116 0.003565 -0.00383267 0.00370823 -0.029838 -0.0278512 0.0134415
internal_weight=0 3805.97 1371.15 694.247 2434.82 2393.17 2356.63 2213.38 1317.12 41.6543 143.251 133.302 2029.93 1610.63 536.236 54.0268 183.447 62.5619 121.175 116.564 44.3418 1283.65 482.916 800.732 219.355 191.201 168.095 48.3608 74.4458 26.302
internal_count=44644 32275 8241 12369 24034 23785 22885 21849 7890 249 1036 845 19530 15973 8769 351 2319 571 700 667 300 7611 2763 4848 1409 1267 1024 362 536 171
is_linear=0
shrinkage=0.05


Tree=28
num_leaves=31
num_cat=0
split_feature=2 7 9 1 0 6 6 5 5 7 7 7 7 5 1 5 7 3 9 0 6 2 0 9 0 7 2 0 3 5
split_gain=206.154 109.365 55.1919 67.2867 49.1951 45.7235 37.7739 28.4553 27.76 27.5935 27.4463 49.6957 23.6591 23.4562 23.3238 37.8644 41.0658 39.0977 39.8594 34.3094 25.6437 43.022 48.4882 34.4281 53.0419 29.2813 26.5236 24.8247 35.5946 30.9266
threshold=0.15000000000000005 0.0056218055552906465 0.19021507822140751 4.5621964338565695 -17.361362005301896 0.0068598927975958403 0.043177719994197887 -0.014264348979950126 0.041005578917877879 0.012395694421397317 0.050985833307107292 0.026810555590523619 0.00012486113442314998 -0.071481908030362057 4.2099671336418529 0.06200776352785068 0.012139722241295709 2.0473893073773852 0.38347921445453054 -15.995136308943746 0.018736523688338887 1.216666666666667 -16.383353923292297 0.57705082332982316 -16.302006565087613 0.0024893055359522507 1.5833333333333337 -15.608003135239153 4.0192339887252997 -0.055700879637914598
decision_type=2 2 2 2 2 2 2 2 2 2 2 2 2 2 2 2 2 2 2 2 2 2 2 2 2 2 2 2 2 2
left_child=1 4 6 5 -1 -4 9 -8 -3 13 11 14 -6 -2 15 -7 17 19 -19 20 21 22 -17 25 -25 -22 -27 -16 -29 -30
right_child=2 8 3 -5 12 10 7 -9 -10 -11 -12 -13 -14 -15 27 16 -18 18 -20 -21 23 -23 -24 24 -26 26 -28 28 29 -31
leaf_value=-0.037172873335248907 -0.037020232908831781 -0.041042246042372325 -0.040265789504068783 -0.051859830091927843 0.010095755349631669 -0.017811192294173477 -0.015266723310027736 0.021219341508919534 -0.0041658132107656462 -0.054214737957398187 -0.052344173886575085 0.056186823611912518 -0.0076541389710987427 -1.4670809551162621e-05 0.042585134459519301 0.11413118470234632 0.065078684248420574 0.10537516616589737 -0.016217316940522593 0.09240536887082576 0.025960969079057813 -0.03751633996533188 0.023012746668806355 -0.070255417087955074 0.054791617619653801 -0.024763790234757783 0.08440514956587214 -0.017667898165425931 -0.05319127726433337 0.03086900190043761
leaf_weight=117.74214506149292 44.293762590736151 384.96995356678963 33.004533149302006 35.792089786380529 255.79618873819709 96.776425268501043 63.702608291059732 331.63571458309889 58.83371027559042 25.047951366752386 13.1609162800014 88.72774525731802 705.57493605464697 1288.3886449560523 149.01812535151839 25.495462238788605 39.798460073769093 7.1023156493902198 132.10344941169024 16.278581112623215 56.651147872209549 13.2932216450572 34.166080012917519 9.776496008038519 63.963382974267006 99.150530070066452 5.8946185111999503 57.695597752928734 11.548124644905327 208.41331794112921
