{"name": "tree", "version": "v4", "num_class": 1, "num_tree_per_iteration": 1, "label_index": 0, "max_feature_idx": 9, "objective": "binary sigmoid:1", "average_output": false, "feature_names": ["Column_0", "Column_1", "Column_2", "Column_3", "Column_4", "Column_5", "Column_6", "Column_7", "Column_8", "Column_9"], "monotone_constraints": [], "feature_infos": {"Column_0": {"min_value": -17.392491152905755, "max_value": -14.70496179291757, "values": []}, "Column_1": {"min_value": 3.4339872044851463, "max_value": 4.753636388804804, "values": []}, "Column_2": {"min_value": 0.03333333333333333, "max_value": 5.366666666666666, "values": []}, "Column_3": {"min_value": -1, "max_value": 13.142873317561186, "values": []}, "Column_4": {"min_value": 0.1, "max_value": 14.9, "values": []}, "Column_5": {"min_value": -4.378162982764881, "max_value": 1.0788291911748125, "values": []}, "Column_6": {"min_value": 0, "max_value": 1.0031911480155453, "values": []}, "Column_7": {"min_value": 3.138886557685004e-05, "max_value": 1.6849591666460038, "values": []}, "Column_8": {"min_value": -0.27661414850942745, "max_value": 0.07207411248895657, "values": []}, "Column_9": {"min_value": -0.0672286660496142, "max_value": 0.3823881099408431, "values": []}}, "tree_info": [{"tree_index": 0, "num_leaves": 31, "num_cat": 0, "shrinkage": 1, "tree_structure": {"split_index": 0, "split_feature": 3, "split_gain": 6871.14013671875, "threshold": 0.27769182424850475, "decision_type": "<=", "default_left": true, "missing_type": "None", "internal_value": -1.17676, "internal_weight": 0, "internal_count": 119392, "left_child": {"split_index": 3, "split_feature": 0, "split_gain": 1136.780029296875, "threshold": -17.29914768426569, "decision_type": "<=", "default_left": true, "missing_type": "None", "internal_value": -1.2139, "internal_weight": 7885.82, "internal_count": 43783, "left_child": {"leaf_index": 0, "leaf_value": -1.2346855148075004, "leaf_weight": 3586.3789541721344, "leaf_count": 19912}, "right_child": {"split_index": 8, "split_feature": 7, "split_gain": 379.85699462890625, "threshold": 0.05862750000423856, "decision_type": "<=", "default_left": true, "missing_type": "None", "internal_value": -1.19656, "internal_weight": 4299.44, "internal_count": 23871, "left_child": {"leaf_index": 4, "leaf_value": -1.1901374579383381, "leaf_weight": 3622.5813532173634, "leaf_count": 20113}, "right_child": {"leaf_index": 9, "leaf_value": -1.230943835785553, "leaf_weight": 676.8587841391563, "leaf_count": 3758}}}, "right_child": {"split_index": 1, "split_feature": 0, "split_gain": 3452.72998046875, "threshold": -15.121867412276591, "decision_type": "<=", "default_left": true, "missing_type": "None", "internal_value": -1.15525, "internal_weight": 13618, "internal_count": 75609, "left_child": {"split_index": 2, "split_feature": 2, "split_gain": 2984.5400390625, "threshold": 0.4166666666666667, "decision_type": "<=", "default_left": true, "missing_type": "None", "internal_value": -1.14779, "internal_weight": 12519.9, "internal_count": 69512, "left_child": {"split_index": 4, "split_feature": 7, "split_gain": 1125.8299560546875, "threshold": 0.040680833326445696, "decision_type": "<=", "default_left": true, "missing_type": "None", "internal_value": -1.16718, "internal_weight": 7678.15, "internal_count": 42630, "left_child": {"split_index": 17, "split_feature": 6, "split_gain": 179.06700134277344, "threshold": 0.009959097033175667, "decision_type": "<=", "default_left": true, "missing_type": "None", "internal_value": -1.14297, "internal_weight": 2954.01, "internal_count": 16401, "left_child": {"split_index": 19, "split_feature": 3, "split_gain": 185.57200622558594, "threshold": 0.5714396153089926, "decision_type": "<=", "default_left": true, "missing_type": "None", "internal_value": -1.19791, "internal_weight": 141.207, "internal_count": 784, "left_child": {"leaf_index": 1, "leaf_value": -1.0072748715524755, "leaf_weight": 11.707243472337721, "leaf_count": 65}, "right_child": {"leaf_index": 20, "leaf_value": -1.215145174269821, "leaf_weight": 129.5001239478588, "leaf_count": 719}}, "right_child": {"split_index": 18, "split_feature": 2, "split_gain": 217.447998046875, "threshold": 0.18333333333333338, "decision_type": "<=", "default_left": true, "missing_type": "None", "internal_value": -1.14021, "internal_weight": 2812.8, "internal_count": 15617, "left_child": {"leaf_index": 18, "leaf_value": -1.1567220091652493, "leaf_weight": 1166.761895596981, "leaf_count": 6478}, "right_child": {"leaf_index": 19, "leaf_value": -1.1285053301784898, "leaf_weight": 1646.0384322106838, "leaf_count": 9139}}}, "right_child": {"split_index": 10, "split_feature": 3, "split_gain": 269.5329895019531, "threshold": 2.235590292270537, "decision_type": "<=", "default_left": true, "missing_type": "None", "internal_value": -1.18232, "internal_weight": 4724.14, "internal_count": 26229, "left_child": {"split_index": 13, "split_feature": 5, "split_gain": 220.85499572753906, "threshold": 0.04377768357779046, "decision_type": "<=", "default_left": true, "missing_type": "None", "internal_value": -1.1908400000000001, "internal_weight": 3131.42, "internal_count": 17386, "left_child": {"split_index": 21, "split_feature": 7, "split_gain": 159.7779998779297, "threshold": 0.12930375003152425, "decision_type": "<=", "default_left": true, "missing_type": "None", "internal_value": -1.19506, "internal_weight": 2844.14, "internal_count": 15791, "left_child": {"leaf_index": 5, "leaf_value": -1.1840174484193327, "leaf_weight": 1522.6620971560478, "leaf_count": 8454}, "right_child": {"leaf_index": 22, "leaf_value": -1.207778857681772, "leaf_weight": 1321.477620869875, "leaf_count": 7337}}, "right_child": {"leaf_index": 14, "leaf_value": -1.1490567147852024, "leaf_weight": 287.2777436673641, "leaf_count": 1595}}, "right_child": {"split_index": 12, "split_feature": 7, "split_gain": 235.33099365234375, "threshold": 0.31966750002569627, "decision_type": "<=", "default_left": true, "missing_type": "None", "internal_value": -1.16557, "internal_weight": 1592.73, "internal_count": 8843, "left_child": {"leaf_index": 11, "leaf_value": -1.1553548946370489, "leaf_weight": 1241.6882538199425, "leaf_count": 6894}, "right_child": {"leaf_index": 13, "leaf_value": -1.2017206217084921, "leaf_weight": 351.0371927320957, "leaf_count": 1949}}}}, "right_child": {"split_index": 5, "split_feature": 6, "split_gain": 556.052978515625, "threshold": 0.0018829545010841506, "decision_type": "<=", "default_left": true, "missing_type": "None", "internal_value": -1.11705, "internal_weight": 4841.76, "internal_count": 26882, "left_child": {"split_index": 14, "split_feature": 3, "split_gain": 217.85499572753906, "threshold": 2.1995959544469454, "decision_type": "<=", "default_left": true, "missing_type": "None", "internal_value": -0.997226, "internal_weight": 94.9187, "internal_count": 527, "left_child": {"leaf_index": 3, "leaf_value": -1.2421721746231265, "leaf_weight": 8.285126149654387, "leaf_count": 46}, "right_child": {"leaf_index": 15, "leaf_value": -0.9738005630067809, "leaf_weight": 86.63360169529915, "leaf_count": 481}}, "right_child": {"split_index": 6, "split_feature": 7, "split_gain": 677.9500122070312, "threshold": 0.02761194447676341, "decision_type": "<=", "default_left": true, "missing_type": "None", "internal_value": -1.11945, "internal_weight": 4746.84, "internal_count": 26355, "left_child": {"split_index": 7, "split_feature": 6, "split_gain": 490.4339904785156, "threshold": 0.005509832583747235, "decision_type": "<=", "default_left": true, "missing_type": "None", "internal_value": -1.10772, "internal_weight": 3427.34, "internal_count": 19029, "left_child": {"split_index": 22, "split_feature": 2, "split_gain": 154.7209930419922, "threshold": 1.2833333333333334, "decision_type": "<=", "default_left": true, "missing_type": "None", "internal_value": -1.20129, "internal_weight": 134.543, "internal_count": 747, "left_child": {"leaf_index": 6, "leaf_value": -1.219072723503927, "leaf_weight": 121.21499779820442, "leaf_count": 673}, "right_child": {"leaf_index": 23, "leaf_value": -1.0395948935965946, "leaf_weight": 13.328246414661406, "leaf_count": 74}}, "right_child": {"split_index": 9, "split_feature": 5, "split_gain": 276.3609924316406, "threshold": -0.12493638376447232, "decision_type": "<=", "default_left": true, "missing_type": "None", "internal_value": -1.1039, "internal_weight": 3292.8, "internal_count": 18282, "left_child": {"leaf_index": 8, "leaf_value": -1.0561401664769723, "leaf_weight": 277.37161457538605, "leaf_count": 1540}, "right_child": {"split_index": 15, "split_feature": 7, "split_gain": 201.49200439453125, "threshold": 0.00483375002940496, "decision_type": "<=", "default_left": true, "missing_type": "None", "internal_value": -1.10829, "internal_weight": 3015.43, "internal_count": 16742, "left_child": {"split_index": 16, "split_feature": 0, "split_gain": 318.906005859375, "threshold": -16.551681298597106, "decision_type": "<=", "default_left": true, "missing_type": "None", "internal_value": -1.0916, "internal_weight": 1130.38, "internal_count": 6276, "left_child": {"leaf_index": 10, "leaf_value": -1.1222266394248714, "leaf_weight": 485.2202140688896, "leaf_count": 2694}, "right_child": {"leaf_index": 17, "leaf_value": -1.0685716095396953, "leaf_weight": 645.1591710448265, "leaf_count": 3582}}, "right_child": {"split_index": 20, "split_feature": 0, "split_gain": 169.11500549316406, "threshold": -16.24612695398722, "decision_type": "<=", "default_left": true, "missing_type": "None", "internal_value": -1.1183, "internal_weight": 1885.05, "internal_count": 10466, "left_child": {"leaf_index": 16, "leaf_value": -1.0961306425218942, "leaf_weight": 590.5854053199291, "leaf_count": 3279}, "right_child": {"split_index": 23, "split_feature": 2, "split_gain": 141.76400756835938, "threshold": 1.1500000000000001, "decision_type": "<=", "default_left": true, "missing_type": "None", "internal_value": -1.12842, "internal_weight": 1294.46, "internal_count": 7187, "left_child": {"split_index": 28, "split_feature": 3, "split_gain": 149.531005859375, "threshold": 3.2351468448235923, "decision_type": "<=", "default_left": true, "missing_type": "None", "internal_value": -1.14073, "internal_weight": 833.015, "internal_count": 4625, "left_child": {"split_index": 29, "split_feature": 0, "split_gain": 196.72500610351562, "threshold": -15.75064480336854, "decision_type": "<=", "default_left": true, "missing_type": "None", "internal_value": -1.12586, "internal_weight": 557.985, "internal_count": 3098, "left_child": {"leaf_index": 21, "leaf_value": -1.1343273680824555, "leaf_weight": 516.0192699730396, "leaf_count": 2865}, "right_child": {"leaf_index": 30, "leaf_value": -1.0217554700250322, "leaf_weight": 41.96596506237984, "leaf_count": 233}}, "right_child": {"leaf_index": 29, "leaf_value": -1.1709072668153013, "leaf_weight": 275.0301658809185, "leaf_count": 1527}}, "right_child": {"split_index": 24, "split_feature": 6, "split_gain": 164.35000610351562, "threshold": 0.009077085259663043, "decision_type": "<=", "default_left": true, "missing_type": "None", "internal_value": -1.10619, "internal_weight": 461.446, "internal_count": 2562, "left_child": {"leaf_index": 24, "leaf_value": -1.0144220251152931, "leaf_weight": 44.12730231881142, "leaf_count": 245}, "right_child": {"split_index": 25, "split_feature": 7, "split_gain": 161.1230010986328, "threshold": 0.011738472249772815, "decision_type": "<=", "default_left": true, "missing_type": "None", "internal_value": -1.11589, "internal_weight": 417.318, "internal_count": 2317, "left_child": {"leaf_index": 25, "leaf_value": -1.1439758902806505, "leaf_weight": 229.64208349585533, "leaf_count": 1275}, "right_child": {"split_index": 26, "split_feature": 7, "split_gain": 183.3489990234375, "threshold": 0.020988749994171992, "decision_type": "<=", "default_left": true, "missing_type": "None", "internal_value": -1.08152, "internal_weight": 187.676, "internal_count": 1042, "left_child": {"leaf_index": 26, "leaf_value": -1.036985202375641, "leaf_weight": 103.56407687067986, "leaf_count": 575}, "right_child": {"split_index": 27, "split_feature": 3, "split_gain": 249.0850067138672, "threshold": 4.6993605397379925, "decision_type": "<=", "default_left": true, "missing_type": "None", "internal_value": -1.13636, "internal_weight": 84.112, "internal_count": 467, "left_child": {"leaf_index": 27, "leaf_value": -1.0360708219289052, "leaf_weight": 35.66206473112106, "leaf_count": 198}, "right_child": {"leaf_index": 28, "leaf_value": -1.210180416212355, "leaf_weight": 48.449976831674576, "leaf_count": 269}}}}}}}}}}, "right_child": {"split_index": 11, "split_feature": 2, "split_gain": 250.3990020751953, "threshold": 2.4500000000000006, "decision_type": "<=", "default_left": true, "missing_type": "None", "internal_value": -1.1499, "internal_weight": 1319.5, "internal_count": 7326, "left_child": {"leaf_index": 7, "leaf_value": -1.1446815332361118, "leaf_weight": 1247.8120427131653, "leaf_count": 6928}, "right_child": {"leaf_index": 12, "leaf_value": -1.2407771700822774, "leaf_weight": 71.68435233831406, "leaf_count": 398}}}}}, "right_child": {"leaf_index": 2, "leaf_value": -1.2402598492249937, "leaf_weight": 1098.1394377052784, "leaf_count": 6097}}}}, {"tree_index": 1, "num_leaves": 31, "num_cat": 0, "shrinkage": 0.05, "tree_structure": {"split_index": 0, "split_feature": 3, "split_gain": 6251.919921875, "threshold": 0.27769182424850475, "decision_type": "<=", "default_left": true, "missing_type": "None", "internal_value": 0, "internal_weight": 0, "internal_count": 119392, "left_child": {"split_index": 3, "split_feature": 0, "split_gain": 1093.449951171875, "threshold": -17.29914768426569, "decision_type": "<=", "default_left": true, "missing_type": "None", "internal_value": -0.0360188, "internal_weight": 7730.45, "internal_count": 43783, "left_child": {"leaf_index": 0, "leaf_value": -0.05682218438647035, "leaf_weight": 3476.12139749527, "leaf_count": 19912}, "right_child": {"split_index": 9, "split_feature": 7, "split_gain": 359.947998046875, "threshold": 0.05862750000423856, "decision_type": "<=", "default_left": true, "missing_type": "None", "internal_value": -0.0190208, "internal_weight": 4254.33, "internal_count": 23871, "left_child": {"leaf_index": 4, "leaf_value": -0.01280317265000864, "leaf_weight": 3596.9303254932165, "leaf_count": 20113}, "right_child": {"leaf_index": 10, "leaf_value": -0.05304011129821298, "leaf_weight": 657.3978832662106, "leaf_count": 3758}}}, "right_child": {"split_index": 1, "split_feature": 0, "split_gain": 3141.72998046875, "threshold": -15.121867412276591, "decision_type": "<=", "default_left": true, "missing_type": "None", "internal_value": 0.0201669, "internal_weight": 13770.9, "internal_count": 75609, "left_child": {"split_index": 2, "split_feature": 2, "split_gain": 2561.89990234375, "threshold": 0.35000000000000003, "decision_type": "<=", "default_left": true, "missing_type": "None", "internal_value": 0.0270675, "internal_weight": 12709.8, "internal_count": 69512, "left_child": {"split_index": 4, "split_feature": 7, "split_gain": 779.72900390625, "threshold": 0.03995861113071442, "decision_type": "<=", "default_left": true, "missing_type": "None", "internal_value": 0.00682132, "internal_weight": 7008.71, "internal_count": 38757, "left_child": {"split_index": 24, "split_feature": 3, "split_gain": 142.06900024414062, "threshold": 0.5331244668314775, "decision_type": "<=", "default_left": true, "missing_type": "None", "internal_value": 0.0291479, "internal_weight": 2510.05, "internal_count": 13702, "left_child": {"leaf_index": 1, "leaf_value": 0.012489997948170942, "leaf_weight": 847.6917278915644, "leaf_count": 4623}, "right_child": {"split_index": 25, "split_feature": 6, "split_gain": 180.76499938964844, "threshold": 0.009616953117980215, "decision_type": "<=", "default_left": true, "missing_type": "None", "internal_value": 0.0376424, "internal_weight": 1662.36, "internal_count": 9079, "left_child": {"leaf_index": 25, "leaf_value": -0.03358047084226481, "leaf_weight": 84.55581851303577, "leaf_count": 478}, "right_child": {"leaf_index": 26, "leaf_value": 0.04145924526999108, "leaf_weight": 1577.8048184663057, "leaf_count": 8601}}}, "right_child": {"split_index": 11, "split_feature": 3, "split_gain": 244.82000732421875, "threshold": 2.125870864168978, "decision_type": "<=", "default_left": true, "missing_type": "None", "internal_value": -0.00563594, "internal_weight": 4498.66, "internal_count": 25055, "left_child": {"split_index": 12, "split_feature": 5, "split_gain": 211.28199768066406, "threshold": 0.03885237010800438, "decision_type": "<=", "default_left": true, "missing_type": "None", "internal_value": -0.0142654, "internal_weight": 2907.34, "internal_count": 16262, "left_child": {"split_index": 27, "split_feature": 7, "split_gain": 132.42999267578125, "threshold": 0.12930375003152425, "decision_type": "<=", "default_left": true, "missing_type": "None", "internal_value": -0.0191662, "internal_weight": 2567.87, "internal_count": 14396, "left_child": {"leaf_index": 5, "leaf_value": -0.008555837636872765, "leaf_weight": 1370.8625462949276, "leaf_count": 7639}, "right_child": {"leaf_index": 28, "leaf_value": -0.03131753385577062, "leaf_weight": 1197.0086659789085, "leaf_count": 6757}}, "right_child": {"leaf_index": 13, "leaf_value": 0.022806364293210098, "leaf_weight": 339.46444419026375, "leaf_count": 1866}}, "right_child": {"split_index": 13, "split_feature": 7, "split_gain": 205.16200256347656, "threshold": 0.31966750002569627, "decision_type": "<=", "default_left": true, "missing_type": "None", "internal_value": 0.01013, "internal_weight": 1591.32, "internal_count": 8793, "left_child": {"leaf_index": 12, "leaf_value": 0.01973947512342846, "leaf_weight": 1236.9422944039106, "leaf_count": 6799}, "right_child": {"leaf_index": 14, "leaf_value": -0.02341118628762762, "leaf_weight": 354.3811038583517, "leaf_count": 1994}}}}, "right_child": {"split_index": 5, "split_feature": 7, "split_gain": 529.655029296875, "threshold": 0.021398611134952974, "decision_type": "<=", "default_left": true, "missing_type": "None", "internal_value": 0.0519572, "internal_weight": 5701.12, "internal_count": 30755, "left_child": {"split_index": 7, "split_feature": 6, "split_gain": 450.26800537109375, "threshold": 0.005834348374100295, "decision_type": "<=", "default_left": true, "missing_type": "None", "internal_value": 0.0638079, "internal_weight": 3552.84, "internal_count": 19049, "left_child": {"split_index": 23, "split_feature": 2, "split_gain": 150.66200256347656, "threshold": 1.1833333333333333, "decision_type": "<=", "default_left": true, "missing_type": "None", "internal_value": -0.0241112, "internal_weight": 139.894, "internal_count": 784, "left_child": {"leaf_index": 3, "leaf_value": -0.04766858221726037, "leaf_weight": 115.98716548085213, "leaf_count": 656}, "right_child": {"leaf_index": 24, "leaf_value": 0.09018176450095301, "leaf_weight": 23.90658064186573, "leaf_count": 128}}, "right_child": {"split_index": 14, "split_feature": 5, "split_gain": 185.55799865722656, "threshold": -0.12493638376447232, "decision_type": "<=", "default_left": true, "missing_type": "None", "internal_value": 0.0674117, "internal_weight": 3412.95, "internal_count": 18265, "left_child": {"split_index": 26, "split_feature": 6, "split_gain": 137.83599853515625, "threshold": 0.06707883840860597, "decision_type": "<=", "default_left": true, "missing_type": "None", "internal_value": 0.109264, "internal_weight": 245.763, "internal_count": 1286, "left_child": {"leaf_index": 8, "leaf_value": 0.11761308315565705, "leaf_weight": 234.12435664236546, "leaf_count": 1225}, "right_child": {"leaf_index": 27, "leaf_value": -0.058681932326034664, "leaf_weight": 11.638376981019972, "leaf_count": 61}}, "right_child": {"split_index": 15, "split_feature": 4, "split_gain": 167.22799682617188, "threshold": 2.85, "decision_type": "<=", "default_left": true, "missing_type": "None", "internal_value": 0.064164, "internal_weight": 3167.18, "internal_count": 16979, "left_child": {"split_index": 16, "split_feature": 0, "split_gain": 241.2429962158203, "threshold": -16.106317884972785, "decision_type": "<=", "default_left": true, "missing_type": "None", "internal_value": 0.0570421, "internal_weight": 2288, "internal_count": 12298, "left_child": {"split_index": 17, "split_feature": 0, "split_gain": 210.093994140625, "threshold": -16.663460384151904, "decision_type": "<=", "default_left": true, "missing_type": "None", "internal_value": 0.0670134, "internal_weight": 1661.35, "internal_count": 8902, "left_child": {"leaf_index": 15, "leaf_value": 0.04237357501125315, "leaf_weight": 568.8861377388239, "leaf_count": 3064}, "right_child": {"split_index": 18, "split_feature": 7, "split_gain": 182.1479949951172, "threshold": 0.013388194408681659, "decision_type": "<=", "default_left": true, "missing_type": "None", "internal_value": 0.0798442, "internal_weight": 1092.47, "internal_count": 5838, "left_child": {"leaf_index": 18, "leaf_value": 0.08989768813742821, "leaf_weight": 879.2624640017748, "leaf_count": 4693}, "right_child": {"split_index": 29, "split_feature": 0, "split_gain": 121.9729995727539, "threshold": -16.256932608536005, "decision_type": "<=", "default_left": true, "missing_type": "None", "internal_value": 0.0383834, "internal_weight": 213.206, "internal_count": 1145, "left_child": {"leaf_index": 19, "leaf_value": 0.06473493644175053, "leaf_weight": 143.52284927666187, "leaf_count": 767}, "right_child": {"leaf_index": 30, "leaf_value": -0.015891740938926494, "leaf_weight": 69.68279625475407, "leaf_count": 378}}}}, "right_child": {"leaf_index": 17, "leaf_value": 0.030606600120056362, "leaf_weight": 626.6505017727613, "leaf_count": 3396}}, "right_child": {"split_index": 19, "split_feature": 5, "split_gain": 171.94500732421875, "threshold": 0.035018195960388694, "decision_type": "<=", "default_left": true, "missing_type": "None", "internal_value": 0.0826984, "internal_weight": 879.178, "internal_count": 4681, "left_child": {"split_index": 28, "split_feature": 3, "split_gain": 122.74700164794922, "threshold": 3.7725921445453556, "decision_type": "<=", "default_left": true, "missing_type": "None", "internal_value": 0.0454064, "internal_weight": 228.695, "internal_count": 1226, "left_child": {"leaf_index": 16, "leaf_value": 0.03135703402131363, "leaf_weight": 199.36797693371773, "leaf_count": 1071}, "right_child": {"leaf_index": 29, "leaf_value": 0.14091441218889225, "leaf_weight": 29.32721246778965, "leaf_count": 155}}, "right_child": {"leaf_index": 20, "leaf_value": 0.0958094426561507, "leaf_weight": 650.4824519008398, "leaf_count": 3455}}}}}, "right_child": {"split_index": 6, "split_feature": 6, "split_gain": 508.99700927734375, "threshold": 0.0018829545010841506, "decision_type": "<=", "default_left": true, "missing_type": "None", "internal_value": 0.0323585, "internal_weight": 2148.28, "internal_count": 11706, "left_child": {"split_index": 8, "split_feature": 3, "split_gain": 383.552001953125, "threshold": 2.235590292270537, "decision_type": "<=", "default_left": true, "missing_type": "None", "internal_value": 0.134463, "internal_weight": 115.496, "internal_count": 594, "left_child": {"leaf_index": 6, "leaf_value": -0.04612815334691784, "leaf_weight": 23.435684949159622, "leaf_count": 131}, "right_child": {"leaf_index": 9, "leaf_value": 0.1804355825053111, "leaf_weight": 92.06033796072006, "leaf_count": 463}}, "right_child": {"split_index": 10, "split_feature": 2, "split_gain": 293.68499755859375, "threshold": 2.4500000000000006, "decision_type": "<=", "default_left": true, "missing_type": "None", "internal_value": 0.0265572, "internal_weight": 2032.78, "internal_count": 11112, "left_child": {"split_index": 20, "split_feature": 2, "split_gain": 156.25599670410156, "threshold": 0.6833333333333335, "decision_type": "<=", "default_left": true, "missing_type": "None", "internal_value": 0.0305715, "internal_weight": 1945.96, "internal_count": 10615, "left_child": {"split_index": 22, "split_feature": 3, "split_gain": 229.44200134277344, "threshold": 3.984279783055202, "decision_type": "<=", "default_left": true, "missing_type": "None", "internal_value": 0.0188019, "internal_weight": 1151.42, "internal_count": 6297, "left_child": {"leaf_index": 7, "leaf_value": 0.030074602856131585, "leaf_weight": 917.408317476511, "leaf_count": 5013}, "right_child": {"leaf_index": 23, "leaf_value": -0.025390595326262384, "leaf_weight": 234.01534409821033, "leaf_count": 1284}}, "right_child": {"split_index": 21, "split_feature": 4, "split_gain": 415.5329895019531, "threshold": 1.1500000000000001, "decision_type": "<=", "default_left": true, "missing_type": "None", "internal_value": 0.0476276, "internal_weight": 794.54, "internal_count": 4318, "left_child": {"leaf_index": 21, "leaf_value": 0.18554608267518238, "leaf_weight": 51.101089015603065, "leaf_count": 279}, "right_child": {"leaf_index": 22, "leaf_value": 0.03814765020714322, "leaf_weight": 743.4389245808125, "leaf_count": 4039}}}, "right_child": {"leaf_index": 11, "leaf_value": -0.06341880236639517, "leaf_weight": 86.81831978261471, "leaf_count": 497}}}}}, "right_child": {"leaf_index": 2, "leaf_value": -0.06248641052031199, "leaf_weight": 1061.1190916895866, "leaf_count": 6097}}}}, {"tree_index": 2, "num_leaves": 31, "num_cat": 0, "shrinkage": 0.05, "tree_structure": {"split_index": 0, "split_feature": 0, "split_gain": 5769.22021484375, "threshold": -17.144391141778083, "decision_type": "<=", "default_left": true, "missing_type": "None", "internal_value": 0, "internal_weight": 0, "internal_count": 119392, "left_child": {"split_index": 7, "split_feature": 0, "split_gain": 407.62298583984375, "threshold": -17.326366998274164, "decision_type": "<=", "default_left": true, "missing_type": "None", "internal_value": -0.0454949, "internal_weight": 5272.37, "internal_count": 30722, "left_child": {"leaf_index": 0, "leaf_value": -0.057364684825836926, "leaf_weight": 3049.487984895706, "leaf_count": 18032}, "right_child": {"leaf_index": 8, "leaf_value": -0.02921132725753102, "leaf_weight": 2222.885008364916, "leaf_count": 12690}}, "right_child": {"split_index": 1, "split_feature": 0, "split_gain": 2543.77001953125, "threshold": -15.121867412276591, "decision_type": "<=", "default_left": true, "missing_type": "None", "internal_value": 0.0147165, "internal_weight": 16208.7, "internal_count": 88670, "left_child": {"split_index": 2, "split_feature": 4, "split_gain": 2315.469970703125, "threshold": 0.5500000000000002, "decision_type": "<=", "default_left": true, "missing_type": "None", "internal_value": 0.0198617, "internal_weight": 15184.2, "internal_count": 82573, "left_child": {"split_index": 5, "split_feature": 0, "split_gain": 413.2650146484375, "threshold": -15.968938323635703, "decision_type": "<=", "default_left": true, "missing_type": "None", "internal_value": -0.00302129, "internal_weight": 6397.31, "internal_count": 35592, "left_child": {"split_index": 6, "split_feature": 7, "split_gain": 440.9960021972656, "threshold": 0.10646180553568736, "decision_type": "<=", "default_left": true, "missing_type": "None", "internal_value": -0.00837178, "internal_weight": 5434.06, "internal_count": 30372, "left_child": {"split_index": 11, "split_feature": 3, "split_gain": 252.47500610351562, "threshold": 0.44586271793094284, "decision_type": "<=", "default_left": true, "missing_type": "None", "internal_value": 0.00204785, "internal_weight": 3539.82, "internal_count": 19600, "left_child": {"leaf_index": 1, "leaf_value": -0.011601706649427834, "leaf_weight": 1731.0772834420204, "leaf_count": 9696}, "right_child": {"leaf_index": 12, "leaf_value": 0.015111319583057886, "leaf_weight": 1808.740526497364, "leaf_count": 9904}}, "right_child": {"split_index": 29, "split_feature": 3, "split_gain": 131.4040069580078, "threshold": 0.4121305261265292, "decision_type": "<=", "default_left": true, "missing_type": "None", "internal_value": -0.0278432, "internal_weight": 1894.24, "internal_count": 10772, "left_child": {"leaf_index": 7, "leaf_value": -0.056028651851190714, "leaf_weight": 339.4245429635048, "leaf_count": 1966}, "right_child": {"leaf_index": 30, "leaf_value": -0.021690207569765946, "leaf_weight": 1554.8144739419222, "leaf_count": 8806}}}, "right_child": {"split_index": 10, "split_feature": 7, "split_gain": 309.25, "threshold": 0.4724036111434301, "decision_type": "<=", "default_left": true, "missing_type": "None", "internal_value": 0.0271627, "internal_weight": 963.254, "internal_count": 5220, "left_child": {"split_index": 25, "split_feature": 3, "split_gain": 137.48699951171875, "threshold": 4.226654757617714, "decision_type": "<=", "default_left": true, "missing_type": "None", "internal_value": 0.0381355, "internal_weight": 837.603, "internal_count": 4504, "left_child": {"split_index": 26, "split_feature": 3, "split_gain": 168.22999572753906, "threshold": 3.020150474663532, "decision_type": "<=", "default_left": true, "missing_type": "None", "internal_value": 0.0517964, "internal_weight": 575.762, "internal_count": 3068, "left_child": {"leaf_index": 6, "leaf_value": 0.011179655281877246, "leaf_weight": 176.69796599447727, "leaf_count": 962}, "right_child": {"leaf_index": 27, "leaf_value": 0.06978077232258834, "leaf_weight": 399.0640318989754, "leaf_count": 2106}}, "right_child": {"leaf_index": 26, "leaf_value": 0.008096595101354324, "leaf_weight": 261.8407672792673, "leaf_count": 1436}}, "right_child": {"leaf_index": 11, "leaf_value": -0.04598331700909766, "leaf_weight": 125.65077018737793, "leaf_count": 716}}}, "right_child": {"split_index": 3, "split_feature": 7, "split_gain": 676.2940063476562, "threshold": 0.02761194447676341, "decision_type": "<=", "default_left": true, "missing_type": "None", "internal_value": 0.0365217, "internal_weight": 8786.88, "internal_count": 46981, "left_child": {"split_index": 4, "split_feature": 3, "split_gain": 782.7899780273438, "threshold": 0.34985095196607047, "decision_type": "<=", "default_left": true, "missing_type": "None", "internal_value": 0.0460911, "internal_weight": 5953.49, "internal_count": 31528, "left_child": {"leaf_index": 3, "leaf_value": 0.008658008122412282, "leaf_weight": 1131.232064396143, "leaf_count": 6281}, "right_child": {"split_index": 8, "split_feature": 0, "split_gain": 328.2560119628906, "threshold": -16.106317884972785, "decision_type": "<=", "default_left": true, "missing_type": "None", "internal_value": 0.0548724, "internal_weight": 4822.26, "internal_count": 25247, "left_child": {"split_index": 12, "split_feature": 5, "split_gain": 229.9499969482422, "threshold": -0.2412010990559946, "decision_type": "<=", "default_left": true, "missing_type": "None", "internal_value": 0.0650595, "internal_weight": 2995.54, "internal_count": 15579, "left_child": {"leaf_index": 5, "leaf_value": 0.1425824941508175, "leaf_weight": 92.69613862037659, "leaf_count": 467}, "right_child": {"split_index": 14, "split_feature": 3, "split_gain": 181.47000122070312, "threshold": 0.7971544172205696, "decision_type": "<=", "default_left": true, "missing_type": "None", "internal_value": 0.062584, "internal_weight": 2902.84, "internal_count": 15112, "left_child": {"leaf_index": 13, "leaf_value": 0.04683378104931388, "leaf_weight": 1121.9752020388842, "leaf_count": 5897}, "right_child": {"split_index": 15, "split_feature": 7, "split_gain": 223.89599609375, "threshold": 0.013105833331743878, "decision_type": "<=", "default_left": true, "missing_type": "None", "internal_value": 0.0725068, "internal_weight": 1780.87, "internal_count": 9215, "left_child": {"leaf_index": 15, "leaf_value": 0.08479726912367833, "leaf_weight": 1202.8032213896513, "leaf_count": 6185}, "right_child": {"split_index": 18, "split_feature": 0, "split_gain": 145.6999969482422, "threshold": -16.595347893566153, "decision_type": "<=", "default_left": true, "missing_type": "None", "internal_value": 0.0469335, "internal_weight": 578.064, "internal_count": 3030, "left_child": {"leaf_index": 16, "leaf_value": 0.1194630466545214, "leaf_weight": 61.83519548177719, "leaf_count": 324}, "right_child": {"leaf_index": 19, "leaf_value": 0.038245769969010975, "leaf_weight": 516.2291966080666, "leaf_count": 2706}}}}}, "right_child": {"split_index": 9, "split_feature": 4, "split_gain": 446.010009765625, "threshold": 2.9500000000000006, "decision_type": "<=", "default_left": true, "missing_type": "None", "internal_value": 0.0381672, "internal_weight": 1826.72, "internal_count": 9668, "left_child": {"split_index": 17, "split_feature": 3, "split_gain": 145.9969940185547, "threshold": 4.226654757617714, "decision_type": "<=", "default_left": true, "missing_type": "None", "internal_value": 0.0180203, "internal_weight": 1097.15, "internal_count": 5919, "left_child": {"leaf_index": 9, "leaf_value": 0.029145449642664436, "leaf_weight": 799.6454109400511, "leaf_count": 4266}, "right_child": {"split_index": 20, "split_feature": 7, "split_gain": 142.33700561523438, "threshold": 0.004515555567211576, "decision_type": "<=", "default_left": true, "missing_type": "None", "internal_value": -0.0118825, "internal_weight": 297.503, "internal_count": 1653, "left_child": {"leaf_index": 18, "leaf_value": 0.1566162952392535, "leaf_weight": 12.02662295103073, "leaf_count": 62}, "right_child": {"leaf_index": 21, "leaf_value": -0.01898109488008981, "leaf_weight": 285.4760100841522, "leaf_count": 1591}}}, "right_child": {"split_index": 21, "split_feature": 7, "split_gain": 140.33999633789062, "threshold": 0.011738472249772815, "decision_type": "<=", "default_left": true, "missing_type": "None", "internal_value": 0.0684646, "internal_weight": 729.568, "internal_count": 3749, "left_child": {"split_index": 27, "split_feature": 5, "split_gain": 136.9219970703125, "threshold": 0.027046770000703227, "decision_type": "<=", "default_left": true, "missing_type": "None", "internal_value": 0.0521465, "internal_weight": 469.565, "internal_count": 2413, "left_child": {"leaf_index": 10, "leaf_value": -0.011289660201444588, "leaf_weight": 72.01663064956665, "leaf_count": 383}, "right_child": {"leaf_index": 28, "leaf_value": 0.06363810294082832, "leaf_weight": 397.5480857640505, "leaf_count": 2030}}, "right_child": {"split_index": 22, "split_feature": 3, "split_gain": 175.23500061035156, "threshold": 4.587821657898973, "decision_type": "<=", "default_left": true, "missing_type": "None", "internal_value": 0.097935, "internal_weight": 260.004, "internal_count": 1336, "left_child": {"split_index": 28, "split_feature": 0, "split_gain": 132.61199951171875, "threshold": -15.993377277966912, "decision_type": "<=", "default_left": true, "missing_type": "None", "internal_value": 0.131677, "internal_weight": 155.162, "internal_count": 783, "left_child": {"leaf_index": 22, "leaf_value": 0.014872659804508043, "leaf_weight": 21.0096478164196, "leaf_count": 107}, "right_child": {"leaf_index": 29, "leaf_value": 0.14996944599787648, "leaf_weight": 134.15194462239742, "leaf_count": 676}}, "right_child": {"split_index": 23, "split_feature": 7, "split_gain": 286.6300048828125, "threshold": 0.020988749994171992, "decision_type": "<=", "default_left": true, "missing_type": "None", "internal_value": 0.047999, "internal_weight": 104.842, "internal_count": 553, "left_child": {"leaf_index": 23, "leaf_value": 0.14096940791557272, "leaf_weight": 46.295410841703415, "leaf_count": 229}, "right_child": {"split_index": 24, "split_feature": 7, "split_gain": 143.65899658203125, "threshold": 0.025305972264872658, "decision_type": "<=", "default_left": true, "missing_type": "None", "internal_value": -0.0255168, "internal_weight": 58.5467, "internal_count": 324, "left_child": {"leaf_index": 24, "leaf_value": -0.05388273429981493, "leaf_weight": 51.75779761373997, "leaf_count": 288}, "right_child": {"leaf_index": 25, "leaf_value": 0.19074222764823429, "leaf_weight": 6.788877561688422, "leaf_count": 36}}}}}}}}, "right_child": {"split_index": 13, "split_feature": 5, "split_gain": 184.4080047607422, "threshold": 0.10205973603212252, "decision_type": "<=", "default_left": true, "missing_type": "None", "internal_value": 0.0164144, "internal_weight": 2833.39, "internal_count": 15453, "left_child": {"split_index": 16, "split_feature": 4, "split_gain": 165.10400390625, "threshold": 6.950000000000001, "decision_type": "<=", "default_left": true, "missing_type": "None", "internal_value": 0.0140569, "internal_weight": 2739.81, "internal_count": 14948, "left_child": {"leaf_index": 4, "leaf_value": 0.015996559338551385, "leaf_weight": 2673.052691832185, "leaf_count": 14551}, "right_child": {"leaf_index": 17, "leaf_value": -0.06361313195580767, "leaf_weight": 66.7543176561594, "leaf_count": 397}}, "right_child": {"split_index": 19, "split_feature": 0, "split_gain": 143.7949981689453, "threshold": -15.489184175605592, "decision_type": "<=", "default_left": true, "missing_type": "None", "internal_value": 0.0854324, "internal_weight": 93.5857, "internal_count": 505, "left_child": {"leaf_index": 14, "leaf_value": 0.12723190995408729, "leaf_weight": 64.32667967677116, "leaf_count": 347}, "right_child": {"leaf_index": 20, "leaf_value": -0.0064650419236626806, "leaf_weight": 29.25900699198246, "leaf_count": 158}}}}}, "right_child": {"leaf_index": 2, "leaf_value": -0.06153944559438135, "leaf_weight": 1024.5041289925575, "leaf_count": 6097}}}}, {"tree_index": 3, "num_leaves": 31, "num_cat": 0, "shrinkage": 0.05, "tree_structure": {"split_index": 0, "split_feature": 1, "split_gain": 5303.89990234375, "threshold": 3.5542705621163853, "decision_type": "<=", "default_left": true, "missing_type": "None", "internal_value": 0, "internal_weight": 0, "internal_count": 119392, "left_child": {"split_index": 5, "split_feature": 1, "split_gain": 398.6820068359375, "threshold": 3.466000758983165, "decision_type": "<=", "default_left": true, "missing_type": "None", "internal_value": -0.0443893, "internal_weight": 5137.31, "internal_count": 30722, "left_child": {"leaf_index": 0, "leaf_value": -0.056383340048567626, "leaf_weight": 2949.9669103622437, "leaf_count": 18032}, "right_child": {"split_index": 19, "split_feature": 7, "split_gain": 129.91799926757812, "threshold": 0.06696597225136229, "decision_type": "<=", "default_left": true, "missing_type": "None", "internal_value": -0.0282135, "internal_weight": 2187.35, "internal_count": 12690, "left_child": {"leaf_index": 6, "leaf_value": -0.022620021929732448, "leaf_weight": 1806.6714950799942, "leaf_count": 10409}, "right_child": {"leaf_index": 20, "leaf_value": -0.05476005233470005, "leaf_weight": 380.67430970072746, "leaf_count": 2281}}}, "right_child": {"split_index": 1, "split_feature": 1, "split_gain": 2337.31005859375, "threshold": 4.547178894976054, "decision_type": "<=", "default_left": true, "missing_type": "None", "internal_value": 0.0138687, "internal_weight": 16311.2, "internal_count": 88670, "left_child": {"split_index": 2, "split_feature": 2, "split_gain": 2337.179931640625, "threshold": 0.35000000000000003, "decision_type": "<=", "default_left": true, "missing_type": "None", "internal_value": 0.0186758, "internal_weight": 15322.8, "internal_count": 82573, "left_child": {"split_index": 3, "split_feature": 2, "split_gain": 520.5689697265625, "threshold": 0.15000000000000005, "decision_type": "<=", "default_left": true, "missing_type": "None", "internal_value": 0.00208294, "internal_weight": 8898.15, "internal_count": 49219, "left_child": {"split_index": 11, "split_feature": 5, "split_gain": 202.1750030517578, "threshold": 0.034145491976785076, "decision_type": "<=", "default_left": true, "missing_type": "None", "internal_value": -0.00836637, "internal_weight": 5094.71, "internal_count": 28572, "left_child": {"split_index": 20, "split_feature": 3, "split_gain": 127.32499694824219, "threshold": 1.8529993600385317, "decision_type": "<=", "default_left": true, "missing_type": "None", "internal_value": -0.0129559, "internal_weight": 4202.44, "internal_count": 23686, "left_child": {"split_index": 21, "split_feature": 7, "split_gain": 252.71400451660156, "threshold": 0.07954361114237045, "decision_type": "<=", "default_left": true, "missing_type": "None", "internal_value": -0.0177835, "internal_weight": 3213.64, "internal_count": 18220, "left_child": {"leaf_index": 1, "leaf_value": -0.005312454059881779, "leaf_weight": 1794.2191371023655, "leaf_count": 9991}, "right_child": {"leaf_index": 22, "leaf_value": -0.03354755448755017, "leaf_weight": 1419.4233470857143, "leaf_count": 8229}}, "right_child": {"leaf_index": 21, "leaf_value": 0.0027339546197618836, "leaf_weight": 988.800203487277, "leaf_count": 5466}}, "right_child": {"leaf_index": 12, "leaf_value": 0.013249670286863103, "leaf_weight": 892.2700580209494, "leaf_count": 4886}}, "right_child": {"split_index": 12, "split_feature": 7, "split_gain": 152.3209991455078, "threshold": 0.040680833326445696, "decision_type": "<=", "default_left": true, "missing_type": "None", "internal_value": 0.0160798, "internal_weight": 3803.44, "internal_count": 20647, "left_child": {"split_index": 13, "split_feature": 3, "split_gain": 167.74200439453125, "threshold": 0.27769182424850475, "decision_type": "<=", "default_left": true, "missing_type": "None", "internal_value": 0.0241027, "internal_weight": 2315.09, "internal_count": 12431, "left_child": {"leaf_index": 4, "leaf_value": 0.0031182267529225906, "leaf_weight": 674.7603367865086, "leaf_count": 3794}, "right_child": {"leaf_index": 14, "leaf_value": 0.03273482342331735, "leaf_weight": 1640.3254959136248, "leaf_count": 8637}}, "right_child": {"leaf_index": 13, "leaf_value": 0.0036004441291985338, "leaf_weight": 1488.3509308993816, "leaf_count": 8216}}}, "right_child": {"split_index": 4, "split_feature": 3, "split_gain": 414.7330017089844, "threshold": 0.3034828649138183, "decision_type": "<=", "default_left": true, "missing_type": "None", "internal_value": 0.041657, "internal_weight": 6424.63, "internal_count": 33354, "left_child": {"leaf_index": 3, "leaf_value": -0.0008974983520107104, "leaf_weight": 525.7049002051353, "leaf_count": 2926}, "right_child": {"split_index": 6, "split_feature": 7, "split_gain": 375.385009765625, "threshold": 0.021398611134952974, "decision_type": "<=", "default_left": true, "missing_type": "None", "internal_value": 0.0454494, "internal_weight": 5898.93, "internal_count": 30428, "left_child": {"split_index": 8, "split_feature": 6, "split_gain": 351.5719909667969, "threshold": 0.005834348374100295, "decision_type": "<=", "default_left": true, "missing_type": "None", "internal_value": 0.0551544, "internal_weight": 3705.28, "internal_count": 18777, "left_child": {"split_index": 15, "split_feature": 2, "split_gain": 132.30999755859375, "threshold": 1.1833333333333333, "decision_type": "<=", "default_left": true, "missing_type": "None", "internal_value": -0.023224, "internal_weight": 137.755, "internal_count": 784, "left_child": {"leaf_index": 5, "leaf_value": -0.0463835330908952, "leaf_weight": 112.60251560807228, "leaf_count": 656}, "right_child": {"split_index": 25, "split_feature": 1, "split_gain": 105.26300048828125, "threshold": 4.4997347080006795, "decision_type": "<=", "default_left": true, "missing_type": "None", "internal_value": 0.0804563, "internal_weight": 25.1525, "internal_count": 128, "left_child": {"leaf_index": 16, "leaf_value": 0.151302711575503, "leaf_weight": 16.99796682596207, "leaf_count": 85}, "right_child": {"leaf_index": 26, "leaf_value": -0.06722128498732836, "leaf_weight": 8.1545612514019, "leaf_count": 43}}}, "right_child": {"split_index": 14, "split_feature": 5, "split_gain": 137.44200134277344, "threshold": -0.12012364956693551, "decision_type": "<=", "default_left": true, "missing_type": "None", "internal_value": 0.0581809, "internal_weight": 3567.52, "internal_count": 17993, "left_child": {"split_index": 26, "split_feature": 6, "split_gain": 103.47699737548828, "threshold": 0.06707883840860597, "decision_type": "<=", "default_left": true, "missing_type": "None", "internal_value": 0.0923954, "internal_weight": 271.207, "internal_count": 1306, "left_child": {"split_index": 27, "split_feature": 1, "split_gain": 116.36199951171875, "threshold": 3.920933602755866, "decision_type": "<=", "default_left": true, "missing_type": "None", "internal_value": 0.0986884, "internal_weight": 260.396, "internal_count": 1251, "left_child": {"leaf_index": 9, "leaf_value": 0.12197573048076045, "leaf_weight": 175.30039632320404, "leaf_count": 841}, "right_child": {"split_index": 28, "split_feature": 3, "split_gain": 101.22699737548828, "threshold": 1.3560317505872117, "decision_type": "<=", "default_left": true, "missing_type": "None", "internal_value": 0.0507153, "internal_weight": 85.0954, "internal_count": 410, "left_child": {"leaf_index": 28, "leaf_value": -0.020140932642518268, "leaf_weight": 31.655093669891357, "leaf_count": 153}, "right_child": {"leaf_index": 29, "leaf_value": 0.09268662742300737, "leaf_weight": 53.44026397168636, "leaf_count": 257}}}, "right_child": {"leaf_index": 27, "leaf_value": -0.059179661472943526, "leaf_weight": 10.810897231101988, "leaf_count": 55}}, "right_child": {"split_index": 22, "split_feature": 7, "split_gain": 114.90699768066406, "threshold": 0.004515555567211576, "decision_type": "<=", "default_left": true, "missing_type": "None", "internal_value": 0.0553659, "internal_weight": 3296.32, "internal_count": 16687, "left_child": {"split_index": 23, "split_feature": 1, "split_gain": 223.26300048828125, "threshold": 3.826279902831462, "decision_type": "<=", "default_left": true, "missing_type": "None", "internal_value": 0.0668034, "internal_weight": 1317.95, "internal_count": 6593, "left_child": {"leaf_index": 15, "leaf_value": 0.041646068232482375, "leaf_weight": 528.3611626476049, "leaf_count": 2714}, "right_child": {"leaf_index": 24, "leaf_value": 0.08363755934081196, "leaf_weight": 789.5934690982103, "leaf_count": 3879}}, "right_child": {"split_index": 29, "split_feature": 1, "split_gain": 99.79560089111328, "threshold": 3.993008045097874, "decision_type": "<=", "default_left": true, "missing_type": "None", "internal_value": 0.0477464, "internal_weight": 1978.36, "internal_count": 10094, "left_child": {"leaf_index": 23, "leaf_value": 0.06225515890475761, "leaf_weight": 741.1724094301462, "leaf_count": 3722}, "right_child": {"leaf_index": 30, "leaf_value": 0.039054472322519795, "leaf_weight": 1237.1895888000727, "leaf_count": 6372}}}}}, "right_child": {"split_index": 7, "split_feature": 6, "split_gain": 400.6650085449219, "threshold": 0.0018829545010841506, "decision_type": "<=", "default_left": true, "missing_type": "None", "internal_value": 0.0290568, "internal_weight": 2193.65, "internal_count": 11651, "left_child": {"split_index": 9, "split_feature": 3, "split_gain": 288.2929992675781, "threshold": 2.235590292270537, "decision_type": "<=", "default_left": true, "missing_type": "None", "internal_value": 0.116319, "internal_weight": 124.101, "internal_count": 594, "left_child": {"leaf_index": 7, "leaf_value": -0.04467852652859044, "leaf_weight": 22.71603098511696, "leaf_count": 131}, "right_child": {"leaf_index": 10, "leaf_value": 0.15239188582347798, "leaf_weight": 101.38504093885422, "leaf_count": 463}}, "right_child": {"split_index": 10, "split_feature": 2, "split_gain": 244.4219970703125, "threshold": 2.4500000000000006, "decision_type": "<=", "default_left": true, "missing_type": "None", "internal_value": 0.0238241, "internal_weight": 2069.55, "internal_count": 11057, "left_child": {"split_index": 16, "split_feature": 2, "split_gain": 129.97300720214844, "threshold": 0.7166666666666667, "decision_type": "<=", "default_left": true, "missing_type": "None", "internal_value": 0.0272791, "internal_weight": 1989.13, "internal_count": 10563, "left_child": {"split_index": 18, "split_feature": 3, "split_gain": 204.20199584960938, "threshold": 3.984279783055202, "decision_type": "<=", "default_left": true, "missing_type": "None", "internal_value": 0.0171952, "internal_weight": 1225.98, "internal_count": 6567, "left_child": {"split_index": 24, "split_feature": 6, "split_gain": 114.04199981689453, "threshold": 0.011373766593563808, "decision_type": "<=", "default_left": true, "missing_type": "None", "internal_value": 0.0274353, "internal_weight": 979.357, "internal_count": 5207, "left_child": {"leaf_index": 8, "leaf_value": -0.003294155395164178, "leaf_weight": 230.7764329612255, "leaf_count": 1236}, "right_child": {"leaf_index": 25, "leaf_value": 0.0369087667151627, "leaf_weight": 748.5807426422834, "leaf_count": 3971}}, "right_child": {"leaf_index": 19, "leaf_value": -0.023468806668704958, "leaf_weight": 246.6243895292282, "leaf_count": 1360}}, "right_child": {"split_index": 17, "split_feature": 4, "split_gain": 339.88800048828125, "threshold": 1.1500000000000001, "decision_type": "<=", "default_left": true, "missing_type": "None", "internal_value": 0.0434786, "internal_weight": 763.15, "internal_count": 3996, "left_child": {"leaf_index": 17, "leaf_value": 0.16726958762903732, "leaf_weight": 51.69355048239231, "leaf_count": 255}, "right_child": {"leaf_index": 18, "leaf_value": 0.03448409929747664, "leaf_weight": 711.4563502818346, "leaf_count": 3741}}}, "right_child": {"leaf_index": 11, "leaf_value": -0.06163444565304114, "leaf_weight": 80.41855682432652, "leaf_count": 494}}}}}}, "right_child": {"leaf_index": 2, "leaf_value": -0.06065353647472041, "leaf_weight": 988.4103863984346, "leaf_count": 6097}}}}, {"tree_index": 4, "num_leaves": 31, "num_cat": 0, "shrinkage": 0.05, "tree_structure": {"split_index": 0, "split_feature": 0, "split_gain": 4879.7001953125, "threshold": -17.144391141778083, "decision_type": "<=", "default_left": true, "missing_type": "None", "internal_value": 0, "internal_weight": 0, "internal_count": 119392, "left_child": {"split_index": 4, "split_feature": 0, "split_gain": 390.2120056152344, "threshold": -17.326366998274164, "decision_type": "<=", "default_left": true, "missing_type": "None", "internal_value": -0.0433176, "internal_weight": 5005.05, "internal_count": 30722, "left_child": {"leaf_index": 0, "leaf_value": -0.05544620436777669, "leaf_weight": 2852.3189277648926, "leaf_count": 18032}, "right_child": {"split_index": 23, "split_feature": 7, "split_gain": 125.09300231933594, "threshold": 0.06696597225136229, "decision_type": "<=", "default_left": true, "missing_type": "None", "internal_value": -0.0272474, "internal_weight": 2152.73, "internal_count": 12690, "left_child": {"leaf_index": 5, "leaf_value": -0.021768420652682058, "leaf_weight": 1784.0698061287403, "leaf_count": 10409}, "right_child": {"leaf_index": 24, "leaf_value": -0.05376196144690079, "leaf_weight": 368.6604256629944, "leaf_count": 2281}}}, "right_child": {"split_index": 1, "split_feature": 0, "split_gain": 2151.199951171875, "threshold": -15.121867412276591, "decision_type": "<=", "default_left": true, "missing_type": "None", "internal_value": 0.013086, "internal_weight": 16397.4, "internal_count": 88670, "left_child": {"split_index": 2, "split_feature": 2, "split_gain": 2068.669921875, "threshold": 0.18333333333333338, "decision_type": "<=", "default_left": true, "missing_type": "None", "internal_value": 0.0175845, "internal_weight": 15444.4, "internal_count": 82573, "left_child": {"split_index": 12, "split_feature": 5, "split_gain": 206.75, "threshold": 0.030803940026072348, "decision_type": "<=", "default_left": true, "missing_type": "None", "internal_value": -0.00557536, "internal_weight": 5936, "internal_count": 33321, "left_child": {"split_index": 19, "split_feature": 7, "split_gain": 142.73500061035156, "threshold": 0.10646180553568736, "decision_type": "<=", "default_left": true, "missing_type": "None", "internal_value": -0.0104705, "internal_weight": 4654.96, "internal_count": 26342, "left_child": {"split_index": 28, "split_feature": 6, "split_gain": 105.57599639892578, "threshold": 0.0073367623315157586, "decision_type": "<=", "default_left": true, "missing_type": "None", "internal_value": -0.00288247, "internal_weight": 2658.28, "internal_count": 14783, "left_child": {"leaf_index": 1, "leaf_value": -0.025860760492836234, "leaf_weight": 420.76010286808014, "leaf_count": 2387}, "right_child": {"leaf_index": 29, "leaf_value": 0.001438545753803146, "leaf_weight": 2237.5180393606424, "leaf_count": 12396}}, "right_child": {"split_index": 20, "split_feature": 0, "split_gain": 201.46200561523438, "threshold": -15.968938323635703, "decision_type": "<=", "default_left": true, "missing_type": "None", "internal_value": -0.0205729, "internal_weight": 1996.68, "internal_count": 11559, "left_child": {"leaf_index": 20, "leaf_value": -0.029497411310994016, "leaf_weight": 1517.5236076563597, "leaf_count": 8931}, "right_child": {"split_index": 21, "split_feature": 7, "split_gain": 140.34500122070312, "threshold": 0.4724036111434301, "decision_type": "<=", "default_left": true, "missing_type": "None", "internal_value": 0.00769155, "internal_weight": 479.157, "internal_count": 2628, "left_child": {"leaf_index": 21, "leaf_value": 0.021744547999918467, "leaf_weight": 377.3779281973839, "leaf_count": 2034}, "right_child": {"split_index": 22, "split_feature": 3, "split_gain": 125.34700012207031, "threshold": 2.805569497817022, "decision_type": "<=", "default_left": true, "missing_type": "None", "internal_value": -0.0444146, "internal_weight": 101.779, "internal_count": 594, "left_child": {"leaf_index": 22, "leaf_value": 0.1620862138145578, "leaf_weight": 6.853813633322715, "leaf_count": 40}, "right_child": {"leaf_index": 23, "leaf_value": -0.05932450884046783, "leaf_weight": 94.92477332055569, "leaf_count": 554}}}}}, "right_child": {"leaf_index": 13, "leaf_value": 0.012212432326736987, "leaf_weight": 1281.0405996888876, "leaf_count": 6979}}, "right_child": {"split_index": 3, "split_feature": 2, "split_gain": 553.0490112304688, "threshold": 0.4833333333333334, "decision_type": "<=", "default_left": true, "missing_type": "None", "internal_value": 0.032043, "internal_weight": 9508.43, "internal_count": 49252, "left_child": {"split_index": 6, "split_feature": 6, "split_gain": 309.38800048828125, "threshold": 0.009269321425085882, "decision_type": "<=", "default_left": true, "missing_type": "None", "internal_value": 0.019488, "internal_weight": 4562.53, "internal_count": 24218, "left_child": {"leaf_index": 3, "leaf_value": -0.025190948719659795, "leaf_weight": 357.14015206694603, "leaf_count": 1984}, "right_child": {"split_index": 9, "split_feature": 7, "split_gain": 259.08099365234375, "threshold": 0.040680833326445696, "decision_type": "<=", "default_left": true, "missing_type": "None", "internal_value": 0.0232823, "internal_weight": 4205.39, "internal_count": 22234, "left_child": {"split_index": 13, "split_feature": 3, "split_gain": 189.56900024414062, "threshold": 0.4005184020754066, "decision_type": "<=", "default_left": true, "missing_type": "None", "internal_value": 0.0318051, "internal_weight": 2857.65, "internal_count": 14879, "left_child": {"leaf_index": 7, "leaf_value": 0.013724541186418804, "leaf_weight": 961.7893678843975, "leaf_count": 5251}, "right_child": {"leaf_index": 14, "leaf_value": 0.04097755897574027, "leaf_weight": 1895.8635735809803, "leaf_count": 9628}}, "right_child": {"leaf_index": 10, "leaf_value": 0.005211137428723651, "leaf_weight": 1347.7389657348394, "leaf_count": 7355}}}, "right_child": {"split_index": 5, "split_feature": 4, "split_gain": 380.9800109863281, "threshold": 0.8500000000000002, "decision_type": "<=", "default_left": true, "missing_type": "None", "internal_value": 0.0436248, "internal_weight": 4945.9, "internal_count": 25034, "left_child": {"split_index": 11, "split_feature": 3, "split_gain": 246.0070037841797, "threshold": 2.1995959544469454, "decision_type": "<=", "default_left": true, "missing_type": "None", "internal_value": 0.112103, "internal_weight": 195.102, "internal_count": 906, "left_child": {"leaf_index": 4, "leaf_value": -0.013292673277903939, "leaf_weight": 32.58148746192455, "leaf_count": 173}, "right_child": {"leaf_index": 12, "leaf_value": 0.1372415664209723, "leaf_weight": 162.52072370052338, "leaf_count": 733}}, "right_child": {"split_index": 7, "split_feature": 7, "split_gain": 293.3240051269531, "threshold": 0.028752916687064704, "decision_type": "<=", "default_left": true, "missing_type": "None", "internal_value": 0.0408126, "internal_weight": 4750.8, "internal_count": 24128, "left_child": {"split_index": 8, "split_feature": 3, "split_gain": 294.26300048828125, "threshold": 0.3034828649138183, "decision_type": "<=", "default_left": true, "missing_type": "None", "internal_value": 0.0473876, "internal_weight": 3711.36, "internal_count": 18588, "left_child": {"leaf_index": 6, "leaf_value": -0.002645130369982653, "leaf_weight": 272.31502747535706, "leaf_count": 1513}, "right_child": {"split_index": 10, "split_feature": 6, "split_gain": 249.7760009765625, "threshold": 0.005509832583747235, "decision_type": "<=", "default_left": true, "missing_type": "None", "internal_value": 0.0513494, "internal_weight": 3439.04, "internal_count": 17075, "left_child": {"split_index": 29, "split_feature": 2, "split_gain": 105.3219985961914, "threshold": 1.1833333333333333, "decision_type": "<=", "default_left": true, "missing_type": "None", "internal_value": -0.0187514, "internal_weight": 122.543, "internal_count": 708, "left_child": {"leaf_index": 9, "leaf_value": -0.0420203214498302, "leaf_weight": 97.87854479253292, "leaf_count": 586}, "right_child": {"leaf_index": 30, "leaf_value": 0.07358951919214492, "leaf_weight": 24.66439637541771, "leaf_count": 122}}, "right_child": {"split_index": 16, "split_feature": 0, "split_gain": 156.75999450683594, "threshold": -16.20250571991481, "decision_type": "<=", "default_left": true, "missing_type": "None", "internal_value": 0.0539395, "internal_weight": 3316.5, "internal_count": 16367, "left_child": {"split_index": 24, "split_feature": 5, "split_gain": 124.4469985961914, "threshold": -0.2412010990559946, "decision_type": "<=", "default_left": true, "missing_type": "None", "internal_value": 0.0651419, "internal_weight": 1608.39, "internal_count": 7796, "left_child": {"leaf_index": 11, "leaf_value": 0.1189937337320822, "leaf_weight": 100.57308721542358, "leaf_count": 462}, "right_child": {"leaf_index": 25, "leaf_value": 0.06154994192337441, "leaf_weight": 1507.8138263821602, "leaf_count": 7334}}, "right_child": {"split_index": 17, "split_feature": 4, "split_gain": 183.82400512695312, "threshold": 2.85, "decision_type": "<=", "default_left": true, "missing_type": "None", "internal_value": 0.0433912, "internal_weight": 1708.11, "internal_count": 8571, "left_child": {"leaf_index": 17, "leaf_value": 0.02632980291677786, "leaf_weight": 820.4436104744673, "leaf_count": 4225}, "right_child": {"split_index": 25, "split_feature": 6, "split_gain": 121.9530029296875, "threshold": 0.01766539400449278, "decision_type": "<=", "default_left": true, "missing_type": "None", "internal_value": 0.0591605, "internal_weight": 887.671, "internal_count": 4346, "left_child": {"split_index": 26, "split_feature": 4, "split_gain": 144.78599548339844, "threshold": 6.050000000000001, "decision_type": "<=", "default_left": true, "missing_type": "None", "internal_value": 0.0728451, "internal_weight": 574.456, "internal_count": 2807, "left_child": {"leaf_index": 18, "leaf_value": 0.08125775806537937, "leaf_weight": 516.4485047608614, "leaf_count": 2503}, "right_child": {"leaf_index": 27, "leaf_value": -0.0020540406900647636, "leaf_weight": 58.00743654370308, "leaf_count": 304}}, "right_child": {"leaf_index": 26, "leaf_value": 0.034061993026705026, "leaf_weight": 313.2154026776552, "leaf_count": 1539}}}}}}, "right_child": {"split_index": 14, "split_feature": 7, "split_gain": 182.1179962158203, "threshold": 0.043174722227785324, "decision_type": "<=", "default_left": true, "missing_type": "None", "internal_value": 0.0173364, "internal_weight": 1039.44, "internal_count": 5540, "left_child": {"split_index": 18, "split_feature": 4, "split_gain": 145.68099975585938, "threshold": 2.4500000000000006, "decision_type": "<=", "default_left": true, "missing_type": "None", "internal_value": -0.00868911, "internal_weight": 408.208, "internal_count": 2219, "left_child": {"leaf_index": 8, "leaf_value": 0.020462156146754854, "leaf_weight": 209.07239079475403, "leaf_count": 1104}, "right_child": {"split_index": 27, "split_feature": 3, "split_gain": 109.0979995727539, "threshold": 6.565038595235846, "decision_type": "<=", "default_left": true, "missing_type": "None", "internal_value": -0.0392949, "internal_weight": 199.136, "internal_count": 1115, "left_child": {"leaf_index": 19, "leaf_value": -0.0474209724482182, "leaf_weight": 189.97694185376167, "leaf_count": 1067}, "right_child": {"leaf_index": 28, "leaf_value": 0.12925426123170305, "leaf_weight": 9.159105151891707, "leaf_count": 48}}}, "right_child": {"split_index": 15, "split_feature": 5, "split_gain": 158.3939971923828, "threshold": 0.09175230914272746, "decision_type": "<=", "default_left": true, "missing_type": "None", "internal_value": 0.0341668, "internal_weight": 631.23, "internal_count": 3321, "left_child": {"leaf_index": 15, "leaf_value": 0.027238699778685746, "leaf_weight": 586.3645487874746, "leaf_count": 3090}, "right_child": {"leaf_index": 16, "leaf_value": 0.12471376713871418, "leaf_weight": 44.86526866257191, "leaf_count": 231}}}}}}}, "right_child": {"leaf_index": 2, "leaf_value": -0.0598224406187073, "leaf_weight": 952.9348942488432, "leaf_count": 6097}}}}, {"tree_index": 5, "num_leaves": 31, "num_cat": 0, "shrinkage": 0.05, "tree_structure": {"split_index": 0, "split_feature": 0, "split_gain": 4491.68994140625, "threshold": -17.144391141778083, "decision_type": "<=", "default_left": true, "missing_type": "None", "internal_value": 0, "internal_weight": 0, "internal_count": 119392, "left_child": {"split_index": 4, "split_feature": 0, "split_gain": 382.2200012207031, "threshold": -17.326366998274164, "decision_type": "<=", "default_left": true, "missing_type": "None", "internal_value": -0.0422743, "internal_weight": 4875.93, "internal_count": 30722, "left_child": {"leaf_index": 0, "leaf_value": -0.054548233979656205, "leaf_weight": 2756.74126124382, "leaf_count": 18032}, "right_child": {"leaf_index": 5, "leaf_value": -0.026307738649488033, "leaf_weight": 2119.191785186529, "leaf_count": 12690}}, "right_child": {"split_index": 1, "split_feature": 0, "split_gain": 1982.800048828125, "threshold": -15.121867412276591, "decision_type": "<=", "default_left": true, "missing_type": "None", "internal_value": 0.0123589, "internal_weight": 16470.1, "internal_count": 88670, "left_child": {"split_index": 2, "split_feature": 2, "split_gain": 1830.8699951171875, "threshold": 0.18333333333333338, "decision_type": "<=", "default_left": true, "missing_type": "None", "internal_value": 0.0165742, "internal_weight": 15552, "internal_count": 82573, "left_child": {"split_index": 10, "split_feature": 3, "split_gain": 199.7449951171875, "threshold": 0.44586271793094284, "decision_type": "<=", "default_left": true, "missing_type": "None", "internal_value": -0.00532022, "internal_weight": 5916.12, "internal_count": 33321, "left_child": {"split_index": 24, "split_feature": 0, "split_gain": 80.85399627685547, "threshold": -16.764805861020182, "decision_type": "<=", "default_left": true, "missing_type": "None", "internal_value": -0.0181961, "internal_weight": 1995.9, "internal_count": 11452, "left_child": {"split_index": 25, "split_feature": 4, "split_gain": 81.2781982421875, "threshold": 0.15000000000000005, "decision_type": "<=", "default_left": true, "missing_type": "None", "internal_value": -0.0141284, "internal_weight": 1715.6, "internal_count": 9816, "left_child": {"leaf_index": 1, "leaf_value": -0.030977338011328605, "leaf_weight": 505.05044485628605, "leaf_count": 2939}, "right_child": {"leaf_index": 26, "leaf_value": -0.007098887177844237, "leaf_weight": 1210.5538673847914, "leaf_count": 6877}}, "right_child": {"leaf_index": 25, "leaf_value": -0.04309350354716232, "leaf_weight": 280.2925027757883, "leaf_count": 1636}}, "right_child": {"split_index": 14, "split_feature": 5, "split_gain": 155.6219940185547, "threshold": 0.030803940026072348, "decision_type": "<=", "default_left": true, "missing_type": "None", "internal_value": 0.00123525, "internal_weight": 3920.22, "internal_count": 21869, "left_child": {"split_index": 26, "split_feature": 0, "split_gain": 77.91470336914062, "threshold": -15.792869920118953, "decision_type": "<=", "default_left": true, "missing_type": "None", "internal_value": -0.00421893, "internal_weight": 3016.13, "internal_count": 17016, "left_child": {"leaf_index": 11, "leaf_value": -0.00754830500573918, "leaf_weight": 2574.284770190716, "leaf_count": 14612}, "right_child": {"split_index": 27, "split_feature": 3, "split_gain": 105.8010025024414, "threshold": 4.105626392385607, "decision_type": "<=", "default_left": true, "missing_type": "None", "internal_value": 0.0151786, "internal_weight": 441.848, "internal_count": 2404, "left_child": {"leaf_index": 27, "leaf_value": 0.0473830424265451, "leaf_weight": 161.70051436126232, "leaf_count": 856}, "right_child": {"leaf_index": 28, "leaf_value": -0.003409745116017756, "leaf_weight": 280.1470227241516, "leaf_count": 1548}}}, "right_child": {"leaf_index": 15, "leaf_value": 0.01943102003277547, "leaf_weight": 904.0859384089708, "leaf_count": 4853}}}, "right_child": {"split_index": 3, "split_feature": 2, "split_gain": 480.7980041503906, "threshold": 0.4833333333333334, "decision_type": "<=", "default_left": true, "missing_type": "None", "internal_value": 0.0300167, "internal_weight": 9635.86, "internal_count": 49252, "left_child": {"split_index": 13, "split_feature": 0, "split_gain": 177.6199951171875, "threshold": -15.62309723869315, "decision_type": "<=", "default_left": true, "missing_type": "None", "internal_value": 0.0183394, "internal_weight": 4603.57, "internal_count": 24218, "left_child": {"split_index": 15, "split_feature": 5, "split_gain": 131.44000244140625, "threshold": 0.0830230556444934, "decision_type": "<=", "default_left": true, "missing_type": "None", "internal_value": 0.0212251, "internal_weight": 4237.73, "internal_count": 22224, "left_child": {"split_index": 23, "split_feature": 3, "split_gain": 90.84970092773438, "threshold": 0.2626824912134262, "decision_type": "<=", "default_left": true, "missing_type": "None", "internal_value": 0.0173654, "internal_weight": 3554.8, "internal_count": 18818, "left_child": {"leaf_index": 3, "leaf_value": 0.0011611295384912, "leaf_weight": 695.6957555413246, "leaf_count": 3886}, "right_child": {"leaf_index": 24, "leaf_value": 0.021308324600260924, "leaf_weight": 2859.102585449815, "leaf_count": 14932}}, "right_child": {"leaf_index": 16, "leaf_value": 0.04131528323701264, "leaf_weight": 682.9344215244055, "leaf_count": 3406}}, "right_child": {"leaf_index": 14, "leaf_value": -0.01508716846837918, "leaf_weight": 365.8365191370249, "leaf_count": 1994}}, "right_child": {"split_index": 5, "split_feature": 4, "split_gain": 325.5610046386719, "threshold": 0.8500000000000002, "decision_type": "<=", "default_left": true, "missing_type": "None", "internal_value": 0.0406991, "internal_weight": 5032.29, "internal_count": 25034, "left_child": {"split_index": 9, "split_feature": 3, "split_gain": 206.3520050048828, "threshold": 2.1995959544469454, "decision_type": "<=", "default_left": true, "missing_type": "None", "internal_value": 0.102955, "internal_weight": 201.586, "internal_count": 906, "left_child": {"leaf_index": 4, "leaf_value": -0.01271377274815467, "leaf_weight": 32.36737605929375, "leaf_count": 173}, "right_child": {"leaf_index": 10, "leaf_value": 0.12507920056719432, "leaf_weight": 169.21868884563446, "leaf_count": 733}}, "right_child": {"split_index": 6, "split_feature": 4, "split_gain": 263.08099365234375, "threshold": 6.950000000000001, "decision_type": "<=", "default_left": true, "missing_type": "None", "internal_value": 0.0381012, "internal_weight": 4830.71, "internal_count": 24128, "left_child": {"split_index": 7, "split_feature": 3, "split_gain": 265.4620056152344, "threshold": 0.31225981830288, "decision_type": "<=", "default_left": true, "missing_type": "None", "internal_value": 0.0396911, "internal_weight": 4742.65, "internal_count": 23581, "left_child": {"leaf_index": 6, "leaf_value": -0.005043304971749461, "leaf_weight": 309.9602626860142, "leaf_count": 1719}, "right_child": {"split_index": 8, "split_feature": 0, "split_gain": 207.59500122070312, "threshold": -16.106317884972785, "decision_type": "<=", "default_left": true, "missing_type": "None", "internal_value": 0.0428192, "internal_weight": 4432.69, "internal_count": 21862, "left_child": {"split_index": 18, "split_feature": 4, "split_gain": 96.47200012207031, "threshold": 2.150000000000001, "decision_type": "<=", "default_left": true, "missing_type": "None", "internal_value": 0.0538378, "internal_weight": 2176.13, "internal_count": 10446, "left_child": {"leaf_index": 8, "leaf_value": 0.04456459007624589, "leaf_weight": 1225.374772503972, "leaf_count": 5927}, "right_child": {"split_index": 19, "split_feature": 4, "split_gain": 120.36000061035156, "threshold": 5.050000000000001, "decision_type": "<=", "default_left": true, "missing_type": "None", "internal_value": 0.0657894, "internal_weight": 950.76, "internal_count": 4519, "left_child": {"leaf_index": 19, "leaf_value": 0.06977927400399327, "leaf_weight": 905.2266230881214, "leaf_count": 4297}, "right_child": {"leaf_index": 20, "leaf_value": -0.013532295277250387, "leaf_weight": 45.53292264044285, "leaf_count": 222}}}, "right_child": {"split_index": 11, "split_feature": 2, "split_gain": 182.53700256347656, "threshold": 1.2500000000000002, "decision_type": "<=", "default_left": true, "missing_type": "None", "internal_value": 0.0321933, "internal_weight": 2256.56, "internal_count": 11416, "left_child": {"split_index": 12, "split_feature": 3, "split_gain": 179.4029998779297, "threshold": 4.340150439079894, "decision_type": "<=", "default_left": true, "missing_type": "None", "internal_value": 0.0220597, "internal_weight": 1496.6, "internal_count": 7742, "left_child": {"split_index": 20, "split_feature": 3, "split_gain": 93.00920104980469, "threshold": 2.5454071066610724, "decision_type": "<=", "default_left": true, "missing_type": "None", "internal_value": 0.0334533, "internal_weight": 1044.26, "internal_count": 5302, "left_child": {"leaf_index": 9, "leaf_value": 0.015861454358597437, "leaf_weight": 436.9589202105999, "leaf_count": 2217}, "right_child": {"split_index": 21, "split_feature": 0, "split_gain": 93.63020324707031, "threshold": -15.39789960608009, "decision_type": "<=", "default_left": true, "missing_type": "None", "internal_value": 0.0461107, "internal_weight": 607.301, "internal_count": 3085, "left_child": {"leaf_index": 21, "leaf_value": 0.049598722721775707, "leaf_weight": 588.7185333520174, "leaf_count": 2987}, "right_child": {"leaf_index": 22, "leaf_value": -0.06439286899424078, "leaf_weight": 18.582605212926865, "leaf_count": 98}}}, "right_child": {"leaf_index": 13, "leaf_value": -0.0042433415393983345, "leaf_weight": 452.33764116466045, "leaf_count": 2440}}, "right_child": {"split_index": 16, "split_feature": 0, "split_gain": 125.40299987792969, "threshold": -15.66600280788809, "decision_type": "<=", "default_left": true, "missing_type": "None", "internal_value": 0.0521496, "internal_weight": 759.96, "internal_count": 3674, "left_child": {"split_index": 22, "split_feature": 5, "split_gain": 91.33789825439453, "threshold": 0.16385178691072333, "decision_type": "<=", "default_left": true, "missing_type": "None", "internal_value": 0.0299731, "internal_weight": 346.673, "internal_count": 1681, "left_child": {"split_index": 29, "split_feature": 4, "split_gain": 69.21150207519531, "threshold": 4.250000000000001, "decision_type": "<=", "default_left": true, "missing_type": "None", "internal_value": 0.015375, "internal_weight": 261.93, "internal_count": 1288, "left_child": {"leaf_index": 12, "leaf_value": 0.044066101730364717, "leaf_weight": 116.61419539153576, "leaf_count": 570}, "right_child": {"leaf_index": 30, "leaf_value": -0.007649279252776509, "leaf_weight": 145.31583093106747, "leaf_count": 718}}, "right_child": {"leaf_index": 23, "leaf_value": 0.07509365355269222, "leaf_weight": 84.74341617524624, "leaf_count": 393}}, "right_child": {"split_index": 17, "split_feature": 0, "split_gain": 97.27690124511719, "threshold": -15.255523469035586, "decision_type": "<=", "default_left": true, "missing_type": "None", "internal_value": 0.0707518, "internal_weight": 413.287, "internal_count": 1993, "left_child": {"split_index": 28, "split_feature": 3, "split_gain": 72.4354019165039, "threshold": 3.8759113166673815, "decision_type": "<=", "default_left": true, "missing_type": "None", "internal_value": 0.082277, "internal_weight": 337.174, "internal_count": 1612, "left_child": {"leaf_index": 17, "leaf_value": 0.03788500057776105, "leaf_weight": 72.21218682825565, "leaf_count": 348}, "right_child": {"leaf_index": 29, "leaf_value": 0.09437553047265163, "leaf_weight": 264.9621338248253, "leaf_count": 1264}}, "right_child": {"leaf_index": 18, "leaf_value": 0.019695493442888918, "leaf_weight": 76.11218185722828, "leaf_count": 381}}}}}}, "right_child": {"leaf_index": 7, "leaf_value": -0.047532224246424115, "leaf_weight": 88.05483791232109, "leaf_count": 547}}}}}, "right_child": {"leaf_index": 2, "leaf_value": -0.05904062444697873, "leaf_weight": 918.1579660475254, "leaf_count": 6097}}}}, {"tree_index": 6, "num_leaves": 31, "num_cat": 0, "shrinkage": 0.05, "tree_structure": {"split_index": 0, "split_feature": 0, "split_gain": 4140.68994140625, "threshold": -17.15779821661059, "decision_type": "<=", "default_left": true, "missing_type": "None", "internal_value": 0, "internal_weight": 0, "internal_count": 119392, "left_child": {"split_index": 5, "split_feature": 0, "split_gain": 339.7250061035156, "threshold": -17.35287625693711, "decision_type": "<=", "default_left": true, "missing_type": "None", "internal_value": -0.0421619, "internal_weight": 4595.13, "internal_count": 29782, "left_child": {"leaf_index": 0, "leaf_value": -0.055245137784696155, "leaf_weight": 2385.7095569372177, "leaf_count": 16152}, "right_child": {"split_index": 18, "split_feature": 7, "split_gain": 113.7490005493164, "threshold": 0.07954361114237045, "decision_type": "<=", "default_left": true, "missing_type": "None", "internal_value": -0.0280347, "internal_weight": 2209.42, "internal_count": 13630, "left_child": {"leaf_index": 6, "leaf_value": -0.023242682289949305, "leaf_weight": 1874.9012426137924, "leaf_count": 11443}, "right_child": {"leaf_index": 19, "leaf_value": -0.054893510635406845, "leaf_weight": 334.51452754437923, "leaf_count": 2187}}}, "right_child": {"split_index": 1, "split_feature": 0, "split_gain": 1816.3900146484375, "threshold": -15.121867412276591, "decision_type": "<=", "default_left": true, "missing_type": "None", "internal_value": 0.0114386, "internal_weight": 16689.5, "internal_count": 89610, "left_child": {"split_index": 2, "split_feature": 4, "split_gain": 1449.969970703125, "threshold": 0.5500000000000002, "decision_type": "<=", "default_left": true, "missing_type": "None", "internal_value": 0.01534, "internal_weight": 15805.3, "internal_count": 83513, "left_child": {"split_index": 7, "split_feature": 7, "split_gain": 296.4729919433594, "threshold": 0.11109930555025736, "decision_type": "<=", "default_left": true, "missing_type": "None", "internal_value": -0.00288057, "internal_weight": 6457.68, "internal_count": 36274, "left_child": {"split_index": 8, "split_feature": 0, "split_gain": 245.4669952392578, "threshold": -15.929429117630436, "decision_type": "<=", "default_left": true, "missing_type": "None", "internal_value": 0.00516335, "internal_weight": 4129.61, "internal_count": 22714, "left_child": {"split_index": 20, "split_feature": 6, "split_gain": 108.9010009765625, "threshold": 0.010297764347835208, "decision_type": "<=", "default_left": true, "missing_type": "None", "internal_value": 0.0012394, "internal_weight": 3741.89, "internal_count": 20797, "left_child": {"leaf_index": 1, "leaf_value": -0.019052758879542494, "leaf_weight": 561.8922717869282, "leaf_count": 3248}, "right_child": {"split_index": 21, "split_feature": 0, "split_gain": 110.70099639892578, "threshold": -16.9214157868651, "decision_type": "<=", "default_left": true, "missing_type": "None", "internal_value": 0.00482494, "internal_weight": 3180, "internal_count": 17549, "left_child": {"leaf_index": 21, "leaf_value": -0.007288491935969548, "leaf_weight": 1183.8961483091116, "leaf_count": 6699}, "right_child": {"leaf_index": 22, "leaf_value": 0.01200946316054648, "leaf_weight": 1996.1025467962027, "leaf_count": 10850}}}, "right_child": {"split_index": 9, "split_feature": 6, "split_gain": 272.83599853515625, "threshold": 0.003183433106598003, "decision_type": "<=", "default_left": true, "missing_type": "None", "internal_value": 0.0430339, "internal_weight": 387.715, "internal_count": 1917, "left_child": {"leaf_index": 9, "leaf_value": 0.10454076377095463, "leaf_weight": 123.06859715282917, "leaf_count": 533}, "right_child": {"leaf_index": 10, "leaf_value": 0.014431302170514563, "leaf_weight": 264.64648796617985, "leaf_count": 1384}}}, "right_child": {"split_index": 10, "split_feature": 0, "split_gain": 184.04100036621094, "threshold": -15.981375178148747, "decision_type": "<=", "default_left": true, "missing_type": "None", "internal_value": -0.0171491, "internal_weight": 2328.07, "internal_count": 13560, "left_child": {"leaf_index": 8, "leaf_value": -0.025289205447635577, "leaf_weight": 1743.5183311402798, "leaf_count": 10375}, "right_child": {"split_index": 11, "split_feature": 7, "split_gain": 155.4219970703125, "threshold": 0.4724036111434301, "decision_type": "<=", "default_left": true, "missing_type": "None", "internal_value": 0.00712991, "internal_weight": 584.551, "internal_count": 3185, "left_child": {"leaf_index": 11, "leaf_value": 0.020476902116021913, "leaf_weight": 461.00183968245983, "leaf_count": 2452}, "right_child": {"split_index": 23, "split_feature": 0, "split_gain": 103.99099731445312, "threshold": -15.88954087399416, "decision_type": "<=", "default_left": true, "missing_type": "None", "internal_value": -0.0426721, "internal_weight": 123.549, "internal_count": 733, "left_child": {"split_index": 24, "split_feature": 7, "split_gain": 101.99800109863281, "threshold": 0.6439593055182035, "decision_type": "<=", "default_left": true, "missing_type": "None", "internal_value": 0.0605713, "internal_weight": 20.3689, "internal_count": 117, "left_child": {"leaf_index": 12, "leaf_value": -0.04943649173410689, "leaf_weight": 10.357027754187584, "leaf_count": 61}, "right_child": {"leaf_index": 25, "leaf_value": 0.1743711065683389, "leaf_weight": 10.011916130781174, "leaf_count": 56}}, "right_child": {"leaf_index": 24, "leaf_value": -0.06305357308426351, "leaf_weight": 103.18003219366074, "leaf_count": 616}}}}}, "right_child": {"split_index": 3, "split_feature": 7, "split_gain": 415.4119873046875, "threshold": 0.02761194447676341, "decision_type": "<=", "default_left": true, "missing_type": "None", "internal_value": 0.0279273, "internal_weight": 9347.65, "internal_count": 47239, "left_child": {"split_index": 4, "split_feature": 0, "split_gain": 500.781005859375, "threshold": -16.88189018986503, "decision_type": "<=", "default_left": true, "missing_type": "None", "internal_value": 0.0350611, "internal_weight": 6411.01, "internal_count": 31737, "left_child": {"split_index": 16, "split_feature": 7, "split_gain": 118.02899932861328, "threshold": 0.0093599999944369, "decision_type": "<=", "default_left": true, "missing_type": "None", "internal_value": 0.00611098, "internal_weight": 1211.5, "internal_count": 6518, "left_child": {"leaf_index": 3, "leaf_value": -0.0008776668046616648, "leaf_weight": 1009.1376345604658, "leaf_count": 5474}, "right_child": {"leaf_index": 17, "leaf_value": 0.04096187566326839, "leaf_weight": 202.36225299537182, "leaf_count": 1044}}, "right_child": {"split_index": 6, "split_feature": 6, "split_gain": 314.1189880371094, "threshold": 0.005834348374100295, "decision_type": "<=", "default_left": true, "missing_type": "None", "internal_value": 0.0418066, "internal_weight": 5199.51, "internal_count": 25219, "left_child": {"leaf_index": 5, "leaf_value": -0.02560610705412519, "leaf_weight": 167.24454228579998, "leaf_count": 972}, "right_child": {"split_index": 13, "split_feature": 0, "split_gain": 130.09100341796875, "threshold": -16.213120879539513, "decision_type": "<=", "default_left": true, "missing_type": "None", "internal_value": 0.044047, "internal_weight": 5032.27, "internal_count": 24247, "left_child": {"split_index": 17, "split_feature": 4, "split_gain": 115.33399963378906, "threshold": 2.150000000000001, "decision_type": "<=", "default_left": true, "missing_type": "None", "internal_value": 0.051001, "internal_weight": 2878.48, "internal_count": 13733, "left_child": {"leaf_index": 7, "leaf_value": 0.045305310596756694, "leaf_weight": 2174.3128664791584, "leaf_count": 10505}, "right_child": {"split_index": 25, "split_feature": 4, "split_gain": 98.84120178222656, "threshold": 4.8500000000000005, "decision_type": "<=", "default_left": true, "missing_type": "None", "internal_value": 0.068588, "internal_weight": 704.163, "internal_count": 3228, "left_child": {"leaf_index": 18, "leaf_value": 0.07267712138918545, "leaf_weight": 672.1352622509003, "leaf_count": 3076}, "right_child": {"leaf_index": 26, "leaf_value": -0.017228382288567073, "leaf_weight": 32.02740700542927, "leaf_count": 152}}}, "right_child": {"split_index": 14, "split_feature": 4, "split_gain": 185.5850067138672, "threshold": 2.85, "decision_type": "<=", "default_left": true, "missing_type": "None", "internal_value": 0.0347532, "internal_weight": 2153.79, "internal_count": 10514, "left_child": {"leaf_index": 14, "leaf_value": 0.022217448314092354, "leaf_weight": 1245.3295882046223, "leaf_count": 6248}, "right_child": {"split_index": 29, "split_feature": 6, "split_gain": 92.80950164794922, "threshold": 0.017560395844128242, "decision_type": "<=", "default_left": true, "missing_type": "None", "internal_value": 0.0519373, "internal_weight": 908.464, "internal_count": 4266, "left_child": {"leaf_index": 15, "leaf_value": 0.06403322658310416, "leaf_weight": 577.5857981294394, "leaf_count": 2693}, "right_child": {"leaf_index": 30, "leaf_value": 0.03082256641832648, "leaf_weight": 330.87870049476624, "leaf_count": 1573}}}}}}, "right_child": {"split_index": 12, "split_feature": 5, "split_gain": 133.86399841308594, "threshold": 0.10205973603212252, "decision_type": "<=", "default_left": true, "missing_type": "None", "internal_value": 0.0123534, "internal_weight": 2936.63, "internal_count": 15502, "left_child": {"split_index": 15, "split_feature": 4, "split_gain": 123.78299713134766, "threshold": 6.950000000000001, "decision_type": "<=", "default_left": true, "missing_type": "None", "internal_value": 0.0103234, "internal_weight": 2834.15, "internal_count": 14997, "left_child": {"split_index": 19, "split_feature": 6, "split_gain": 113.05699920654297, "threshold": 0.04772726670421921, "decision_type": "<=", "default_left": true, "missing_type": "None", "internal_value": 0.0118547, "internal_weight": 2774.56, "internal_count": 14593, "left_child": {"split_index": 26, "split_feature": 7, "split_gain": 94.17720031738281, "threshold": 0.26220069444841815, "decision_type": "<=", "default_left": true, "missing_type": "None", "internal_value": 0.0135201, "internal_weight": 2701.02, "internal_count": 14202, "left_child": {"split_index": 27, "split_feature": 7, "split_gain": 162.2010040283203, "threshold": 0.2046205555068122, "decision_type": "<=", "default_left": true, "missing_type": "None", "internal_value": 0.0158656, "internal_weight": 2540.68, "internal_count": 13327, "left_child": {"leaf_index": 4, "leaf_value": 0.013566436484602755, "leaf_weight": 2459.229298993945, "leaf_count": 12895}, "right_child": {"split_index": 28, "split_feature": 5, "split_gain": 129.7689971923828, "threshold": -0.059918158238075704, "decision_type": "<=", "default_left": true, "missing_type": "None", "internal_value": 0.0852845, "internal_weight": 81.4492, "internal_count": 432, "left_child": {"leaf_index": 28, "leaf_value": 0.15521107087219446, "leaf_weight": 36.56346605718136, "leaf_count": 190}, "right_child": {"leaf_index": 29, "leaf_value": 0.028323074677075694, "leaf_weight": 44.88575556874275, "leaf_count": 242}}}, "right_child": {"leaf_index": 27, "leaf_value": -0.02364462856474557, "leaf_weight": 160.34121760725975, "leaf_count": 875}}, "right_child": {"leaf_index": 20, "leaf_value": -0.04931291754592029, "leaf_weight": 73.54054303467274, "leaf_count": 391}}, "right_child": {"leaf_index": 16, "leaf_value": -0.06098123717345714, "leaf_weight": 59.58512435853481, "leaf_count": 404}}, "right_child": {"split_index": 22, "split_feature": 0, "split_gain": 106.33999633789062, "threshold": -15.489184175605592, "decision_type": "<=", "default_left": true, "missing_type": "None", "internal_value": 0.0684914, "internal_weight": 102.486, "internal_count": 505, "left_child": {"leaf_index": 13, "leaf_value": 0.10153418053103952, "leaf_weight": 72.12731604278088, "leaf_count": 347}, "right_child": {"leaf_index": 23, "leaf_value": -0.010013051085722154, "leaf_weight": 30.35864156484604, "leaf_count": 158}}}}}, "right_child": {"leaf_index": 2, "leaf_value": -0.05830319601673484, "leaf_weight": 884.1450155079365, "leaf_count": 6097}}}}, {"tree_index": 7, "num_leaves": 31, "num_cat": 0, "shrinkage": 0.05, "tree_structure": {"split_index": 0, "split_feature": 0, "split_gain": 3816.8701171875, "threshold": -17.15779821661059, "decision_type": "<=", "default_left": true, "missing_type": "None", "internal_value": 0, "internal_weight": 0, "internal_count": 119392, "left_child": {"split_index": 4, "split_feature": 0, "split_gain": 334.3160095214844, "threshold": -17.35287625693711, "decision_type": "<=", "default_left": true, "missing_type": "None", "internal_value": -0.0411676, "internal_weight": 4474.37, "internal_count": 29782, "left_child": {"leaf_index": 0, "leaf_value": -0.05444536868143318, "leaf_weight": 2301.8477042913437, "leaf_count": 16152}, "right_child": {"leaf_index": 5, "leaf_value": -0.027099357336694815, "leaf_weight": 2172.519086241722, "leaf_count": 13630}}, "right_child": {"split_index": 1, "split_feature": 0, "split_gain": 1678.97998046875, "threshold": -15.121867412276591, "decision_type": "<=", "default_left": true, "missing_type": "None", "internal_value": 0.0108191, "internal_weight": 16741.2, "internal_count": 89610, "left_child": {"split_index": 2, "split_feature": 2, "split_gain": 1480.31005859375, "threshold": 0.18333333333333338, "decision_type": "<=", "default_left": true, "missing_type": "None", "internal_value": 0.0144833, "internal_weight": 15890.3, "internal_count": 83513, "left_child": {"split_index": 10, "split_feature": 3, "split_gain": 185.38099670410156, "threshold": 0.44586271793094284, "decision_type": "<=", "default_left": true, "missing_type": "None", "internal_value": -0.00514268, "internal_weight": 5987.58, "internal_count": 33979, "left_child": {"split_index": 24, "split_feature": 0, "split_gain": 74.21379852294922, "threshold": -16.764805861020182, "decision_type": "<=", "default_left": true, "missing_type": "None", "internal_value": -0.0172371, "internal_weight": 2071.97, "internal_count": 12110, "left_child": {"split_index": 25, "split_feature": 4, "split_gain": 82.85790252685547, "threshold": 0.15000000000000005, "decision_type": "<=", "default_left": true, "missing_type": "None", "internal_value": -0.0135645, "internal_weight": 1800.73, "internal_count": 10474, "left_child": {"leaf_index": 1, "leaf_value": -0.030125536497264634, "leaf_weight": 532.09231095016, "leaf_count": 3184}, "right_child": {"leaf_index": 26, "leaf_value": -0.006618426030878338, "leaf_weight": 1268.6340334415436, "leaf_count": 7290}}, "right_child": {"leaf_index": 25, "leaf_value": -0.04161886256278859, "leaf_weight": 271.2434646934271, "leaf_count": 1636}}, "right_child": {"split_index": 12, "split_feature": 5, "split_gain": 135.55599975585938, "threshold": 0.030803940026072348, "decision_type": "<=", "default_left": true, "missing_type": "None", "internal_value": 0.00125717, "internal_weight": 3915.61, "internal_count": 21869, "left_child": {"split_index": 27, "split_feature": 6, "split_gain": 70.4740982055664, "threshold": 0.0020277116818246603, "decision_type": "<=", "default_left": true, "missing_type": "None", "internal_value": -0.00387607, "internal_weight": 3001.72, "internal_count": 17016, "left_child": {"leaf_index": 11, "leaf_value": -0.06092037657962766, "leaf_weight": 53.18399442732334, "leaf_count": 304}, "right_child": {"split_index": 28, "split_feature": 2, "split_gain": 71.6218032836914, "threshold": 0.08333333333333336, "decision_type": "<=", "default_left": true, "missing_type": "None", "internal_value": -0.00284714, "internal_weight": 2948.54, "internal_count": 16712, "left_child": {"leaf_index": 28, "leaf_value": -0.010530454383763042, "leaf_weight": 1495.111542135477, "leaf_count": 8604}, "right_child": {"leaf_index": 29, "leaf_value": 0.005056546091113105, "leaf_weight": 1453.426460325718, "leaf_count": 8108}}}, "right_child": {"leaf_index": 13, "leaf_value": 0.01811764488288859, "leaf_weight": 913.8851835280657, "leaf_count": 4853}}}, "right_child": {"split_index": 3, "split_feature": 2, "split_gain": 381.6700134277344, "threshold": 0.4833333333333334, "decision_type": "<=", "default_left": true, "missing_type": "None", "internal_value": 0.02635, "internal_weight": 9902.69, "internal_count": 49534, "left_child": {"split_index": 6, "split_feature": 6, "split_gain": 250.05999755859375, "threshold": 0.009269321425085882, "decision_type": "<=", "default_left": true, "missing_type": "None", "internal_value": 0.0160572, "internal_weight": 4716.67, "internal_count": 24419, "left_child": {"leaf_index": 3, "leaf_value": -0.02412620451628128, "leaf_weight": 357.79192920029163, "leaf_count": 2003}, "right_child": {"split_index": 14, "split_feature": 3, "split_gain": 123.27400207519531, "threshold": 3.8759113166673815, "decision_type": "<=", "default_left": true, "missing_type": "None", "internal_value": 0.0193555, "internal_weight": 4358.88, "internal_count": 22416, "left_child": {"split_index": 20, "split_feature": 3, "split_gain": 112.08200073242188, "threshold": 0.2853090447983542, "decision_type": "<=", "default_left": true, "missing_type": "None", "internal_value": 0.0218057, "internal_weight": 4017.75, "internal_count": 20582, "left_child": {"leaf_index": 7, "leaf_value": 0.00428153345000777, "leaf_weight": 743.5723670572042, "leaf_count": 4120}, "right_child": {"leaf_index": 21, "leaf_value": 0.02578542901580996, "leaf_weight": 3274.1774733513594, "leaf_count": 16462}}, "right_child": {"leaf_index": 15, "leaf_value": -0.009501227118301044, "leaf_weight": 341.13204926252365, "leaf_count": 1834}}}, "right_child": {"split_index": 5, "split_feature": 4, "split_gain": 272.01800537109375, "threshold": 0.8500000000000002, "decision_type": "<=", "default_left": true, "missing_type": "None", "internal_value": 0.0357114, "internal_weight": 5186.02, "internal_count": 25115, "left_child": {"split_index": 11, "split_feature": 3, "split_gain": 166.24099731445312, "threshold": 2.1995959544469454, "decision_type": "<=", "default_left": true, "missing_type": "None", "internal_value": 0.0916827, "internal_weight": 208.352, "internal_count": 907, "left_child": {"leaf_index": 4, "leaf_value": -0.012501366977098785, "leaf_weight": 32.345027431845665, "leaf_count": 174}, "right_child": {"leaf_index": 12, "leaf_value": 0.11082867691073035, "leaf_weight": 176.00734102725983, "leaf_count": 733}}, "right_child": {"split_index": 7, "split_feature": 4, "split_gain": 220.0290069580078, "threshold": 6.750000000000001, "decision_type": "<=", "default_left": true, "missing_type": "None", "internal_value": 0.0333686, "internal_weight": 4977.67, "internal_count": 24208, "left_child": {"split_index": 8, "split_feature": 3, "split_gain": 224.80299377441406, "threshold": 0.31225981830288, "decision_type": "<=", "default_left": true, "missing_type": "None", "internal_value": 0.0348371, "internal_weight": 4882.39, "internal_count": 23602, "left_child": {"leaf_index": 6, "leaf_value": -0.005483925375459126, "leaf_weight": 322.8274818956852, "leaf_count": 1790}, "right_child": {"split_index": 9, "split_feature": 6, "split_gain": 206.35400390625, "threshold": 0.002764515259647234, "decision_type": "<=", "default_left": true, "missing_type": "None", "internal_value": 0.0376919, "internal_weight": 4559.56, "internal_count": 21812, "left_child": {"leaf_index": 9, "leaf_value": -0.056801390012852115, "leaf_weight": 57.05366022884846, "leaf_count": 332}, "right_child": {"split_index": 13, "split_feature": 0, "split_gain": 126.33899688720703, "threshold": -16.24612695398722, "decision_type": "<=", "default_left": true, "missing_type": "None", "internal_value": 0.0388893, "internal_weight": 4502.51, "internal_count": 21480, "left_child": {"split_index": 22, "split_feature": 4, "split_gain": 86.464599609375, "threshold": 5.050000000000001, "decision_type": "<=", "default_left": true, "missing_type": "None", "internal_value": 0.0490642, "internal_weight": 1818.58, "internal_count": 8365, "left_child": {"split_index": 23, "split_feature": 4, "split_gain": 93.68329620361328, "threshold": 2.150000000000001, "decision_type": "<=", "default_left": true, "missing_type": "None", "internal_value": 0.0504022, "internal_weight": 1791.6, "internal_count": 8230, "left_child": {"leaf_index": 10, "leaf_value": 0.041060395489702604, "leaf_weight": 1074.369024515152, "leaf_count": 5008}, "right_child": {"leaf_index": 24, "leaf_value": 0.06439585303837245, "leaf_weight": 717.2263734787703, "leaf_count": 3222}}, "right_child": {"leaf_index": 23, "leaf_value": -0.03976666349995606, "leaf_weight": 26.987197026610374, "leaf_count": 135}}, "right_child": {"split_index": 15, "split_feature": 2, "split_gain": 118.71900177001953, "threshold": 1.2500000000000002, "decision_type": "<=", "default_left": true, "missing_type": "None", "internal_value": 0.0319949, "internal_weight": 2683.92, "internal_count": 13115, "left_child": {"split_index": 21, "split_feature": 3, "split_gain": 99.96869659423828, "threshold": 4.105626392385607, "decision_type": "<=", "default_left": true, "missing_type": "None", "internal_value": 0.0247489, "internal_weight": 1819.86, "internal_count": 9092, "left_child": {"leaf_index": 14, "leaf_value": 0.031365425923934286, "leaf_weight": 1379.9596272706985, "leaf_count": 6762}, "right_child": {"leaf_index": 22, "leaf_value": 0.0039932713108868515, "leaf_weight": 439.90490555763245, "leaf_count": 2330}}, "right_child": {"split_index": 16, "split_feature": 6, "split_gain": 142.86000061035156, "threshold": 0.011660801739101265, "decision_type": "<=", "default_left": true, "missing_type": "None", "internal_value": 0.0472563, "internal_weight": 864.06, "internal_count": 4023, "left_child": {"split_index": 18, "split_feature": 0, "split_gain": 131.72799682617188, "threshold": -15.646585295556763, "decision_type": "<=", "default_left": true, "missing_type": "None", "internal_value": 0.0778472, "internal_weight": 264.723, "internal_count": 1231, "left_child": {"leaf_index": 16, "leaf_value": 0.01621061693217207, "leaf_weight": 65.30146865546703, "leaf_count": 312}, "right_child": {"split_index": 19, "split_feature": 0, "split_gain": 139.6320037841797, "threshold": -15.217796487575109, "decision_type": "<=", "default_left": true, "missing_type": "None", "internal_value": 0.0980303, "internal_weight": 199.422, "internal_count": 919, "left_child": {"split_index": 26, "split_feature": 3, "split_gain": 73.47769927978516, "threshold": 3.8759113166673815, "decision_type": "<=", "default_left": true, "missing_type": "None", "internal_value": 0.118519, "internal_weight": 160.849, "internal_count": 729, "left_child": {"leaf_index": 19, "leaf_value": -0.030518972229611377, "leaf_weight": 7.865573301911353, "leaf_count": 40}, "right_child": {"leaf_index": 27, "leaf_value": 0.1261812499458643, "leaf_weight": 152.9836138188839, "leaf_count": 689}}, "right_child": {"leaf_index": 20, "leaf_value": 0.012593016697791682, "leaf_weight": 38.57231901586056, "leaf_count": 190}}}, "right_child": {"split_index": 17, "split_feature": 5, "split_gain": 138.06199645996094, "threshold": 0.007489215620329987, "decision_type": "<=", "default_left": true, "missing_type": "None", "internal_value": 0.0337445, "internal_weight": 599.337, "internal_count": 2792, "left_child": {"leaf_index": 17, "leaf_value": -0.007120171699301155, "leaf_weight": 153.68816457688808, "leaf_count": 750}, "right_child": {"leaf_index": 18, "leaf_value": 0.04783719284023167, "leaf_weight": 445.6487492918968, "leaf_count": 2042}}}}}}}, "right_child": {"split_index": 29, "split_feature": 5, "split_gain": 70.40249633789062, "threshold": 0.18140488070503172, "decision_type": "<=", "default_left": true, "missing_type": "None", "internal_value": -0.0418834, "internal_weight": 95.2775, "internal_count": 606, "left_child": {"leaf_index": 8, "leaf_value": -0.05178972380803623, "leaf_weight": 90.47132988274097, "leaf_count": 584}, "right_child": {"leaf_index": 30, "leaf_value": 0.14459306188064208, "leaf_weight": 4.806186988949775, "leaf_count": 22}}}}}}, "right_child": {"leaf_index": 2, "leaf_value": -0.05760576108905083, "leaf_weight": 850.9487370103598, "leaf_count": 6097}}}}, {"tree_index": 8, "num_leaves": 31, "num_cat": 0, "shrinkage": 0.05, "tree_structure": {"split_index": 0, "split_feature": 0, "split_gain": 3529.14990234375, "threshold": -17.21522966744212, "decision_type": "<=", "default_left": true, "missing_type": "None", "internal_value": 0, "internal_weight": 0, "internal_count": 119392, "left_child": {"split_index": 8, "split_feature": 0, "split_gain": 185.89999389648438, "threshold": -17.364167569936928, "decision_type": "<=", "default_left": true, "missing_type": "None", "internal_value": -0.0446716, "internal_weight": 3677.45, "internal_count": 25552, "left_child": {"leaf_index": 0, "leaf_value": -0.05446521919396572, "leaf_weight": 2090.7098373770714, "leaf_count": 15210}, "right_child": {"leaf_index": 9, "leaf_value": -0.03176742501685164, "leaf_weight": 1586.7358754575253, "leaf_count": 10342}}, "right_child": {"split_index": 1, "split_feature": 0, "split_gain": 1504.010009765625, "threshold": -15.121867412276591, "decision_type": "<=", "default_left": true, "missing_type": "None", "internal_value": 0.0092211, "internal_weight": 17462.7, "internal_count": 93840, "left_child": {"split_index": 2, "split_feature": 2, "split_gain": 1435.3399658203125, "threshold": 0.18333333333333338, "decision_type": "<=", "default_left": true, "missing_type": "None", "internal_value": 0.0124753, "internal_weight": 16644.1, "internal_count": 87743, "left_child": {"split_index": 5, "split_feature": 3, "split_gain": 200.3990020751953, "threshold": 0.44586271793094284, "decision_type": "<=", "default_left": true, "missing_type": "None", "internal_value": -0.00591879, "internal_weight": 6477.92, "internal_count": 37153, "left_child": {"split_index": 6, "split_feature": 7, "split_gain": 245.6199951171875, "threshold": 0.06993805554178027, "decision_type": "<=", "default_left": true, "missing_type": "None", "internal_value": -0.0167959, "internal_weight": 2560.66, "internal_count": 15284, "left_child": {"leaf_index": 1, "leaf_value": -0.008427925431104351, "leaf_weight": 1981.9290145784616, "leaf_count": 11596}, "right_child": {"leaf_index": 7, "leaf_value": -0.04545292865496898, "leaf_weight": 578.7333248406649, 